{"learner":{"attributes":{"scikit_learn":"{\"_estimator_type\": \"regressor\"}"},"feature_names":[],"feature_types":[],"gradient_booster":{"model":{"cats":{"enc":[],"feature_segments":[],"sorted_idx":[]},"gbtree_model_param":{"num_parallel_tree":"1","num_trees":"50"},"iteration_indptr":[0,1,2,3,4,5,6,7,8,9,10,11,12,13,14,15,16,17,18,19,20,21,22,23,24,25,26,27,28,29,30,31,32,33,34,35,36,37,38,39,40,41,42,43,44,45,46,47,48,49,50],"tree_info":[0,0,0,0,0,0,0,0,0,0,0,0,0,0,0,0,0,0,0,0,0,0,0,0,0,0,0,0,0,0,0,0,0,0,0,0,0,0,0,0,0,0,0,0,0,0,0,0,0,0],"trees":[{"base_weights":[2.906536E-10,5.189127E-3,-6.337024E-2,1.9479115E-2,3.7577173E-3,-2.5930677E-2,-4.9143888E-2,6.5910164E-3,-1.838663E-2,-1.5878574E-3,-7.068809E-2,-1.6896E-3,2.3547428E-2,-1.0639102E-2,4.4462294E-3,-3.2397952E-2,-9.9896714E-2,1.1111396E-2,-3.3923448E-3,1.5113569E-2,6.2126096E-2,5.189358E-3,-1.8164065E-2,3.8789362E-3,-4.6486653E-2,-1.3001353E-2,-5.981134E-3,-5.754587E-4,-5.365278E-2,-5.806879E-2,1.8486628E-2,-5.6879334E-3,9.2150226E-2,-7.6940807E-4,1.1532827E-3,-2.3319412E-3,-8.4677024E-4,1.0071372E-3,-7.349186E-4,-5.419716E-3,-1.5570092E-3,8.665257E-3,-1.5335618E-2,-1.5531895E-2,-1.0189198E-2,-6.901399E-3,-7.1439886E-4,-2.0413535E-2,2.284211E-2,-6.078004E-3,1.0865229E-2,1.2248113E-1,2.1185214E-2,4.6048367E-6,-1.2001605E-4,6.9539934E-2,3.9874176E-3,-2.0730434E-2,2.46052E-2,1.0790096E-2,-3.8747508E-2,-5.3988486E-3,-5.865308E-3,3.1190686E-2,1.0791764E-2,2.3012204E-5,1.5197514E-2,5.2560824E-3,1.4213114E-2,-4.0837718E-4,3.2084105E-3,1.1762334E-2,2.526037E-2,7.955576E-5,6.303071E-2,-6.383817E-2,-1.2877313E-2,-1.3254869E-2,4.5192093E-2,1.54645955E-2,-3.9539518E-4,-4.2527276E-3,-1.1814222E-3,2.1498194E-3,-1.1448253E-2,2.3861133E-2,7.126917E-2,-3.1981178E-2,1.6432678E-2,1.5408166E-4,-1.5062983E-4,4.487673E-4,1.6753055E-3,-5.6036696E-4,4.991104E-4,3.986906E-3,1.6180745E-3,6.4719617E-3,-1.4045051E-2,-2.0802435E-3,1.0841435E-1,-1.8944656E-3,-7.0278384E-3,5.643281E-3,-1.5586384E-2,-4.6237782E-4,-2.162907E-3,5.460678E-3,1.1298686E-3,1.7723767E-3,4.34354E-4,-4.165355E-3,-2.2197966E-3,1.0237911E-2,3.3226367E-2,-1.3389932E-4,8.183305E-3,-3.869515E-3,-2.5626476E-4,2.741214E-2,-7.660429E-4,-1.3867263E-3,1.8828465E-2,-1.9951345E-2,7.4408553E-3,8.110564E-4,1.2685301E-2,-6.5516266E-3,-4.0443778E-2,1.0100484E-4,-1.7036153E-4,4.6048367E-6,-5.0168455E-4,1.3728573E-2,-8.029545E-3,4.0504385E-2,9.968274E-3,3.1988185E-2,5.4559563E-3,2.9024972E-2,-1.0632544E-2,-6.116511E-3,2.9530212E-2,2.8369214E-2,-9.768481E-3,-6.890112E-3,-2.770877E-2,-1.9049959E-3,2.9882842E-3,-1.0365937E-2,2.5690515E-2,-1.6582712E-3,-5.4177295E-2,-5.2720793E-3,1.7880175E-2,-1.9529747E-3,-1.3129627E-3,1.1097842E-3,4.301571E-2,2.324507E-3,-2.6468167E-3,4.5374343E-3,2.151391E-2,-1.5839878E-3,1.0677249E-3,7.292425E-4,3.3838346E-3,1.9261641E-3,-1.7152669E-2,-2.9733455E-2,-4.8195367E-4,6.1397827E-6,3.9342918E-2,1.630722E-2,5.6485802E-2,2.9266828E-3,-1.7357608E-2,-1.0842146E-2,2.3919782E-3,-1.4555359E-2,-4.7263647E-3,4.804017E-3,-1.4688022E-3,-2.1818683E-2,6.045178E-4,8.9920283E-4,3.786137E-3,6.4101326E-4,-1.1863386E-2,-2.8574346E-3,-6.156104E-3,-8.084033E-4,-1.6400836E-4,8.824296E-3,2.293695E-3,-2.800072E-4,-1.2939024E-5,2.2961604E-3,4.68327E-2,-6.1706547E-4,1.7592937E-3,2.589464E-3,1.020196E-3,1.5253383E-4,-3.9013202E-4,9.473116E-6,3.1155426E-4,-1.82869E-3,-4.60653E-4,-3.5406988E-2,-4.692877E-4,-7.5894776E-3,2.0884432E-2,4.2935954E-3,1.0688875E-3,2.3348425E-3,3.467763E-2,6.2637287E-3,6.712715E-4,-2.4092456E-3,-2.9159337E-3,7.759387E-5,-1.384366E-3,-2.2050773E-4,4.0925114E-4,-3.710715E-3,-2.48699E-2,6.471039E-4,-1.7655459E-4,-3.3134078E-3,-3.4800064E-2,-2.0246938E-2,9.352261E-3,-5.951835E-4,7.3006394E-4,-3.487576E-4,-1.4307502E-3,9.5235603E-4,2.3143568E-4,4.844432E-3,1.2135024E-3,4.6048367E-6,2.5928923E-4,-3.867164E-3,-6.2772154E-4,5.351308E-5,-2.632959E-3,3.1075936E-3,-4.7196858E-4,2.9333886E-3,-8.6982595E-4,1.4058128E-3,4.83616E-3,1.8103105E-5,-4.0085992E-4,-7.252253E-4,1.6438866E-4,-2.7081952E-3,-5.798798E-4,-1.4631519E-3,2.7598237E-4,-5.799224E-4,-3.915027E-3,-3.1060174E-3,8.1285165E-4,1.6598058E-3,-5.4285258E-5],"categories":[],"categories_nodes":[],"categories_segments":[],"categories_sizes":[],"default_left":[0,0,0,0,0,0,0,0,0,0,0,0,0,0,0,0,0,0,0,0,0,0,0,0,0,0,0,0,0,0,0,0,0,0,0,0,0,0,0,0,0,0,0,0,0,0,0,0,0,0,0,0,0,0,0,0,0,0,0,0,0,0,0,0,0,0,0,0,0,0,0,0,0,0,0,0,0,0,0,0,0,0,0,0,0,0,0,0,0,0,0,0,0,0,0,0,0,0,0,0,0,0,0,0,0,0,0,0,0,0,0,0,0,0,0,0,0,0,0,0,0,0,0,0,0,0,0,0,0,0,0,0,0,0,0,0,0,0,0,0,0,0,0,0,0,0,0,0,0,0,0,0,0,0,0,0,0,0,0,0,0,0,0,0,0,0,0,0,0,0,0,0,0,0,0,0,0,0,0,0,0,0,0,0,0,0,0,0,0,0,0,0,0,0,0,0,0,0,0,0,0,0,0,0,0,0,0,0,0,0,0,0,0,0,0,0,0,0,0,0,0,0,0,0,0,0,0,0,0,0,0,0,0,0,0,0,0,0,0,0,0,0,0,0,0,0,0,0,0,0,0,0,0,0,0,0,0,0,0,0,0,0,0,0,0,0,0],"id":0,"left_children":[1,3,5,-1,7,-1,9,11,-1,13,15,17,19,21,-1,23,25,-1,27,29,31,33,35,37,39,-1,-1,41,43,45,47,49,51,53,-1,-1,-1,-1,-1,-1,-1,55,57,59,-1,-1,-1,61,63,-1,65,67,69,-1,-1,71,73,75,77,79,81,83,-1,85,87,89,91,-1,-1,93,-1,-1,95,97,99,101,103,105,107,109,-1,-1,-1,-1,111,113,115,117,119,-1,-1,-1,-1,-1,-1,-1,-1,121,123,-1,125,-1,-1,-1,127,129,-1,-1,-1,-1,-1,131,-1,133,135,-1,-1,-1,-1,137,139,141,143,145,147,-1,-1,149,151,-1,-1,-1,-1,153,155,157,159,161,163,165,167,169,171,173,175,177,179,181,-1,183,185,187,189,191,193,195,-1,-1,197,-1,199,-1,201,203,-1,-1,-1,205,207,209,211,-1,213,215,217,-1,219,221,223,225,-1,227,-1,229,231,233,-1,-1,235,-1,-1,-1,-1,237,-1,-1,-1,-1,239,-1,241,-1,-1,-1,-1,-1,-1,-1,-1,243,-1,245,247,-1,-1,249,251,-1,-1,-1,253,-1,-1,-1,-1,255,257,-1,-1,259,261,263,265,-1,-1,-1,-1,-1,-1,-1,-1,-1,-1,-1,-1,-1,-1,-1,-1,-1,-1,-1,-1,-1,-1,-1,-1,-1,-1,-1,-1,-1,-1,-1,-1,-1,-1],"loss_changes":[1.4337258E-1,1.0864147E-1,7.92429E-2,0E0,2.1438146E-1,0E0,3.2673568E-2,5.5641964E-2,0E0,5.0579617E-3,2.1368407E-2,5.166115E-2,4.135876E-2,1.2853454E-3,0E0,5.802354E-3,6.710641E-3,0E0,3.7345696E-2,2.7733134E-2,4.7353476E-2,1.6007046E-4,1.5245494E-4,3.5213405E-4,1.0632034E-3,0E0,0E0,3.436789E-2,2.4162315E-2,2.2938754E-3,1.8086888E-2,7.955978E-3,3.1844124E-2,1.109045E-6,0E0,0E0,0E0,0E0,0E0,0E0,0E0,4.3860815E-2,2.1410996E-2,5.917819E-3,0E0,0E0,0E0,5.999044E-3,9.120107E-3,0E0,3.2845134E-4,7.642746E-3,1.425179E-3,0E0,0E0,2.044902E-2,3.3451274E-2,2.8291535E-2,9.952068E-3,4.0575158E-4,6.581191E-6,1.7105167E-3,0E0,1.445609E-2,1.0176678E-2,9.284512E-6,8.115778E-6,0E0,0E0,1.1212413E-4,0E0,0E0,2.8337864E-4,1.2460659E-2,3.6497165E-2,2.4272092E-3,1.4774268E-2,5.2563363E-4,1.93578E-3,2.3513567E-5,0E0,0E0,0E0,0E0,5.3385017E-4,5.783893E-3,6.245766E-3,8.8841375E-4,6.8189763E-3,0E0,0E0,0E0,0E0,0E0,0E0,0E0,0E0,9.251172E-3,5.605245E-3,0E0,1.0067947E-2,0E0,0E0,0E0,1.5904825E-2,7.203625E-6,0E0,0E0,0E0,0E0,0E0,2.1746826E-5,0E0,1.44931E-3,4.3358803E-3,0E0,0E0,0E0,0E0,2.0358674E-3,4.7176057E-3,8.808219E-3,1.0372067E-2,3.254016E-3,2.1543212E-3,0E0,0E0,6.9073094E-3,1.0030728E-2,0E0,0E0,0E0,0E0,1.5141624E-3,9.832223E-5,1.0734573E-3,1.4014291E-3,1.5476048E-3,2.0070067E-4,1.716637E-4,1.015651E-3,6.9053625E-3,2.310935E-3,8.574855E-3,3.470441E-3,5.3949805E-4,4.713539E-3,7.566535E-4,0E0,6.1696386E-3,1.7763437E-3,5.700798E-4,8.8757277E-4,2.7593509E-5,4.84501E-4,4.2719585E-6,0E0,0E0,3.7902594E-4,0E0,8.848809E-5,0E0,3.3047935E-4,2.7566859E-5,0E0,0E0,0E0,1.0596195E-5,2.9602554E-5,1.254525E-3,6.688572E-3,0E0,1.5879236E-4,5.309277E-3,2.0289589E-3,0E0,8.0511044E-4,3.5946036E-4,4.811153E-5,1.4737204E-3,0E0,7.713454E-5,0E0,5.6500686E-3,4.9318373E-3,1.7502163E-4,0E0,0E0,1.1515862E-5,0E0,0E0,0E0,0E0,9.824231E-6,0E0,0E0,0E0,0E0,2.5091693E-4,0E0,4.1650774E-6,0E0,0E0,0E0,0E0,0E0,0E0,0E0,0E0,5.1803794E-4,0E0,5.03854E-3,3.0170581E-3,0E0,0E0,4.127635E-3,1.8595364E-3,0E0,0E0,0E0,1.4261466E-5,0E0,0E0,0E0,0E0,1.6363007E-4,1.3826136E-4,0E0,0E0,7.964929E-4,1.539195E-3,2.7071175E-3,1.3712719E-3,0E0,0E0,0E0,0E0,0E0,0E0,0E0,0E0,0E0,0E0,0E0,0E0,0E0,0E0,0E0,0E0,0E0,0E0,0E0,0E0,0E0,0E0,0E0,0E0,0E0,0E0,0E0,0E0,0E0,0E0,0E0,0E0,0E0,0E0],"parents":[2147483647,0,0,1,1,2,2,4,4,6,6,7,7,9,9,10,10,11,11,12,12,13,13,15,15,16,16,18,18,19,19,20,20,21,21,22,22,23,23,24,24,27,27,28,28,29,29,30,30,31,31,32,32,33,33,41,41,42,42,43,43,47,47,48,48,50,50,51,51,52,52,55,55,56,56,57,57,58,58,59,59,60,60,61,61,63,63,64,64,65,65,66,66,69,69,72,72,73,73,74,74,75,75,76,76,77,77,78,78,79,79,84,84,85,85,86,86,87,87,88,88,97,97,98,98,100,100,104,104,105,105,111,111,113,113,114,114,119,119,120,120,121,121,122,122,123,123,124,124,127,127,128,128,133,133,134,134,135,135,136,136,137,137,138,138,139,139,140,140,141,141,142,142,143,143,144,144,145,145,146,146,147,147,149,149,150,150,151,151,152,152,153,153,154,154,155,155,158,158,160,160,162,162,163,163,167,167,168,168,169,169,170,170,172,172,173,173,174,174,176,176,177,177,178,178,179,179,181,181,183,183,184,184,185,185,188,188,193,193,198,198,200,200,209,209,211,211,212,212,215,215,216,216,220,220,225,225,226,226,229,229,230,230,231,231,232,232],"right_children":[2,4,6,-1,8,-1,10,12,-1,14,16,18,20,22,-1,24,26,-1,28,30,32,34,36,38,40,-1,-1,42,44,46,48,50,52,54,-1,-1,-1,-1,-1,-1,-1,56,58,60,-1,-1,-1,62,64,-1,66,68,70,-1,-1,72,74,76,78,80,82,84,-1,86,88,90,92,-1,-1,94,-1,-1,96,98,100,102,104,106,108,110,-1,-1,-1,-1,112,114,116,118,120,-1,-1,-1,-1,-1,-1,-1,-1,122,124,-1,126,-1,-1,-1,128,130,-1,-1,-1,-1,-1,132,-1,134,136,-1,-1,-1,-1,138,140,142,144,146,148,-1,-1,150,152,-1,-1,-1,-1,154,156,158,160,162,164,166,168,170,172,174,176,178,180,182,-1,184,186,188,190,192,194,196,-1,-1,198,-1,200,-1,202,204,-1,-1,-1,206,208,210,212,-1,214,216,218,-1,220,222,224,226,-1,228,-1,230,232,234,-1,-1,236,-1,-1,-1,-1,238,-1,-1,-1,-1,240,-1,242,-1,-1,-1,-1,-1,-1,-1,-1,244,-1,246,248,-1,-1,250,252,-1,-1,-1,254,-1,-1,-1,-1,256,258,-1,-1,260,262,264,266,-1,-1,-1,-1,-1,-1,-1,-1,-1,-1,-1,-1,-1,-1,-1,-1,-1,-1,-1,-1,-1,-1,-1,-1,-1,-1,-1,-1,-1,-1,-1,-1,-1,-1],"split_conditions":[3.8318865E-2,5.0512624E-1,3.9543867E-2,1.9479115E-2,2.3297313E-1,-2.5930677E-2,4.023531E-2,4.4451762E-2,-1.838663E-2,8.515781E-2,6.2188707E-2,-1.684431E-1,2.9194476E-2,4.9790666E-2,4.4462294E-3,7.890108E-2,1.9821613E-3,1.1111396E-2,1.0763066E-1,-9.607383E-2,2.6603403E-2,-4.92712E-3,4.593805E-3,5.07573E-3,7.4107975E-2,-1.3001353E-2,-5.981134E-3,2.755993E-3,2.5138397E-2,4.0916108E-2,2.9134698E-4,-1.049094E-2,3.1021653E-2,-8.575238E-4,1.1532827E-3,-2.3319412E-3,-8.4677024E-4,1.0071372E-3,-7.349186E-4,-5.419716E-3,-1.5570092E-3,-2.7908789E-2,3.0634003E-2,3.7881296E-2,-1.0189198E-2,-6.901399E-3,-7.1439886E-4,1.6918565E-3,2.5667747E-2,-6.078004E-3,8.36825E-3,1.9324273E-2,9.513455E-3,4.6048367E-6,-1.2001605E-4,4.0579777E-2,4.9976364E-2,-1.352452E-1,9.565752E-3,5.952886E-3,-4.460963E-3,-6.055701E-3,-5.865308E-3,4.4720516E-2,8.821733E-3,-1.5687684E-2,-2.6846041E-3,5.2560824E-3,1.4213114E-2,-4.4899043E-3,3.2084105E-3,1.1762334E-2,-3.876722E-2,1.4319809E-2,-2.3420274E-2,4.753101E-2,-5.1196728E-2,3.749036E-3,1.6842347E-2,-3.7895162E-3,-3.9539518E-4,-4.2527276E-3,-1.1814222E-3,2.1498194E-3,1.6366977E-2,1.7431041E-2,5.6338175E-3,2.4701577E-2,6.5574003E-3,1.5408166E-4,-1.5062983E-4,4.487673E-4,1.6753055E-3,-5.6036696E-4,4.991104E-4,3.986906E-3,1.6180745E-3,2.4754567E0,3.8136177E-2,-2.0802435E-3,-2.939726E-2,-1.8944656E-3,-7.0278384E-3,5.643281E-3,1.4698429E-2,-4.3645203E-3,-2.162907E-3,5.460678E-3,1.1298686E-3,1.7723767E-3,4.34354E-4,1.028542E-4,-2.2197966E-3,1.11049004E-1,4.1899504E-3,-1.3389932E-4,8.183305E-3,-3.869515E-3,-2.5626476E-4,2.9229047E-2,-9.796126E-2,9E-1,3.7740327E-2,1.3150832E-2,1.01528E-4,8.110564E-4,1.2685301E-2,7.2927155E-2,2.8998146E-2,1.0100484E-4,-1.7036153E-4,4.6048367E-6,-5.0168455E-4,4.8787266E-2,2.3928876E-3,8.350731E-4,2.1751245E-2,6.6889883E-3,-5.1671005E-4,1.4847592E-2,-1.6260521E-2,-5.4449864E-2,3.6275694E-3,3.7889566E-2,3.125049E-5,2.409755E-2,5.8454033E-3,-3.2503153E-3,2.9882842E-3,-4.1529853E-2,-4.393101E-3,2.3347365E-2,9.9503305E-3,-4.7633336E-3,6.693948E-2,-1.0563005E-2,-1.3129627E-3,1.1097842E-3,-3.1496088E-3,2.324507E-3,3.173258E-3,4.5374343E-3,1.1386044E-2,-9.984967E-3,1.0677249E-3,7.292425E-4,3.3838346E-3,1.6718019E-2,9.513455E-3,6.17303E-5,1.4458084E-2,6.1397827E-6,5.2203652E-3,5.7459255E-3,1.7219314E-2,2.9266828E-3,7.698267E-3,-5.9650796E-3,2.7063617E-3,-4.238778E-2,-4.7263647E-3,-5.1415656E-3,-1.4688022E-3,1.1632167E-2,9.5345515E-1,-8.053327E-3,3.786137E-3,6.4101326E-4,-4.3645203E-3,-2.8574346E-3,-6.156104E-3,-8.084033E-4,-1.6400836E-4,9.478744E-3,2.293695E-3,-2.800072E-4,-1.2939024E-5,2.2961604E-3,3.1892736E-3,-6.1706547E-4,-7.17097E-3,2.589464E-3,1.020196E-3,1.5253383E-4,-3.9013202E-4,9.473116E-6,3.1155426E-4,-1.82869E-3,-4.60653E-4,1.2108488E-2,-4.692877E-4,1.0264285E-2,1.9299857E-2,4.2935954E-3,1.0688875E-3,2.517809E-3,-2.9174262E-3,6.2637287E-3,6.712715E-4,-2.4092456E-3,1.3828648E-3,7.759387E-5,-1.384366E-3,-2.2050773E-4,4.0925114E-4,-5.0243833E-3,-9.360219E-3,6.471039E-4,-1.7655459E-4,2.9769428E-3,2.817037E-4,1.9452427E-2,3.9710153E-2,-5.951835E-4,7.3006394E-4,-3.487576E-4,-1.4307502E-3,9.5235603E-4,2.3143568E-4,4.844432E-3,1.2135024E-3,4.6048367E-6,2.5928923E-4,-3.867164E-3,-6.2772154E-4,5.351308E-5,-2.632959E-3,3.1075936E-3,-4.7196858E-4,2.9333886E-3,-8.6982595E-4,1.4058128E-3,4.83616E-3,1.8103105E-5,-4.0085992E-4,-7.252253E-4,1.6438866E-4,-2.7081952E-3,-5.798798E-4,-1.4631519E-3,2.7598237E-4,-5.799224E-4,-3.915027E-3,-3.1060174E-3,8.1285165E-4,1.6598058E-3,-5.4285258E-5],"split_indices":[32,88,12,0,62,0,20,63,0,11,32,62,65,23,0,23,62,0,14,35,15,2,26,0,17,0,0,2,79,6,65,1,71,0,0,0,0,0,0,0,0,27,37,13,0,0,0,68,8,0,21,14,3,0,0,14,70,56,39,0,0,24,0,18,12,0,1,0,0,0,0,0,0,65,32,43,27,1,68,0,0,0,0,0,22,15,13,0,33,0,0,0,0,0,0,0,0,84,49,0,0,0,0,0,77,0,0,0,0,0,0,12,0,46,29,0,0,0,0,68,52,85,22,71,33,0,0,43,83,0,0,0,0,63,3,9,18,48,3,0,32,59,72,83,4,8,1,2,0,60,0,5,7,1,23,0,0,0,27,0,2,0,82,0,0,0,0,2,3,32,8,0,0,78,6,0,6,27,4,51,0,2,0,69,88,0,0,0,0,0,0,0,0,10,0,0,0,0,3,0,0,0,0,0,0,0,0,0,0,0,0,76,80,0,0,75,1,0,0,0,1,0,0,0,0,2,2,0,0,68,66,4,43,0,0,0,0,0,0,0,0,0,0,0,0,0,0,0,0,0,0,0,0,0,0,0,0,0,0,0,0,0,0,0,0,0,0],"split_type":[0,0,0,0,0,0,0,0,0,0,0,0,0,0,0,0,0,0,0,0,0,0,0,0,0,0,0,0,0,0,0,0,0,0,0,0,0,0,0,0,0,0,0,0,0,0,0,0,0,0,0,0,0,0,0,0,0,0,0,0,0,0,0,0,0,0,0,0,0,0,0,0,0,0,0,0,0,0,0,0,0,0,0,0,0,0,0,0,0,0,0,0,0,0,0,0,0,0,0,0,0,0,0,0,0,0,0,0,0,0,0,0,0,0,0,0,0,0,0,0,0,0,0,0,0,0,0,0,0,0,0,0,0,0,0,0,0,0,0,0,0,0,0,0,0,0,0,0,0,0,0,0,0,0,0,0,0,0,0,0,0,0,0,0,0,0,0,0,0,0,0,0,0,0,0,0,0,0,0,0,0,0,0,0,0,0,0,0,0,0,0,0,0,0,0,0,0,0,0,0,0,0,0,0,0,0,0,0,0,0,0,0,0,0,0,0,0,0,0,0,0,0,0,0,0,0,0,0,0,0,0,0,0,0,0,0,0,0,0,0,0,0,0,0,0,0,0,0,0,0,0,0,0,0,0,0,0,0,0,0,0,0,0,0,0,0,0],"sum_hessian":[4.34E2,4.02E2,3.2E1,2E0,4E2,1E0,3.1E1,3.95E2,5E0,1E1,2.1E1,2.66E2,1.29E2,9E0,1E0,1E1,1.1E1,3E0,2.63E2,1.07E2,2.2E1,3E0,6E0,3E0,7E0,5E0,6E0,2.5E2,1.3E1,4E0,1.03E2,7E0,1.5E1,2E0,1E0,3E0,3E0,2E0,1E0,5E0,2E0,1.54E2,9.6E1,8E0,5E0,3E0,1E0,1E1,9.3E1,1E0,6E0,1E1,5E0,1E0,1E0,1E1,1.44E2,8.5E1,1.1E1,4E0,4E0,8E0,2E0,5.4E1,3.9E1,2E0,4E0,3E0,7E0,2E0,3E0,4E0,6E0,1.36E2,8E0,1.2E1,7.3E1,4E0,7E0,3E0,1E0,3E0,1E0,1E0,7E0,4.7E1,7E0,4E0,3.5E1,1E0,1E0,1E0,3E0,1E0,1E0,1E0,5E0,9.4E1,4.2E1,3E0,5E0,2E0,1E1,2E0,7.1E1,2E0,2E0,5E0,2E0,2E0,1E0,5E0,2E0,2E1,2.7E1,1E0,6E0,3E0,1E0,2.1E1,1.4E1,5.8E1,3.6E1,3.3E1,9E0,1E0,4E0,5.3E1,1.8E1,1E0,1E0,1E0,4E0,1.7E1,3E0,2E1,7E0,1.7E1,4E0,3E0,1.1E1,5.1E1,7E0,2.7E1,9E0,1.3E1,2E1,7E0,2E0,4.8E1,5E0,5E0,1.3E1,3E0,1.4E1,2E0,1E0,2E0,1.8E1,3E0,4E0,6E0,1.1E1,2E0,2E0,1E0,2E0,4E0,7E0,9E0,4.2E1,2E0,5E0,2E1,7E0,1E0,8E0,9E0,4E0,1.3E1,7E0,5E0,2E0,2.3E1,2.5E1,2E0,3E0,3E0,2E0,4E0,9E0,1E0,2E0,6E0,8E0,1E0,1E0,4E0,1.4E1,2E0,2E0,7E0,4E0,1E0,1E0,2E0,2E0,6E0,1E0,7E0,2E0,3.2E1,1E1,4E0,1E0,1.2E1,8E0,6E0,1E0,5E0,3E0,2E0,7E0,1E0,3E0,7E0,6E0,4E0,1E0,1E1,1.3E1,7E0,1.8E1,1E0,1E0,1E0,1E0,5E0,1E0,1.3E1,1E0,1E0,1E0,6E0,1E0,2.3E1,9E0,7E0,3E0,3E0,9E0,4E0,4E0,1E0,2E0,4E0,3E0,5E0,1E0,3E0,7E0,2E0,1.1E1,5E0,2E0,1E1,8E0],"tree_param":{"num_deleted":"0","num_feature":"89","num_nodes":"267","size_leaf_vector":"1"}},{"base_weights":[1.4877589E-5,4.808636E-3,-5.852753E-2,1.8180506E-2,3.4724814E-3,-2.4634143E-2,-4.4960175E-2,6.070025E-3,-1.6854413E-2,-1.2194908E-3,-6.4786874E-2,-1.4356443E-3,2.1438822E-2,-9.789275E-3,4.223918E-3,-2.9767657E-2,-9.148892E-2,1.02780415E-2,-3.0092376E-3,1.3725655E-2,5.6725048E-2,4.92989E-3,-1.680176E-2,3.5590972E-3,-4.2710077E-2,-1.1917907E-2,-5.4684654E-3,-4.1673964E-4,-4.9274076E-2,-5.3785075E-2,1.6839385E-2,-5.61295E-3,8.434873E-2,-7.309376E-4,1.0956186E-3,-2.1570455E-3,-7.832624E-4,9.399947E-4,-6.9817266E-4,-4.9680728E-3,-1.4532086E-3,8.036898E-3,-1.3920834E-2,-9.345578E-3,-1.4344709E-2,-6.383795E-3,-6.786789E-4,-1.8956942E-2,2.0849176E-2,-5.7741036E-3,1.0082639E-2,1.1200294E-1,1.9591218E-2,4.374595E-6,-1.1401524E-4,6.416479E-2,3.7234942E-3,-1.884204E-2,2.2507869E-2,1.0073354E-2,-3.589383E-3,-4.9219704E-3,-5.4742876E-3,2.8442232E-2,9.887492E-3,2.1861712E-5,1.4102577E-2,4.861876E-3,1.2969467E-2,-3.8795825E-4,2.9677795E-3,1.0821347E-2,2.3535045E-2,1.3096216E-4,5.7996094E-2,-5.814068E-2,-1.1683602E-2,-1.2375834E-2,4.14967E-2,1.4469819E-2,-3.7562542E-4,2.0423285E-3,-1.0643037E-2,2.1731986E-2,6.514843E-2,-2.9608216E-2,1.5098355E-2,1.4637758E-4,-1.4309834E-4,4.2632894E-4,1.5496577E-3,-5.323486E-4,4.741548E-4,3.7875609E-3,1.4832349E-3,5.9914584E-3,-1.2819692E-2,-1.9242251E-3,9.982231E-2,-1.768168E-3,-6.3889436E-3,5.2670627E-3,-1.4202756E-2,-4.3925885E-4,-2.0187132E-3,5.0056214E-3,1.054544E-3,1.6542183E-3,4.126363E-4,-3.831666E-3,-2.0718102E-3,9.256938E-3,3.031213E-2,-1.2720434E-4,7.481879E-3,-3.5793015E-3,-2.4345149E-4,2.5078982E-2,-5.464544E-4,-1.2402463E-3,1.7361166E-2,-1.8241309E-2,6.895773E-3,7.705036E-4,1.1670477E-2,-5.941811E-3,-3.6933716E-2,9.595461E-5,-1.6184343E-4,4.374595E-6,-4.6154973E-4,1.2494887E-2,-7.6280674E-3,3.6904607E-2,9.217864E-3,3.7818605E-3,1.6612586E-2,2.7150745E-2,-9.7333165E-3,-5.599244E-3,2.7248269E-2,2.6076598E-2,-8.778165E-3,-6.28096E-3,-2.534624E-2,-1.8392777E-3,2.789065E-3,-9.459338E-3,2.3774965E-2,-1.6821934E-3,-4.940339E-2,-4.9879737E-3,1.6323991E-2,-1.855326E-3,-1.2473146E-3,1.0357986E-3,3.915383E-2,2.150169E-3,-2.452769E-3,1.9515626E-2,-1.5047884E-3,6.927804E-4,3.1582457E-3,1.7977533E-3,-1.572357E-2,-2.7256526E-2,-4.3245172E-4,5.7304637E-6,3.6302373E-2,1.5071999E-2,5.1704098E-2,2.7803488E-3,-1.593207E-2,-9.888609E-3,2.1905291E-3,-1.3374745E-2,-4.3128077E-3,4.4020405E-3,-1.3708821E-3,-1.9873569E-2,5.176181E-4,8.542429E-4,3.5021768E-3,5.929372E-4,-1.1270217E-2,-1.782253E-3,-5.3181658E-3,-7.679831E-4,-1.5307448E-4,8.954978E-3,2.1652505E-3,-2.6600683E-4,-1.2292073E-5,2.1124675E-3,4.2553294E-2,-5.759278E-4,1.671329E-3,8.7143603E-4,2.3347925E-2,1.4490714E-4,-3.706254E-4,8.841575E-6,2.90784E-4,-1.7715531E-3,-6.4984587E-4,-3.242815E-2,-4.3800185E-4,-4.0162886E-3,3.551403E-3,4.2964034E-3,1.5319369E-3,2.2600938E-3,3.190342E-2,5.7268376E-3,6.3770794E-4,-2.208475E-3,-2.7200296E-3,7.2420946E-5,-1.263234E-3,-2.0948234E-4,3.785573E-4,-3.409748E-3,-2.2852635E-2,5.9533556E-4,-1.6772686E-4,-3.0899912E-3,-3.1641126E-2,-1.8508889E-2,8.501536E-3,-5.6542427E-4,6.9356075E-4,-3.3131972E-4,-1.3592128E-3,9.606077E-4,2.1986391E-4,4.3945923E-3,1.1528273E-3,4.374595E-6,2.4632478E-4,2.4810357E-3,5.8242446E-4,-3.5356928E-3,-5.9633545E-4,-9.84481E-4,1.4453757E-3,2.7133846E-3,-7.915416E-4,1.2933478E-3,4.449268E-3,1.7197948E-5,-3.741359E-4,4.7668844E-4,-5.258822E-4,-2.4825123E-3,-5.508858E-4,-1.3534154E-3,2.518339E-4,-3.9734845E-3,-1.4227027E-3,-3.170504E-3,2.6135214E-4,1.1489692E-3,-1.126519E-3],"categories":[],"categories_nodes":[],"categories_segments":[],"categories_sizes":[],"default_left":[0,0,0,0,0,0,0,0,0,0,0,0,0,0,0,0,0,0,0,0,0,0,0,0,0,0,0,0,0,0,0,0,0,0,0,0,0,0,0,0,0,0,0,0,0,0,0,0,0,0,0,0,0,0,0,0,0,0,0,0,0,0,0,0,0,0,0,0,0,0,0,0,0,0,0,0,0,0,0,0,0,0,0,0,0,0,0,0,0,0,0,0,0,0,0,0,0,0,0,0,0,0,0,0,0,0,0,0,0,0,0,0,0,0,0,0,0,0,0,0,0,0,0,0,0,0,0,0,0,0,0,0,0,0,0,0,0,0,0,0,0,0,0,0,0,0,0,0,0,0,0,0,0,0,0,0,0,0,0,0,0,0,0,0,0,0,0,0,0,0,0,0,0,0,0,0,0,0,0,0,0,0,0,0,0,0,0,0,0,0,0,0,0,0,0,0,0,0,0,0,0,0,0,0,0,0,0,0,0,0,0,0,0,0,0,0,0,0,0,0,0,0,0,0,0,0,0,0,0,0,0,0,0,0,0,0,0,0,0,0,0,0,0,0,0,0,0,0,0,0,0,0,0,0,0,0,0,0,0,0,0,0,0],"id":1,"left_children":[1,3,5,-1,7,-1,9,11,-1,13,15,17,19,21,-1,23,25,-1,27,29,31,33,35,37,39,-1,-1,41,43,45,47,49,51,53,-1,-1,-1,-1,-1,-1,-1,55,57,-1,59,-1,-1,61,63,-1,65,67,69,-1,-1,71,73,75,77,79,-1,81,-1,83,85,87,89,-1,-1,91,-1,-1,93,95,97,99,101,103,105,107,-1,-1,109,111,113,115,117,-1,-1,-1,-1,-1,-1,-1,-1,119,121,-1,123,-1,-1,-1,125,127,-1,-1,-1,-1,-1,129,-1,131,133,-1,-1,-1,-1,135,137,139,141,143,145,-1,-1,147,149,-1,-1,-1,-1,151,153,155,157,-1,159,161,163,165,167,169,171,173,175,177,-1,179,181,183,185,187,189,191,-1,-1,193,-1,195,197,199,-1,-1,201,203,205,207,-1,209,211,213,-1,215,217,219,221,-1,223,-1,225,227,229,-1,-1,231,-1,-1,-1,-1,233,-1,-1,-1,-1,235,-1,237,-1,239,-1,-1,-1,-1,-1,-1,241,-1,243,-1,-1,-1,245,247,-1,-1,-1,249,-1,-1,-1,-1,251,253,-1,-1,255,257,259,261,-1,-1,-1,-1,-1,-1,-1,-1,-1,-1,-1,-1,-1,-1,-1,-1,-1,-1,-1,-1,-1,-1,-1,-1,-1,-1,-1,-1,-1,-1,-1,-1,-1,-1],"loss_changes":[1.2235903E-1,9.467599E-2,7.301298E-2,0E0,1.801981E-1,0E0,2.7672455E-2,4.5710605E-2,0E0,4.510237E-3,1.7848447E-2,4.4095606E-2,3.460332E-2,1.1150098E-3,0E0,4.896626E-3,5.712129E-3,0E0,3.1644024E-2,2.360841E-2,4.0079556E-2,1.4446357E-4,1.304443E-4,3.1189734E-4,8.493876E-4,0E0,0E0,2.8765723E-2,2.0264745E-2,1.9290838E-3,1.532295E-2,7.1276296E-3,2.6458822E-2,1.0009128E-6,0E0,0E0,0E0,0E0,0E0,0E0,0E0,3.7286937E-2,1.7813586E-2,0E0,5.097261E-3,0E0,0E0,5.2553574E-3,7.542651E-3,0E0,2.827976E-4,6.0295314E-3,1.2206426E-3,0E0,0E0,1.713974E-2,2.8263934E-2,2.351396E-2,8.462366E-3,3.583593E-4,0E0,1.522383E-3,0E0,1.2131114E-2,8.679304E-3,8.379273E-6,2.5134068E-6,0E0,0E0,1.01192025E-4,0E0,0E0,3.1182682E-4,1.0474733E-2,3.0996092E-2,1.8939823E-3,1.2744815E-2,4.5733328E-4,1.5915576E-3,1.7482613E-5,0E0,0E0,4.696151E-4,4.8572123E-3,5.233653E-3,7.531806E-4,5.6349244E-3,0E0,0E0,0E0,0E0,0E0,0E0,0E0,0E0,7.832658E-3,4.722045E-3,0E0,8.431777E-3,0E0,0E0,0E0,1.3300652E-2,6.501272E-6,0E0,0E0,0E0,0E0,0E0,1.8427927E-5,0E0,1.2434404E-3,3.5535935E-3,0E0,0E0,0E0,0E0,1.7446252E-3,4.0810215E-3,7.4792705E-3,8.658081E-3,2.7300343E-3,1.8852119E-3,0E0,0E0,5.869493E-3,8.26882E-3,0E0,0E0,0E0,0E0,1.2864098E-3,8.873579E-5,8.4833987E-4,1.1996189E-3,0E0,8.1829913E-4,1.3969187E-4,8.571554E-4,5.8069443E-3,1.9674385E-3,7.1172845E-3,3.0599833E-3,4.4953136E-4,3.8935523E-3,6.5299956E-4,0E0,5.1015005E-3,1.5167915E-3,5.0470454E-4,7.226616E-4,2.5469599E-5,3.9509078E-4,3.855441E-6,0E0,0E0,2.6557595E-4,0E0,7.7807475E-5,3.346554E-4,2.487909E-5,0E0,0E0,9.230462E-6,3.1884992E-5,1.041051E-3,5.6821667E-3,0E0,1.8050801E-4,4.456389E-3,1.6524922E-3,0E0,6.715341E-4,3.003357E-4,4.2106734E-5,1.2443382E-3,0E0,6.6570916E-5,0E0,4.6422696E-3,4.106912E-3,1.5795702E-4,0E0,0E0,1.0393094E-5,0E0,0E0,0E0,0E0,1.4072051E-5,0E0,0E0,0E0,0E0,1.4147162E-4,0E0,3.7589825E-6,0E0,8.614268E-5,0E0,0E0,0E0,0E0,0E0,0E0,4.092306E-4,0E0,4.4484166E-3,0E0,0E0,0E0,3.5051159E-3,1.5739119E-3,0E0,0E0,0E0,1.2458215E-5,0E0,0E0,0E0,0E0,1.4602178E-4,1.02714635E-4,0E0,0E0,6.7840103E-4,1.4079204E-3,2.3127377E-3,1.2516883E-3,0E0,0E0,0E0,0E0,0E0,0E0,0E0,0E0,0E0,0E0,0E0,0E0,0E0,0E0,0E0,0E0,0E0,0E0,0E0,0E0,0E0,0E0,0E0,0E0,0E0,0E0,0E0,0E0,0E0,0E0,0E0,0E0,0E0,0E0],"parents":[2147483647,0,0,1,1,2,2,4,4,6,6,7,7,9,9,10,10,11,11,12,12,13,13,15,15,16,16,18,18,19,19,20,20,21,21,22,22,23,23,24,24,27,27,28,28,29,29,30,30,31,31,32,32,33,33,41,41,42,42,44,44,47,47,48,48,50,50,51,51,52,52,55,55,56,56,57,57,58,58,59,59,61,61,63,63,64,64,65,65,66,66,69,69,72,72,73,73,74,74,75,75,76,76,77,77,78,78,79,79,82,82,83,83,84,84,85,85,86,86,95,95,96,96,98,98,102,102,103,103,109,109,111,111,112,112,117,117,118,118,119,119,120,120,121,121,122,122,125,125,126,126,131,131,132,132,133,133,134,134,136,136,137,137,138,138,139,139,140,140,141,141,142,142,143,143,144,144,145,145,147,147,148,148,149,149,150,150,151,151,152,152,153,153,156,156,158,158,159,159,160,160,163,163,164,164,165,165,166,166,168,168,169,169,170,170,172,172,173,173,174,174,175,175,177,177,179,179,180,180,181,181,184,184,189,189,194,194,196,196,198,198,205,205,207,207,211,211,212,212,216,216,221,221,222,222,225,225,226,226,227,227,228,228],"right_children":[2,4,6,-1,8,-1,10,12,-1,14,16,18,20,22,-1,24,26,-1,28,30,32,34,36,38,40,-1,-1,42,44,46,48,50,52,54,-1,-1,-1,-1,-1,-1,-1,56,58,-1,60,-1,-1,62,64,-1,66,68,70,-1,-1,72,74,76,78,80,-1,82,-1,84,86,88,90,-1,-1,92,-1,-1,94,96,98,100,102,104,106,108,-1,-1,110,112,114,116,118,-1,-1,-1,-1,-1,-1,-1,-1,120,122,-1,124,-1,-1,-1,126,128,-1,-1,-1,-1,-1,130,-1,132,134,-1,-1,-1,-1,136,138,140,142,144,146,-1,-1,148,150,-1,-1,-1,-1,152,154,156,158,-1,160,162,164,166,168,170,172,174,176,178,-1,180,182,184,186,188,190,192,-1,-1,194,-1,196,198,200,-1,-1,202,204,206,208,-1,210,212,214,-1,216,218,220,222,-1,224,-1,226,228,230,-1,-1,232,-1,-1,-1,-1,234,-1,-1,-1,-1,236,-1,238,-1,240,-1,-1,-1,-1,-1,-1,242,-1,244,-1,-1,-1,246,248,-1,-1,-1,250,-1,-1,-1,-1,252,254,-1,-1,256,258,260,262,-1,-1,-1,-1,-1,-1,-1,-1,-1,-1,-1,-1,-1,-1,-1,-1,-1,-1,-1,-1,-1,-1,-1,-1,-1,-1,-1,-1,-1,-1,-1,-1,-1,-1],"split_conditions":[3.8318865E-2,5.0512624E-1,3.9543867E-2,1.8180506E-2,2.3297313E-1,-2.4634143E-2,4.023531E-2,4.4451762E-2,-1.6854413E-2,8.515781E-2,6.2188707E-2,-1.684431E-1,2.9194476E-2,4.9790666E-2,4.223918E-3,7.890108E-2,1.9821613E-3,1.02780415E-2,1.0763066E-1,-9.607383E-2,2.6603403E-2,-4.92712E-3,4.593805E-3,5.07573E-3,7.4107975E-2,-1.1917907E-2,-5.4684654E-3,2.755993E-3,2.7555188E-2,4.0916108E-2,2.9134698E-4,-1.049094E-2,3.1021653E-2,-8.575238E-4,1.0956186E-3,-2.1570455E-3,-7.832624E-4,9.399947E-4,-6.9817266E-4,-4.9680728E-3,-1.4532086E-3,-2.7908789E-2,3.0634003E-2,-9.345578E-3,6.4021856E-2,-6.383795E-3,-6.786789E-4,1.6918565E-3,2.5667747E-2,-5.7741036E-3,8.36825E-3,1.9324273E-2,9.513455E-3,4.374595E-6,-1.1401524E-4,4.0579777E-2,4.9976364E-2,-1.352452E-1,9.565752E-3,5.952886E-3,-3.589383E-3,-6.055701E-3,-5.4742876E-3,4.4720516E-2,8.821733E-3,-1.5687684E-2,-2.6846041E-3,4.861876E-3,1.2969467E-2,-4.4899043E-3,2.9677795E-3,1.0821347E-2,-3.876722E-2,1.4319809E-2,-2.3420274E-2,4.753101E-2,-5.1196728E-2,3.749036E-3,1.6842347E-2,-3.7895162E-3,-3.7562542E-4,2.0423285E-3,1.6366977E-2,1.7431041E-2,5.6338175E-3,2.4701577E-2,6.5574003E-3,1.4637758E-4,-1.4309834E-4,4.2632894E-4,1.5496577E-3,-5.323486E-4,4.741548E-4,3.7875609E-3,1.4832349E-3,2.4754567E0,3.8136177E-2,-1.9242251E-3,-2.939726E-2,-1.768168E-3,-6.3889436E-3,5.2670627E-3,1.4698429E-2,-4.3645203E-3,-2.0187132E-3,5.0056214E-3,1.054544E-3,1.6542183E-3,4.126363E-4,1.028542E-4,-2.0718102E-3,1.11049004E-1,4.1899504E-3,-1.2720434E-4,7.481879E-3,-3.5793015E-3,-2.4345149E-4,1.6566467E-2,-9.796126E-2,9E-1,3.7740327E-2,1.3150832E-2,1.01528E-4,7.705036E-4,1.1670477E-2,7.2927155E-2,2.8998146E-2,9.595461E-5,-1.6184343E-4,4.374595E-6,-4.6154973E-4,4.8787266E-2,2.3928876E-3,8.350731E-4,2.1751245E-2,3.7818605E-3,3.7936583E-2,1.4847592E-2,-1.6260521E-2,-5.4449864E-2,3.6275694E-3,3.7889566E-2,3.125049E-5,2.409755E-2,5.8454033E-3,-3.2503153E-3,2.789065E-3,-4.1529853E-2,-4.393101E-3,2.3347365E-2,9.62703E-3,-4.7633336E-3,7.0489876E-2,-1.0563005E-2,-1.2473146E-3,1.0357986E-3,-3.1496088E-3,2.150169E-3,3.173258E-3,-7.92432E-3,-9.984967E-3,6.927804E-4,3.1582457E-3,1.6718019E-2,6.062462E-2,6.17303E-5,1.3328008E-2,5.7304637E-6,5.102171E-5,5.7459255E-3,1.7219314E-2,2.7803488E-3,7.698267E-3,-5.9650796E-3,2.7063617E-3,-4.238778E-2,-4.3128077E-3,-5.1415656E-3,-1.3708821E-3,1.1632167E-2,9.5345515E-1,-8.053327E-3,3.5021768E-3,5.929372E-4,-4.3645203E-3,-1.782253E-3,-5.3181658E-3,-7.679831E-4,-1.5307448E-4,1.6988825E-2,2.1652505E-3,-2.6600683E-4,-1.2292073E-5,2.1124675E-3,3.1892736E-3,-5.759278E-4,-7.17097E-3,8.7143603E-4,5.8454033E-3,1.4490714E-4,-3.706254E-4,8.841575E-6,2.90784E-4,-1.7715531E-3,-6.4984587E-4,1.2108488E-2,-4.3800185E-4,2.1052631E-4,3.551403E-3,4.2964034E-3,1.5319369E-3,2.517809E-3,-2.9174262E-3,5.7268376E-3,6.3770794E-4,-2.208475E-3,1.3828648E-3,7.2420946E-5,-1.263234E-3,-2.0948234E-4,3.785573E-4,3.125049E-5,-9.360219E-3,5.9533556E-4,-1.6772686E-4,2.9769428E-3,1.3328008E-2,3.1300448E-2,2.1978907E-2,-5.6542427E-4,6.9356075E-4,-3.3131972E-4,-1.3592128E-3,9.606077E-4,2.1986391E-4,4.3945923E-3,1.1528273E-3,4.374595E-6,2.4632478E-4,2.4810357E-3,5.8242446E-4,-3.5356928E-3,-5.9633545E-4,-9.84481E-4,1.4453757E-3,2.7133846E-3,-7.915416E-4,1.2933478E-3,4.449268E-3,1.7197948E-5,-3.741359E-4,4.7668844E-4,-5.258822E-4,-2.4825123E-3,-5.508858E-4,-1.3534154E-3,2.518339E-4,-3.9734845E-3,-1.4227027E-3,-3.170504E-3,2.6135214E-4,1.1489692E-3,-1.126519E-3],"split_indices":[32,88,12,0,62,0,20,63,0,11,32,62,65,23,0,23,62,0,14,35,15,2,26,0,17,0,0,2,5,6,65,1,71,0,0,0,0,0,0,0,0,27,37,0,18,0,0,68,8,0,21,14,3,0,0,14,70,56,39,0,0,24,0,18,12,0,1,0,0,0,0,0,0,65,32,43,27,1,68,0,0,0,22,15,13,0,33,0,0,0,0,0,0,0,0,84,49,0,0,0,0,0,77,0,0,0,0,0,0,12,0,46,29,0,0,0,0,7,52,85,22,71,33,0,0,43,83,0,0,0,0,63,3,9,18,0,73,0,32,59,72,83,4,8,1,2,0,60,0,5,14,1,23,0,0,0,27,0,2,32,0,0,0,2,8,32,68,0,5,78,6,0,6,27,4,51,0,2,0,69,88,0,0,0,0,0,0,0,0,11,0,0,0,0,3,0,0,0,1,0,0,0,0,0,0,0,0,28,0,0,0,75,1,0,0,0,1,0,0,0,0,4,2,0,0,68,75,83,24,0,0,0,0,0,0,0,0,0,0,0,0,0,0,0,0,0,0,0,0,0,0,0,0,0,0,0,0,0,0,0,0,0,0],"split_type":[0,0,0,0,0,0,0,0,0,0,0,0,0,0,0,0,0,0,0,0,0,0,0,0,0,0,0,0,0,0,0,0,0,0,0,0,0,0,0,0,0,0,0,0,0,0,0,0,0,0,0,0,0,0,0,0,0,0,0,0,0,0,0,0,0,0,0,0,0,0,0,0,0,0,0,0,0,0,0,0,0,0,0,0,0,0,0,0,0,0,0,0,0,0,0,0,0,0,0,0,0,0,0,0,0,0,0,0,0,0,0,0,0,0,0,0,0,0,0,0,0,0,0,0,0,0,0,0,0,0,0,0,0,0,0,0,0,0,0,0,0,0,0,0,0,0,0,0,0,0,0,0,0,0,0,0,0,0,0,0,0,0,0,0,0,0,0,0,0,0,0,0,0,0,0,0,0,0,0,0,0,0,0,0,0,0,0,0,0,0,0,0,0,0,0,0,0,0,0,0,0,0,0,0,0,0,0,0,0,0,0,0,0,0,0,0,0,0,0,0,0,0,0,0,0,0,0,0,0,0,0,0,0,0,0,0,0,0,0,0,0,0,0,0,0,0,0,0,0,0,0,0,0,0,0,0,0,0,0,0,0,0,0],"sum_hessian":[4.34E2,4.02E2,3.2E1,2E0,4E2,1E0,3.1E1,3.95E2,5E0,1E1,2.1E1,2.66E2,1.29E2,9E0,1E0,1E1,1.1E1,3E0,2.63E2,1.07E2,2.2E1,3E0,6E0,3E0,7E0,5E0,6E0,2.5E2,1.3E1,4E0,1.03E2,7E0,1.5E1,2E0,1E0,3E0,3E0,2E0,1E0,5E0,2E0,1.54E2,9.6E1,5E0,8E0,3E0,1E0,1E1,9.3E1,1E0,6E0,1E1,5E0,1E0,1E0,1E1,1.44E2,8.5E1,1.1E1,4E0,4E0,8E0,2E0,5.4E1,3.9E1,2E0,4E0,3E0,7E0,2E0,3E0,4E0,6E0,1.36E2,8E0,1.2E1,7.3E1,4E0,7E0,3E0,1E0,1E0,7E0,4.7E1,7E0,4E0,3.5E1,1E0,1E0,1E0,3E0,1E0,1E0,1E0,5E0,9.4E1,4.2E1,3E0,5E0,2E0,1E1,2E0,7.1E1,2E0,2E0,5E0,2E0,2E0,1E0,5E0,2E0,2E1,2.7E1,1E0,6E0,3E0,1E0,2.1E1,1.4E1,5.8E1,3.6E1,3.3E1,9E0,1E0,4E0,5.3E1,1.8E1,1E0,1E0,1E0,4E0,1.7E1,3E0,2E1,7E0,7E0,1.4E1,3E0,1.1E1,5.1E1,7E0,2.7E1,9E0,1.3E1,2E1,7E0,2E0,4.8E1,5E0,5E0,1.3E1,3E0,1.4E1,2E0,1E0,2E0,1.8E1,3E0,4E0,1.2E1,2E0,1E0,2E0,4E0,7E0,9E0,4.2E1,2E0,5E0,2E1,7E0,1E0,8E0,9E0,4E0,1.3E1,7E0,5E0,2E0,2.3E1,2.5E1,2E0,3E0,3E0,2E0,2E0,1.1E1,1E0,2E0,7E0,7E0,1E0,1E0,4E0,1.4E1,2E0,2E0,4E0,8E0,1E0,1E0,2E0,2E0,5E0,2E0,7E0,2E0,3.9E1,3E0,3E0,2E0,1.2E1,8E0,6E0,1E0,5E0,3E0,2E0,7E0,1E0,3E0,7E0,6E0,4E0,1E0,1E1,1.3E1,7E0,1.8E1,1E0,1E0,1E0,1E0,6E0,1E0,1.3E1,1E0,1E0,1E0,7E0,1E0,6E0,1E0,3E1,9E0,3E0,9E0,4E0,4E0,1E0,2E0,1E0,6E0,5E0,1E0,3E0,7E0,8E0,5E0,4E0,3E0,1.6E1,2E0],"tree_param":{"num_deleted":"0","num_feature":"89","num_nodes":"263","size_leaf_vector":"1"}},{"base_weights":[3.4575252E-5,4.464611E-3,-5.4066606E-2,1.6968472E-2,3.2174166E-3,-2.3402436E-2,-4.1129667E-2,5.598931E-3,-1.5449877E-2,-8.9121575E-4,-5.937936E-2,-1.19573E-3,1.9511051E-2,-9.005781E-3,4.012722E-3,-2.735266E-2,-8.378889E-2,9.5071895E-3,-2.6498009E-3,1.2456316E-2,5.1789325E-2,4.683395E-3,-1.5541627E-2,3.2636432E-3,-3.924173E-2,-9.389941E-2,-2.2157535E-3,-2.6872655E-4,-4.5149792E-2,-4.981906E-2,1.5330552E-2,-5.5260095E-3,7.721016E-2,-6.9439084E-5,1.0408376E-3,-1.995267E-3,-7.2451774E-4,8.773284E-4,-6.63264E-4,-4.554067E-3,-1.356328E-3,-3.5131779E-3,-1.0419984E-2,7.4884202E-3,-1.2661397E-2,-1.2518098E-2,-8.657237E-3,-5.90501E-3,-6.44745E-4,-1.7603152E-2,1.9021405E-2,-5.485398E-3,9.357127E-3,1.0242367E-1,1.8117025E-2,5.9211228E-2,3.512977E-3,-1.7153675E-2,2.058838E-2,9.404263E-3,-3.193684E-2,-4.4838456E-3,-5.1093353E-3,2.0587359E-2,-2.1359392E-2,2.0768572E-5,1.3087516E-3,4.497235E-3,1.1834637E-2,-3.6856034E-4,2.745196E-3,9.955639E-3,2.1934511E-2,2.1238347E-4,5.3365014E-2,-5.295408E-2,-1.0632608E-2,-1.1555172E-2,3.8104553E-2,1.3539551E-2,-3.5684416E-4,-3.5206638E-3,-9.42882E-4,1.9402121E-3,-9.894856E-3,1.7234167E-2,5.322246E-2,3.6891022E-6,-2.8503784E-3,1.3905871E-4,-1.3594342E-4,-5.0573115E-4,4.504471E-4,3.5981827E-3,1.359632E-2,-4.249364E-3,1.4985287E-2,-1.7799083E-3,9.191357E-2,-1.65029E-3,-5.8081307E-2,4.915925E-3,-1.297626E-2,-4.1729593E-4,-1.8841325E-3,4.588486E-3,9.842411E-4,1.5439371E-3,3.9200447E-4,-3.5246953E-3,-1.9336895E-3,7.1051484E-3,2.333077E-2,1.2002739E-3,6.496191E-3,3.828558E-4,1.4784161E-3,4.28695E-3,-5.567703E-3,2.2804435E-2,-7.5308112E-3,7.3197845E-4,1.0736838E-2,-1.6358042E-3,-6.0617826E-3,-5.4541887E-3,-3.367182E-2,9.115688E-5,-1.5375127E-4,-7.428517E-4,-4.7299042E-4,-2.9416974E-3,1.0410349E-2,2.8140308E-2,3.1668702E-4,1.0564E-3,-1.6634962E-2,2.7618391E-2,-2.0099383E-2,-1.3770015E-3,2.145546E-4,-8.704925E-3,2.2002522E-2,-1.6969063E-3,-4.497022E-2,4.155865E-6,-1.15583614E-4,1.6507292E-2,-4.0439614E-3,2.3772465E-2,5.1113255E-3,1.0973928E-2,-8.617128E-3,1.06928395E-2,-8.904065E-3,-1.2452166E-2,-3.7564982E-3,1.897608E-2,4.7501873E-2,-5.676967E-4,-2.447211E-3,1.1603863E-3,-1.784386E-4,-1.748349E-2,1.1678925E-3,8.1153057E-4,3.2395131E-3,5.48467E-4,-1.0706706E-2,-2.3448232E-3,-5.1234197E-3,4.4826358E-3,2.1819957E-2,-8.642944E-3,9.567978E-4,5.9573376E-3,2.832459E-2,1.4391782E-3,3.8980963E-4,8.689102E-6,-1.037531E-3,-1.40649E-2,1.6500387E-2,-9.348325E-4,-2.2772318E-2,-2.6160011E-2,-3.7860675E-3,7.236945E-3,3.1277988E-2,6.7608815E-4,5.42979E-3,2.9842673E-5,1.8731324E-4,-4.088278E-3,-2.7034093E-2,-1.7658006E-2,8.424192E-3,-5.371531E-4,6.588827E-4,-3.1475374E-4,-1.2912521E-3,-2.6520694E-4,7.3028826E-3,2.594496E-2,8.380955E-3,-1.0890443E-2,-1.266963E-4,-3.8896446E-4,1.3987456E-3,3.4908555E-2,1.377878E-2,-1.5362311E-3,-3.1402157E-4,2.0339212E-3,-2.2269557E-3,1.8706424E-3,-7.812051E-4,-2.9103344E-3,-2.8344357E-4,-3.47367E-3,-1.0364425E-3,1.1595379E-3,-7.848354E-4,2.2694904E-3,5.3559197E-5,3.3970047E-3,6.2167936E-4,-1.2528697E-3,1.6980188E-4,-3.5440952E-3,-8.5169816E-4,-2.9168637E-3,7.4123807E-4,1.1448625E-3,-1.0514178E-3,7.9279765E-4,2.0887073E-4,9.027868E-4,2.8701217E-3,-1.1677468E-5,1.0534581E-3,-1.2143416E-3,-2.3127893E-4,2.1576979E-4,-3.6548593E-4,4.802936E-3,2.7332995E-3,-3.1500155E-4,1.7890735E-3],"categories":[],"categories_nodes":[],"categories_segments":[],"categories_sizes":[],"default_left":[0,0,0,0,0,0,0,0,0,0,0,0,0,0,0,0,0,0,0,0,0,0,0,0,0,0,0,0,0,0,0,0,0,0,0,0,0,0,0,0,0,0,0,0,0,0,0,0,0,0,0,0,0,0,0,0,0,0,0,0,0,0,0,0,0,0,0,0,0,0,0,0,0,0,0,0,0,0,0,0,0,0,0,0,0,0,0,0,0,0,0,0,0,0,0,0,0,0,0,0,0,0,0,0,0,0,0,0,0,0,0,0,0,0,0,0,0,0,0,0,0,0,0,0,0,0,0,0,0,0,0,0,0,0,0,0,0,0,0,0,0,0,0,0,0,0,0,0,0,0,0,0,0,0,0,0,0,0,0,0,0,0,0,0,0,0,0,0,0,0,0,0,0,0,0,0,0,0,0,0,0,0,0,0,0,0,0,0,0,0,0,0,0,0,0,0,0,0,0,0,0,0,0,0,0,0,0,0,0,0,0,0,0,0,0,0,0,0,0,0,0,0,0,0,0,0,0,0,0,0,0,0,0,0,0,0,0,0,0,0,0,0,0,0,0,0,0,0,0],"id":2,"left_children":[1,3,5,-1,7,-1,9,11,-1,13,15,17,19,21,-1,23,25,-1,27,29,31,33,35,37,39,41,-1,43,45,47,49,51,53,-1,-1,-1,-1,-1,-1,-1,-1,-1,-1,55,57,59,-1,-1,-1,61,63,-1,65,67,69,71,73,75,77,79,81,83,-1,85,87,89,-1,-1,-1,91,-1,-1,93,95,97,99,101,103,105,107,-1,-1,-1,-1,109,111,113,-1,-1,-1,-1,-1,-1,-1,115,117,119,-1,121,-1,123,-1,125,127,-1,-1,-1,-1,-1,129,-1,131,133,-1,-1,-1,-1,-1,135,137,139,-1,-1,-1,-1,141,143,-1,-1,145,-1,-1,147,149,151,153,155,157,159,-1,161,163,165,167,169,-1,-1,171,173,175,-1,177,179,181,183,185,-1,187,189,-1,-1,191,-1,193,195,197,-1,-1,199,-1,-1,201,203,205,-1,207,209,-1,-1,-1,-1,211,213,215,217,219,221,223,225,-1,-1,-1,-1,227,229,231,233,-1,-1,-1,-1,-1,235,237,239,241,-1,243,-1,245,247,-1,-1,-1,-1,-1,-1,-1,-1,-1,-1,-1,-1,-1,-1,-1,-1,-1,-1,-1,-1,-1,-1,-1,-1,-1,-1,-1,-1,-1,-1,-1,-1,-1,-1,-1,-1,-1,-1],"loss_changes":[1.044979E-1,8.249688E-2,6.720205E-2,0E0,1.5148197E-1,0E0,2.3445949E-2,3.7456475E-2,0E0,4.0226914E-3,1.4906794E-2,3.7626565E-2,2.89578E-2,9.674912E-4,0E0,4.132064E-3,5.3969175E-3,0E0,2.6703514E-2,2.009512E-2,3.3937752E-2,1.3037838E-4,1.1161121E-4,2.762899E-4,6.7629386E-4,2.39259E-3,0E0,2.4223888E-2,1.7839924E-2,1.6211029E-3,1.2976399E-2,6.3865157E-3,2.1983512E-2,0E0,0E0,0E0,0E0,0E0,0E0,0E0,0E0,0E0,0E0,3.166326E-2,1.4841789E-2,4.1316845E-3,0E0,0E0,0E0,4.603955E-3,6.383769E-3,0E0,2.4352595E-4,4.740268E-3,1.045488E-3,1.4359564E-2,2.3847155E-2,1.951425E-2,7.1966886E-3,3.1654438E-4,3.602635E-5,1.3552061E-3,0E0,9.041045E-3,6.1250525E-4,7.5622934E-6,0E0,0E0,0E0,9.132581E-5,0E0,0E0,3.30684E-4,9.093755E-3,2.6325442E-2,1.471106E-3,1.1007621E-2,3.9789884E-4,1.3074884E-3,1.2578326E-5,0E0,0E0,0E0,0E0,4.130217E-4,5.021449E-3,3.0914545E-3,0E0,0E0,0E0,0E0,0E0,0E0,0E0,1.3013254E-5,6.8232594E-3,5.8055515E-3,0E0,7.058367E-3,0E0,1.725629E-4,0E0,1.1024838E-2,5.8673977E-6,0E0,0E0,0E0,0E0,0E0,1.66026E-5,0E0,4.2897677E-3,5.7468154E-3,0E0,0E0,0E0,0E0,0E0,7.641882E-3,5.512003E-3,4.378786E-4,0E0,0E0,0E0,0E0,5.0112745E-3,6.7877322E-3,0E0,0E0,1.0198829E-6,0E0,0E0,2.7986951E-3,3.099624E-3,1.0466619E-3,6.4301146E-3,2.9465295E-3,2.8790645E-3,5.0268485E-5,0E0,1.1523883E-5,4.2672073E-3,1.2950888E-3,4.4695011E-4,6.8603456E-4,0E0,0E0,1.3076141E-3,7.087061E-4,2.9129349E-3,0E0,6.4820284E-5,9.272102E-5,5.1206555E-3,3.6258495E-3,3.9399373E-3,0E0,2.2286773E-3,1.2941575E-3,0E0,0E0,1.8984406E-6,0E0,3.215718E-3,3.4273071E-3,1.4255624E-4,0E0,0E0,9.379728E-6,0E0,0E0,1.803408E-4,6.1409594E-4,1.18822325E-4,0E0,4.6409457E-4,2.392076E-3,0E0,0E0,0E0,0E0,5.097571E-5,4.6202135E-3,3.1178345E-3,1.4322358E-3,1.4011329E-3,1.4656492E-3,1.0237372E-3,3.2854546E-4,0E0,0E0,0E0,0E0,6.073392E-4,2.0332104E-3,2.2362408E-3,1.1513736E-3,0E0,0E0,0E0,0E0,0E0,2.9968505E-6,2.5379565E-4,9.2734845E-5,3.6400277E-5,0E0,5.778887E-5,0E0,6.751623E-4,8.220712E-4,0E0,0E0,0E0,0E0,0E0,0E0,0E0,0E0,0E0,0E0,0E0,0E0,0E0,0E0,0E0,0E0,0E0,0E0,0E0,0E0,0E0,0E0,0E0,0E0,0E0,0E0,0E0,0E0,0E0,0E0,0E0,0E0,0E0,0E0,0E0,0E0,0E0,0E0],"parents":[2147483647,0,0,1,1,2,2,4,4,6,6,7,7,9,9,10,10,11,11,12,12,13,13,15,15,16,16,18,18,19,19,20,20,21,21,22,22,23,23,24,24,25,25,27,27,28,28,29,29,30,30,31,31,32,32,43,43,44,44,45,45,49,49,50,50,52,52,53,53,54,54,55,55,56,56,57,57,58,58,59,59,60,60,61,61,63,63,64,64,65,65,69,69,72,72,73,73,74,74,75,75,76,76,77,77,78,78,79,79,84,84,85,85,86,86,94,94,95,95,96,96,98,98,100,100,102,102,103,103,109,109,111,111,112,112,118,118,119,119,120,120,125,125,126,126,129,129,132,132,133,133,134,134,135,135,136,136,137,137,138,138,140,140,141,141,142,142,143,143,144,144,147,147,148,148,149,149,151,151,152,152,153,153,154,154,155,155,157,157,158,158,161,161,163,163,164,164,165,165,168,168,171,171,172,172,173,173,175,175,176,176,181,181,182,182,183,183,184,184,185,185,186,186,187,187,188,188,193,193,194,194,195,195,196,196,202,202,203,203,204,204,205,205,207,207,209,209,210,210],"right_children":[2,4,6,-1,8,-1,10,12,-1,14,16,18,20,22,-1,24,26,-1,28,30,32,34,36,38,40,42,-1,44,46,48,50,52,54,-1,-1,-1,-1,-1,-1,-1,-1,-1,-1,56,58,60,-1,-1,-1,62,64,-1,66,68,70,72,74,76,78,80,82,84,-1,86,88,90,-1,-1,-1,92,-1,-1,94,96,98,100,102,104,106,108,-1,-1,-1,-1,110,112,114,-1,-1,-1,-1,-1,-1,-1,116,118,120,-1,122,-1,124,-1,126,128,-1,-1,-1,-1,-1,130,-1,132,134,-1,-1,-1,-1,-1,136,138,140,-1,-1,-1,-1,142,144,-1,-1,146,-1,-1,148,150,152,154,156,158,160,-1,162,164,166,168,170,-1,-1,172,174,176,-1,178,180,182,184,186,-1,188,190,-1,-1,192,-1,194,196,198,-1,-1,200,-1,-1,202,204,206,-1,208,210,-1,-1,-1,-1,212,214,216,218,220,222,224,226,-1,-1,-1,-1,228,230,232,234,-1,-1,-1,-1,-1,236,238,240,242,-1,244,-1,246,248,-1,-1,-1,-1,-1,-1,-1,-1,-1,-1,-1,-1,-1,-1,-1,-1,-1,-1,-1,-1,-1,-1,-1,-1,-1,-1,-1,-1,-1,-1,-1,-1,-1,-1,-1,-1,-1,-1],"split_conditions":[3.8318865E-2,5.0512624E-1,3.9543867E-2,1.6968472E-2,2.3297313E-1,-2.3402436E-2,4.023531E-2,4.4451762E-2,-1.5449877E-2,8.515781E-2,6.2188707E-2,-1.684431E-1,2.9194476E-2,4.9790666E-2,4.012722E-3,7.890108E-2,5.894825E-2,9.5071895E-3,1.0763066E-1,-9.607383E-2,2.6603403E-2,-4.92712E-3,4.593805E-3,5.07573E-3,7.4107975E-2,-1.1081683E-2,-2.2157535E-3,2.755993E-3,2.5138397E-2,4.0916108E-2,2.9134698E-4,-1.049094E-2,3.1021653E-2,-6.9439084E-5,1.0408376E-3,-1.995267E-3,-7.2451774E-4,8.773284E-4,-6.63264E-4,-4.554067E-3,-1.356328E-3,-3.5131779E-3,-1.0419984E-2,-2.7908789E-2,3.0634003E-2,3.7881296E-2,-8.657237E-3,-5.90501E-3,-6.44745E-4,1.6918565E-3,1.1020314E-1,-5.485398E-3,8.36825E-3,1.9324273E-2,9.513455E-3,4.0579777E-2,4.9976364E-2,-1.352452E-1,9.565752E-3,5.952886E-3,-4.460963E-3,-6.055701E-3,-5.1093353E-3,3.9913464E-2,-5.33822E-2,-1.5687684E-2,1.3087516E-3,4.497235E-3,1.1834637E-2,-4.4899043E-3,2.745196E-3,9.955639E-3,-3.876722E-2,-3.5013393E-6,-2.3420274E-2,4.753101E-2,-5.1196728E-2,3.749036E-3,1.6842347E-2,-3.7895162E-3,-3.5684416E-4,-3.5206638E-3,-9.42882E-4,1.9402121E-3,1.6366977E-2,1.9850276E-2,2.5469824E-3,3.6891022E-6,-2.8503784E-3,1.3905871E-4,-1.3594342E-4,-5.0573115E-4,4.504471E-4,3.5981827E-3,-1.2222183E-2,-1.2523922E-1,4.101521E-2,-1.7799083E-3,-2.939726E-2,-1.65029E-3,9.433517E-5,4.915925E-3,1.4698429E-2,-4.3645203E-3,-1.8841325E-3,4.588486E-3,9.842411E-4,1.5439371E-3,3.9200447E-4,3.125049E-5,-1.9336895E-3,-9.561108E-3,2.519025E-2,1.2002739E-3,6.496191E-3,3.828558E-4,1.4784161E-3,4.28695E-3,4.8790164E-2,2.3402141E-2,6.734032E-3,7.3197845E-4,1.0736838E-2,-1.6358042E-3,-6.0617826E-3,7.2927155E-2,2.8998146E-2,9.115688E-5,-1.5375127E-4,9.579574E-3,-4.7299042E-4,-2.9416974E-3,1.0197274E-2,5.366414E-2,7.017573E-3,9.991976E-3,5.855331E-2,3.789374E-2,-1.7316126E-3,-1.3770015E-3,-2.0803919E-3,-3.710916E-2,-4.393101E-3,2.3347365E-2,9.9503305E-3,4.155865E-6,-1.15583614E-4,-1.1090601E-3,5.3109825E-2,-2.948448E-2,5.1113255E-3,4.088703E-3,2.4038753E-2,-8.658063E-3,5.603811E-4,5.611687E-3,-3.7564982E-3,6.1919503E-3,1.028542E-4,-5.676967E-4,-2.447211E-3,-8.650603E-3,-1.784386E-4,1.1632167E-2,9.5345515E-1,-8.053327E-3,3.2395131E-3,5.48467E-4,-4.3645203E-3,-2.3448232E-3,-5.1234197E-3,-6.047977E-3,1.5666116E-2,-2.4711709E-3,9.567978E-4,-2.4711709E-3,2.0905547E-2,1.4391782E-3,3.8980963E-4,8.689102E-6,-1.037531E-3,-1.769923E-3,8.677541E-3,-1.5314235E-2,-1.1007156E-3,-4.984507E-2,3.714316E-3,1.1111728E-4,2.3693113E-2,6.7608815E-4,5.42979E-3,2.9842673E-5,1.8731324E-4,2.9769428E-3,3.3978354E-2,1.9452427E-2,2.1978907E-2,-5.371531E-4,6.588827E-4,-3.1475374E-4,-1.2912521E-3,-2.6520694E-4,2.9315992E-4,3.2206147E-3,1.0575461E-2,2.5894038E-2,-1.266963E-4,3.5550408E-3,1.3987456E-3,2.5113008E-3,-1.784361E-2,-1.5362311E-3,-3.1402157E-4,2.0339212E-3,-2.2269557E-3,1.8706424E-3,-7.812051E-4,-2.9103344E-3,-2.8344357E-4,-3.47367E-3,-1.0364425E-3,1.1595379E-3,-7.848354E-4,2.2694904E-3,5.3559197E-5,3.3970047E-3,6.2167936E-4,-1.2528697E-3,1.6980188E-4,-3.5440952E-3,-8.5169816E-4,-2.9168637E-3,7.4123807E-4,1.1448625E-3,-1.0514178E-3,7.9279765E-4,2.0887073E-4,9.027868E-4,2.8701217E-3,-1.1677468E-5,1.0534581E-3,-1.2143416E-3,-2.3127893E-4,2.1576979E-4,-3.6548593E-4,4.802936E-3,2.7332995E-3,-3.1500155E-4,1.7890735E-3],"split_indices":[32,88,12,0,62,0,20,63,0,11,32,62,65,23,0,23,63,0,14,35,15,2,26,0,17,3,0,2,79,6,65,1,71,0,0,0,0,0,0,0,0,0,0,27,37,13,0,0,0,68,20,0,21,14,3,14,70,56,39,0,0,24,0,80,0,0,0,0,0,0,0,0,0,2,32,43,27,1,68,0,0,0,0,0,22,15,2,0,0,0,0,0,0,0,3,62,22,0,0,0,8,0,77,0,0,0,0,0,0,4,0,3,28,0,0,0,0,0,43,11,11,0,0,0,0,43,83,0,0,0,0,0,70,18,33,65,17,83,0,0,0,63,0,5,7,0,0,1,10,48,0,1,4,42,39,8,0,78,12,0,0,0,0,69,88,0,0,0,0,0,0,0,7,28,0,26,66,0,0,0,0,0,32,42,26,57,82,15,19,0,0,0,0,68,14,4,24,0,0,0,0,0,2,13,4,0,0,0,0,72,35,0,0,0,0,0,0,0,0,0,0,0,0,0,0,0,0,0,0,0,0,0,0,0,0,0,0,0,0,0,0,0,0,0,0,0,0,0,0],"split_type":[0,0,0,0,0,0,0,0,0,0,0,0,0,0,0,0,0,0,0,0,0,0,0,0,0,0,0,0,0,0,0,0,0,0,0,0,0,0,0,0,0,0,0,0,0,0,0,0,0,0,0,0,0,0,0,0,0,0,0,0,0,0,0,0,0,0,0,0,0,0,0,0,0,0,0,0,0,0,0,0,0,0,0,0,0,0,0,0,0,0,0,0,0,0,0,0,0,0,0,0,0,0,0,0,0,0,0,0,0,0,0,0,0,0,0,0,0,0,0,0,0,0,0,0,0,0,0,0,0,0,0,0,0,0,0,0,0,0,0,0,0,0,0,0,0,0,0,0,0,0,0,0,0,0,0,0,0,0,0,0,0,0,0,0,0,0,0,0,0,0,0,0,0,0,0,0,0,0,0,0,0,0,0,0,0,0,0,0,0,0,0,0,0,0,0,0,0,0,0,0,0,0,0,0,0,0,0,0,0,0,0,0,0,0,0,0,0,0,0,0,0,0,0,0,0,0,0,0,0,0,0,0,0,0,0,0,0,0,0,0,0,0,0,0,0,0,0,0,0],"sum_hessian":[4.34E2,4.02E2,3.2E1,2E0,4E2,1E0,3.1E1,3.95E2,5E0,1E1,2.1E1,2.66E2,1.29E2,9E0,1E0,1E1,1.1E1,3E0,2.63E2,1.07E2,2.2E1,3E0,6E0,3E0,7E0,9E0,2E0,2.5E2,1.3E1,4E0,1.03E2,7E0,1.5E1,2E0,1E0,3E0,3E0,2E0,1E0,5E0,2E0,2E0,7E0,1.54E2,9.6E1,8E0,5E0,3E0,1E0,1E1,9.3E1,1E0,6E0,1E1,5E0,1E1,1.44E2,8.5E1,1.1E1,4E0,4E0,8E0,2E0,9E1,3E0,2E0,4E0,3E0,7E0,2E0,3E0,4E0,6E0,1.36E2,8E0,1.2E1,7.3E1,4E0,7E0,3E0,1E0,3E0,1E0,1E0,7E0,8.3E1,7E0,1E0,2E0,1E0,1E0,1E0,1E0,1E0,5E0,1.05E2,3.1E1,3E0,5E0,2E0,1E1,2E0,7.1E1,2E0,2E0,5E0,2E0,2E0,1E0,5E0,2E0,3.2E1,5.1E1,2E0,5E0,1E0,4E0,2E0,1.03E2,2.3E1,8E0,1E0,4E0,1E0,9E0,5.3E1,1.8E1,1E0,1E0,2E0,3E0,2E0,3E1,4.2E1,9E0,6.5E1,3.8E1,2.1E1,2E0,4E0,4E0,4.8E1,5E0,5E0,1.3E1,1E0,1E0,2.1E1,9E0,3.7E1,5E0,4E0,5E0,3.3E1,3.2E1,3.3E1,5E0,1.6E1,5E0,1E0,1E0,3E0,1E0,2.5E1,2.3E1,2E0,3E0,3E0,2E0,4E0,9E0,7E0,1.4E1,7E0,2E0,8E0,2.9E1,2E0,2E0,1E0,4E0,6E0,2.7E1,2.1E1,1.1E1,1.2E1,2.1E1,9E0,7E0,1E0,4E0,2E0,1E0,1.1E1,1.4E1,6E0,1.7E1,1E0,1E0,1E0,1E0,2E0,5E0,1E1,4E0,5E0,2E0,5E0,3E0,1.9E1,1E1,5E0,1E0,2.5E1,2E0,5E0,1.6E1,8E0,3E0,7E0,5E0,4E0,1.7E1,2E0,7E0,6E0,1E0,4E0,7E0,9E0,5E0,4E0,2E0,1.5E1,2E0,4E0,1E0,2E0,8E0,1E0,3E0,4E0,1E0,3E0,2E0,5E0,1.4E1,2E0,8E0],"tree_param":{"num_deleted":"0","num_feature":"89","num_nodes":"249","size_leaf_vector":"1"}},{"base_weights":[1.7418703E-5,4.1100215E-3,-4.9962472E-2,1.5837243E-2,2.9456893E-3,-2.2232313E-2,-3.7628602E-2,5.128699E-3,-1.4162387E-2,-5.9624517E-4,-5.443439E-2,-1.0391538E-3,1.7757067E-2,-8.280042E-3,3.8120858E-3,-2.5135241E-2,-7.675575E-2,7.930852E-3,-2.562725E-3,1.1310477E-2,4.7255967E-2,4.4579054E-3,-1.4376005E-2,2.990795E-3,-3.6056355E-2,-1.00564165E-2,-4.538342E-3,-3.742704E-4,-4.1459218E-2,-4.6147104E-2,1.3964105E-2,5.9051947E-3,7.861001E-2,-6.48098E-5,9.887958E-4,-4.943576E-4,-1.7160261E-3,8.188399E-4,-6.3010084E-4,-6.3114305E-4,-3.9403997E-3,6.6578174E-3,-1.1534758E-2,-1.15867825E-2,-7.935801E-3,-5.4621343E-3,-6.1250775E-4,-4.6764403E-3,1.5613335E-2,1.691797E-2,-5.2111284E-3,2.1770135E-2,1.01453274E-1,5.3324077E-2,3.3935388E-3,-1.5637813E-2,1.8831708E-2,8.779657E-3,-2.9635865E-2,-3.2141947E-3,1.9416654E-2,4.6816673E-3,3.4102008E-3,1.3210576E-4,2.6552142E-3,1.1337564E-2,3.9816652E-3,9.159188E-3,1.25469E-2,3.6582196E-4,4.910506E-2,-4.837774E-2,-9.674883E-3,-1.07889995E-2,3.4990687E-2,1.2669581E-2,-3.3900194E-4,-3.2566146E-3,-8.9573784E-4,-2.8378565E-3,1.7050119E-3,2.1099465E-2,-1.9935125E-2,-4.0639387E-4,8.992698E-4,3.6371298E-4,1.3601428E-3,-6.1655045E-3,1.0518889E-2,-1.6464152E-3,8.4633686E-2,-1.5402709E-3,-5.2972954E-2,4.5881965E-3,-1.1855379E-2,-3.964311E-4,-1.7585235E-3,4.2061126E-3,9.1862504E-4,1.441008E-3,3.7240426E-4,-1.050398E-2,8.209461E-3,1.7707448E-2,5.4912873E-2,3.5046473E-6,-2.6603534E-3,3.6510327E-3,-7.651626E-3,1.907226E-2,-2.7893023E-3,6.953795E-4,9.877891E-3,-5.9456876E-3,-2.6761882E-3,-4.9865437E-3,-3.0753363E-2,8.659903E-5,-1.460637E-4,-1.8047768E-3,-2.2201437E-4,1.8010616E-2,3.585548E-5,2.0031579E-2,3.6503279E-4,6.991332E-3,2.6184206E-3,2.9609504E-4,-1.6862042E-2,6.683073E-3,3.349375E-2,-1.0601938E-2,1.981138E-2,-7.988739E-3,2.0362476E-2,-1.703472E-3,-4.1006647E-2,2.2290435E-3,7.7272597E-4,-2.4655235E-3,4.1928687E-4,1.7112788E-2,4.685382E-3,1.0242333E-2,-7.926889E-3,-1.0381647E-2,1.4162355E-2,-2.4763646E-2,-5.6445547E-3,-4.2410862E-5,2.5522911E-3,1.129337E-2,5.150741E-2,-1.744E-2,1.5981768E-3,2.376044E-3,3.304641E-6,-1.6702702E-2,3.6217793E-4,7.709541E-4,2.99655E-3,5.07332E-4,-1.0171371E-2,-2.5553936E-3,-4.940194E-2,3.948072E-6,-3.101645E-4,1.594879E-3,1.9382203E-2,1.343233E-3,3.638223E-4,8.254647E-6,-9.545285E-4,-1.3491969E-2,2.234751E-3,4.5858914E-4,3.0860448E-2,-2.9592073E-2,-2.4285787E-3,4.0365495E-3,-1.1292117E-2,-1.9094493E-2,4.357486E-3,2.1607045E-3,4.254305E-3,1.469974E-3,5.4665687E-3,-3.3092448E-3,-2.2761378E-2,-2.736142E-3,-2.6483377E-2,-1.5591914E-2,7.0606284E-3,-5.1029545E-4,6.259386E-4,-2.9901604E-4,-1.2266896E-3,-5.234632E-3,-1.4395631E-3,-4.5219753E-3,7.3927576E-3,7.6760803E-3,2.455323E-2,-1.9877942E-3,-7.0459925E-4,-6.237169E-4,8.030003E-4,-1.0594822E-3,9.867429E-4,4.1559283E-3,-4.3903102E-4,-3.6833168E-3,-8.97102E-4,2.2085964E-4,-6.2562275E-4,8.337001E-4,-4.4763877E-4,-1.4432259E-3,-2.1888016E-4,-5.3932396E-4,-2.32485E-3,3.770824E-5,7.715392E-4,5.466027E-5,5.9715053E-4,1.03012986E-4,-6.5455376E-4,-3.1061638E-3,-1.4766747E-3,-9.058038E-4,4.0417776E-4,-2.8780277E-3,1.688165E-4,-2.4248331E-3,6.918222E-4,2.3474684E-3,3.748699E-4,-6.286551E-5,-5.338142E-4,8.3280134E-4,1.825867E-4,-5.308846E-4,1.3078655E-3,4.1570836E-3,2.0595142E-3],"categories":[],"categories_nodes":[],"categories_segments":[],"categories_sizes":[],"default_left":[0,0,0,0,0,0,0,0,0,0,0,0,0,0,0,0,0,0,0,0,0,0,0,0,0,0,0,0,0,0,0,0,0,0,0,0,0,0,0,0,0,0,0,0,0,0,0,0,0,0,0,0,0,0,0,0,0,0,0,0,0,0,0,0,0,0,0,0,0,0,0,0,0,0,0,0,0,0,0,0,0,0,0,0,0,0,0,0,0,0,0,0,0,0,0,0,0,0,0,0,0,0,0,0,0,0,0,0,0,0,0,0,0,0,0,0,0,0,0,0,0,0,0,0,0,0,0,0,0,0,0,0,0,0,0,0,0,0,0,0,0,0,0,0,0,0,0,0,0,0,0,0,0,0,0,0,0,0,0,0,0,0,0,0,0,0,0,0,0,0,0,0,0,0,0,0,0,0,0,0,0,0,0,0,0,0,0,0,0,0,0,0,0,0,0,0,0,0,0,0,0,0,0,0,0,0,0,0,0,0,0,0,0,0,0,0,0,0,0,0,0,0,0,0,0,0,0,0,0,0,0,0,0,0,0,0,0,0,0,0,0,0,0,0,0],"id":3,"left_children":[1,3,5,-1,7,-1,9,11,-1,13,15,17,19,21,-1,23,25,-1,27,29,31,33,35,37,39,-1,-1,41,43,45,47,49,51,-1,-1,-1,-1,-1,-1,-1,-1,53,55,57,-1,-1,-1,-1,59,61,-1,63,65,67,69,71,73,75,77,79,81,83,-1,-1,-1,-1,-1,-1,85,87,89,91,93,95,97,99,-1,-1,-1,-1,101,103,105,-1,-1,-1,-1,107,109,-1,111,-1,113,-1,115,117,-1,-1,-1,-1,-1,119,121,123,125,-1,-1,-1,127,129,131,-1,-1,-1,-1,133,135,-1,-1,-1,-1,137,139,141,143,-1,-1,145,147,149,151,153,155,157,159,161,163,-1,-1,165,-1,167,-1,169,171,173,175,177,179,181,-1,183,185,187,-1,-1,-1,189,191,193,-1,-1,195,-1,197,-1,-1,199,201,-1,-1,-1,-1,203,205,207,209,211,213,215,217,219,221,-1,223,-1,-1,225,227,229,231,233,235,-1,-1,-1,-1,-1,-1,237,239,241,243,-1,-1,-1,-1,-1,-1,-1,-1,-1,-1,-1,-1,-1,-1,-1,-1,-1,-1,-1,-1,-1,-1,-1,-1,-1,-1,-1,-1,-1,-1,-1,-1,-1,-1,-1,-1,-1,-1,-1,-1,-1,-1],"loss_changes":[8.918365E-2,7.1917385E-2,6.1788112E-2,0E0,1.2728062E-1,0E0,1.9882996E-2,3.0862857E-2,0E0,3.58808E-3,1.2458652E-2,3.2888155E-2,2.4187263E-2,8.405875E-4,0E0,3.4866813E-3,4.3991655E-3,0E0,2.2371886E-2,1.7111283E-2,2.935562E-2,1.17311836E-4,9.900308E-5,2.447756E-4,5.479073E-4,0E0,0E0,1.9697176E-2,1.49303E-2,1.3612211E-3,1.1146296E-2,7.909765E-3,1.4670648E-2,0E0,0E0,0E0,0E0,0E0,0E0,0E0,0E0,2.327812E-2,1.2380233E-2,3.5685531E-3,0E0,0E0,0E0,0E0,7.366333E-3,1.9430369E-3,0E0,4.5386096E-4,2.0994619E-3,1.4455333E-2,2.005026E-2,1.632138E-2,6.121199E-3,2.796457E-4,1.1261087E-5,2.276583E-3,6.049458E-3,3.0046378E-4,0E0,0E0,0E0,0E0,0E0,0E0,6.9034286E-6,9.149734E-3,2.235968E-2,1.1539273E-3,9.508415E-3,3.4618046E-4,1.073204E-3,8.615025E-6,0E0,0E0,0E0,0E0,1.3568362E-3,8.432679E-3,5.336094E-4,0E0,0E0,0E0,0E0,5.606768E-3,6.2000146E-3,0E0,5.9059076E-3,0E0,2.7827732E-4,0E0,9.192762E-3,5.2953264E-6,0E0,0E0,0E0,0E0,0E0,3.3488043E-4,8.8057277E-4,3.055945E-3,1.1859741E-3,0E0,0E0,0E0,6.0075424E-3,5.6722853E-3,4.094599E-3,0E0,0E0,0E0,0E0,4.272217E-3,5.5894237E-3,0E0,0E0,0E0,0E0,4.781061E-5,8.312548E-5,4.4435263E-3,9.002078E-4,0E0,0E0,6.809745E-3,3.2283934E-3,2.408516E-3,5.4169595E-3,3.3689998E-3,4.6784943E-4,3.5717587E-3,1.1057251E-3,3.959137E-4,5.5380724E-4,0E0,0E0,8.089886E-6,0E0,2.1525156E-3,0E0,5.646568E-5,7.856253E-5,1.0504182E-3,4.562384E-3,2.3006834E-3,9.7505E-4,1.3406121E-3,0E0,4.88866E-4,1.2641773E-4,9.774081E-4,0E0,0E0,0E0,3.205995E-3,2.8886485E-3,1.28657E-4,0E0,0E0,8.465227E-6,0E0,7.1018934E-5,0E0,0E0,3.5261284E-4,3.0802917E-3,0E0,0E0,0E0,0E0,7.2438084E-4,3.4466595E-4,1.3525408E-3,3.576735E-3,2.3573115E-3,1.0256487E-4,2.93586E-4,2.8285338E-4,4.536053E-5,1.7084635E-4,0E0,3.493717E-5,0E0,0E0,7.69602E-5,2.0489609E-4,5.0795294E-4,9.5448643E-4,1.7266121E-3,9.448821E-4,0E0,0E0,0E0,0E0,0E0,0E0,1.2532131E-5,1.0826479E-5,1.3321693E-3,1.6360581E-3,0E0,0E0,0E0,0E0,0E0,0E0,0E0,0E0,0E0,0E0,0E0,0E0,0E0,0E0,0E0,0E0,0E0,0E0,0E0,0E0,0E0,0E0,0E0,0E0,0E0,0E0,0E0,0E0,0E0,0E0,0E0,0E0,0E0,0E0,0E0,0E0,0E0,0E0,0E0,0E0,0E0,0E0],"parents":[2147483647,0,0,1,1,2,2,4,4,6,6,7,7,9,9,10,10,11,11,12,12,13,13,15,15,16,16,18,18,19,19,20,20,21,21,22,22,23,23,24,24,27,27,28,28,29,29,30,30,31,31,32,32,41,41,42,42,43,43,48,48,49,49,51,51,52,52,53,53,54,54,55,55,56,56,57,57,58,58,59,59,60,60,61,61,68,68,69,69,70,70,71,71,72,72,73,73,74,74,75,75,80,80,81,81,82,82,87,87,88,88,90,90,92,92,94,94,95,95,101,101,102,102,103,103,104,104,108,108,109,109,110,110,115,115,116,116,121,121,122,122,123,123,124,124,127,127,128,128,129,129,130,130,131,131,132,132,133,133,134,134,135,135,136,136,139,139,141,141,143,143,144,144,145,145,146,146,147,147,148,148,149,149,151,151,152,152,153,153,157,157,158,158,159,159,162,162,164,164,167,167,168,168,173,173,174,174,175,175,176,176,177,177,178,178,179,179,180,180,181,181,182,182,184,184,187,187,188,188,189,189,190,190,191,191,192,192,199,199,200,200,201,201,202,202],"right_children":[2,4,6,-1,8,-1,10,12,-1,14,16,18,20,22,-1,24,26,-1,28,30,32,34,36,38,40,-1,-1,42,44,46,48,50,52,-1,-1,-1,-1,-1,-1,-1,-1,54,56,58,-1,-1,-1,-1,60,62,-1,64,66,68,70,72,74,76,78,80,82,84,-1,-1,-1,-1,-1,-1,86,88,90,92,94,96,98,100,-1,-1,-1,-1,102,104,106,-1,-1,-1,-1,108,110,-1,112,-1,114,-1,116,118,-1,-1,-1,-1,-1,120,122,124,126,-1,-1,-1,128,130,132,-1,-1,-1,-1,134,136,-1,-1,-1,-1,138,140,142,144,-1,-1,146,148,150,152,154,156,158,160,162,164,-1,-1,166,-1,168,-1,170,172,174,176,178,180,182,-1,184,186,188,-1,-1,-1,190,192,194,-1,-1,196,-1,198,-1,-1,200,202,-1,-1,-1,-1,204,206,208,210,212,214,216,218,220,222,-1,224,-1,-1,226,228,230,232,234,236,-1,-1,-1,-1,-1,-1,238,240,242,244,-1,-1,-1,-1,-1,-1,-1,-1,-1,-1,-1,-1,-1,-1,-1,-1,-1,-1,-1,-1,-1,-1,-1,-1,-1,-1,-1,-1,-1,-1,-1,-1,-1,-1,-1,-1,-1,-1,-1,-1,-1,-1],"split_conditions":[3.8318865E-2,5.0512624E-1,3.9543867E-2,1.5837243E-2,2.3297313E-1,-2.2232313E-2,4.023531E-2,4.4451762E-2,-1.4162387E-2,8.515781E-2,6.2188707E-2,-1.2938185E-1,2.9194476E-2,4.9790666E-2,3.8120858E-3,7.890108E-2,1.9821613E-3,7.930852E-3,1.0763066E-1,-9.607383E-2,2.264901E-2,-4.92712E-3,4.0194537E-2,5.07573E-3,5.119228E-2,-1.00564165E-2,-4.538342E-3,2.755993E-3,2.5138397E-2,4.0916108E-2,-3.0612027E-2,8.903098E-3,3.8318865E-2,-6.48098E-5,9.887958E-4,-4.943576E-4,-1.7160261E-3,8.188399E-4,-6.3010084E-4,-6.3114305E-4,-3.9403997E-3,-2.7908789E-2,3.0634003E-2,3.7881296E-2,-7.935801E-3,-5.4621343E-3,-6.1250775E-4,-4.6764403E-3,1.8726592E-3,4.4408284E-2,-5.2111284E-3,-1.5687684E-2,1.0146946E-1,4.0579777E-2,4.9976364E-2,-1.352452E-1,9.565752E-3,5.952886E-3,-4.460963E-3,1.0980974E-2,1.1020314E-1,1.0810916E-2,3.4102008E-3,1.3210576E-4,2.6552142E-3,1.1337564E-2,3.9816652E-3,9.159188E-3,-1.2222183E-2,-1.51556E-3,-2.3420274E-2,4.753101E-2,-5.1196728E-2,3.749036E-3,1.6842347E-2,-3.7895162E-3,-3.3900194E-4,-3.2566146E-3,-8.9573784E-4,-2.8378565E-3,2.0022545E0,3.9913464E-2,-5.33822E-2,-4.0639387E-4,8.992698E-4,3.6371298E-4,1.3601428E-3,-6.7252226E-2,7.137968E-3,-1.6464152E-3,-2.939726E-2,-1.5402709E-3,2.3549045E-2,4.5881965E-3,1.4698429E-2,-4.3645203E-3,-1.7585235E-3,4.2061126E-3,9.1862504E-4,1.441008E-3,3.7240426E-4,8.163311E-3,-4.6084013E-5,2.519025E-2,1.280254E-5,3.5046473E-6,-2.6603534E-3,3.6510327E-3,1.5666744E-2,1.17503E0,2.6491616E-2,6.953795E-4,9.877891E-3,-5.9456876E-3,-2.6761882E-3,7.2927155E-2,2.8998146E-2,8.659903E-5,-1.460637E-4,-1.8047768E-3,-2.2201437E-4,4.6403795E-3,4.0262323E-3,5.366414E-2,7.017573E-3,6.991332E-3,2.6184206E-3,1.7029456E0,3.0622749E-2,6.360547E-3,-8.4222504E-4,8E-1,1.6209072E-2,-4.1529853E-2,-4.393101E-3,2.3347365E-2,3.0755054E-2,2.2290435E-3,7.7272597E-4,3.125049E-5,4.1928687E-4,1.3333531E-2,4.685382E-3,4.088703E-3,2.4038753E-2,1.2768675E-2,-4.832085E-4,4.8596215E-2,1.1889048E0,-5.1887404E-2,2.5522911E-3,0E0,-8.310434E-4,-1.8654436E-2,1.5981768E-3,2.376044E-3,3.304641E-6,1.1632167E-2,9.5345515E-1,-8.053327E-3,2.99655E-3,5.07332E-4,-4.3645203E-3,-2.5553936E-3,1.1853801E-2,3.948072E-6,-3.101645E-4,3.5804503E-2,-7.427516E-3,1.343233E-3,3.638223E-4,8.254647E-6,-9.545285E-4,-5.88218E-5,-1.481939E-4,-4.5192544E-4,-1.5469497E-3,7.7821403E-3,9.433517E-5,-7.7194143E-3,2.7614434E0,1.5963147E-4,-1.01005E-4,2.1607045E-3,-1.082488E-3,1.469974E-3,5.4665687E-3,2.6668247E-2,1.7029456E0,9.528924E-3,1.6432473E-2,1.9452427E-2,-1.7326895E-2,-5.1029545E-4,6.259386E-4,-2.9901604E-4,-1.2266896E-3,-5.234632E-3,-1.4395631E-3,1.057683E-2,6.8888385E-3,1.0278051E-1,-1.6029926E-3,-1.9877942E-3,-7.0459925E-4,-6.237169E-4,8.030003E-4,-1.0594822E-3,9.867429E-4,4.1559283E-3,-4.3903102E-4,-3.6833168E-3,-8.97102E-4,2.2085964E-4,-6.2562275E-4,8.337001E-4,-4.4763877E-4,-1.4432259E-3,-2.1888016E-4,-5.3932396E-4,-2.32485E-3,3.770824E-5,7.715392E-4,5.466027E-5,5.9715053E-4,1.03012986E-4,-6.5455376E-4,-3.1061638E-3,-1.4766747E-3,-9.058038E-4,4.0417776E-4,-2.8780277E-3,1.688165E-4,-2.4248331E-3,6.918222E-4,2.3474684E-3,3.748699E-4,-6.286551E-5,-5.338142E-4,8.3280134E-4,1.825867E-4,-5.308846E-4,1.3078655E-3,4.1570836E-3,2.0595142E-3],"split_indices":[32,88,12,0,62,0,20,63,0,11,32,63,65,23,0,23,62,0,14,35,18,2,16,0,12,0,0,2,79,6,3,2,7,0,0,0,0,0,0,0,0,27,37,13,0,0,0,0,75,19,0,0,9,14,70,56,39,0,0,83,20,20,0,0,0,0,0,0,3,2,32,43,27,1,68,0,0,0,0,0,84,80,0,0,0,0,0,43,64,0,0,0,69,0,77,0,0,0,0,0,0,14,37,28,25,0,0,0,82,84,18,0,0,0,0,43,83,0,0,0,0,6,3,18,33,0,0,84,82,77,3,85,0,60,0,5,9,0,0,4,0,56,0,1,4,66,31,49,84,45,0,2,2,25,0,0,0,69,88,0,0,0,0,0,0,0,0,4,32,0,0,0,0,28,0,3,29,27,8,1,84,0,39,0,0,0,0,6,84,8,0,4,30,0,0,0,0,0,0,0,2,52,32,0,0,0,0,0,0,0,0,0,0,0,0,0,0,0,0,0,0,0,0,0,0,0,0,0,0,0,0,0,0,0,0,0,0,0,0,0,0,0,0,0,0],"split_type":[0,0,0,0,0,0,0,0,0,0,0,0,0,0,0,0,0,0,0,0,0,0,0,0,0,0,0,0,0,0,0,0,0,0,0,0,0,0,0,0,0,0,0,0,0,0,0,0,0,0,0,0,0,0,0,0,0,0,0,0,0,0,0,0,0,0,0,0,0,0,0,0,0,0,0,0,0,0,0,0,0,0,0,0,0,0,0,0,0,0,0,0,0,0,0,0,0,0,0,0,0,0,0,0,0,0,0,0,0,0,0,0,0,0,0,0,0,0,0,0,0,0,0,0,0,0,0,0,0,0,0,0,0,0,0,0,0,0,0,0,0,0,0,0,0,0,0,0,0,0,0,0,0,0,0,0,0,0,0,0,0,0,0,0,0,0,0,0,0,0,0,0,0,0,0,0,0,0,0,0,0,0,0,0,0,0,0,0,0,0,0,0,0,0,0,0,0,0,0,0,0,0,0,0,0,0,0,0,0,0,0,0,0,0,0,0,0,0,0,0,0,0,0,0,0,0,0,0,0,0,0,0,0,0,0,0,0,0,0,0,0,0,0,0,0],"sum_hessian":[4.34E2,4.02E2,3.2E1,2E0,4E2,1E0,3.1E1,3.95E2,5E0,1E1,2.1E1,2.66E2,1.29E2,9E0,1E0,1E1,1.1E1,4E0,2.62E2,1.07E2,2.2E1,3E0,6E0,3E0,7E0,5E0,6E0,2.49E2,1.3E1,4E0,1.03E2,1E1,1.2E1,2E0,1E0,2E0,4E0,2E0,1E0,1E0,6E0,1.53E2,9.6E1,8E0,5E0,3E0,1E0,2E0,1.01E2,9E0,1E0,4E0,8E0,9E0,1.44E2,8.5E1,1.1E1,4E0,4E0,1.7E1,8.4E1,6E0,3E0,1E0,3E0,6E0,2E0,4E0,5E0,1.36E2,8E0,1.2E1,7.3E1,4E0,7E0,3E0,1E0,3E0,1E0,2E0,1.5E1,8.1E1,3E0,2E0,4E0,1E0,4E0,8.3E1,5.3E1,3E0,5E0,2E0,1E1,2E0,7.1E1,2E0,2E0,5E0,2E0,2E0,1E0,5E0,1E1,7.5E1,6E0,1E0,2E0,2E0,8.1E1,3.2E1,2.1E1,1E0,4E0,7E0,3E0,5.3E1,1.8E1,1E0,1E0,2E0,3E0,4E0,6E0,6.6E1,9E0,3E0,3E0,4.4E1,3.7E1,1.8E1,1.4E1,1.6E1,5E0,4.8E1,5E0,5E0,1.3E1,2E0,2E0,4E0,2E0,6.1E1,5E0,4E0,5E0,2.5E1,1.9E1,2.1E1,1.6E1,1.4E1,4E0,7E0,7E0,1.3E1,3E0,4E0,1E0,2.3E1,2.5E1,2E0,3E0,3E0,2E0,6E0,7E0,1E0,3E0,8E0,5.3E1,2E0,2E0,1E0,4E0,2E1,5E0,1.1E1,8E0,1.7E1,4E0,6E0,1E1,2E0,1.2E1,2E0,5E0,1E0,6E0,4E0,9E0,1E1,1.3E1,7E0,1.8E1,1E0,1E0,1E0,1E0,6E0,1E0,4E0,4E0,1.7E1,3.6E1,9E0,1.1E1,2E0,3E0,5E0,6E0,6E0,2E0,1.2E1,5E0,2E0,2E0,4E0,2E0,7E0,3E0,1E0,1E0,6E0,6E0,2E0,3E0,2E0,2E0,3E0,6E0,5E0,5E0,1.2E1,1E0,5E0,2E0,2E0,1.6E1,1E0,3E0,3E0,1E0,5E0,1.2E1,5E0,3.1E1],"tree_param":{"num_deleted":"0","num_feature":"89","num_nodes":"245","size_leaf_vector":"1"}},{"base_weights":[1.6165519E-5,3.7955374E-3,-4.6138473E-2,1.4781425E-2,2.7086255E-3,-2.1120697E-2,-3.4379862E-2,4.7098235E-3,-1.2982188E-1,-3.0701284E-4,-4.9853567E-2,-8.8612613E-4,1.6166814E-2,-3.6697534E-3,-1.4110724E-2,-7.580677E-3,3.6214814E-3,-2.3020156E-2,-7.02964E-2,8.260943E-3,-2.1478536E-3,1.0247118E-2,4.3260742E-2,4.2431112E-3,-1.3254173E-2,2.7389E-3,-3.3022165E-2,-7.9059236E-2,-1.7654805E-3,-1.355916E-4,-3.807142E-2,-4.2747322E-2,1.26963975E-2,-5.729649E-3,6.505214E-2,-6.0489147E-5,9.39356E-4,-1.7169201E-3,-6.0256035E-4,7.642505E-4,-5.9859577E-4,-3.8461946E-3,-1.1135213E-3,-2.9764099E-3,-8.766251E-3,6.3520987E-3,-1.0501121E-2,-7.3476224E-3,-1.0238061E-2,-1.3956724E-3,-5.7288813E-3,-4.364678E-3,1.4229076E-2,7.5963205E-3,-4.950572E-3,6.1090477E-3,7.818446E-2,5.0112214E-2,2.9885583E-3,-1.4247651E-2,1.72241E-2,8.196574E-3,-2.6625083E-3,-1.9750549E-3,1.796225E-2,1.2910655E-2,-3.7930098E-3,1.2550048E-4,7.3087274E-4,8.62585E-2,2.2518167E-3,8.426453E-3,1.8558819E-2,1.946212E-4,4.5186426E-2,-4.432167E-2,-8.771841E-3,-1.0073697E-2,3.2132212E-2,1.1855976E-2,-3.2205187E-4,-2.648666E-3,2.219938E-3,1.9566126E-2,-1.8605825E-2,2.946114E-4,1.4665261E-3,-4.601249E-4,-1.08826556E-4,3.9087655E-3,9.906162E-3,3.0217308E-3,1.1579519E-2,-3.578566E-3,1.2687222E-2,-1.5229341E-3,7.793253E-2,-1.4375862E-3,-4.8459467E-2,4.282317E-3,-1.0799803E-2,-3.7660962E-4,-1.6412886E-3,3.8556032E-2,8.573833E-4,1.3449407E-3,3.5378404E-4,1.1353662E-2,-6.222408E-3,1.6347693E-2,5.0794408E-2,3.329415E-6,-2.4829963E-3,3.4552737E-4,1.2513314E-3,3.598261E-3,-4.6853446E-3,1.931364E-2,-6.3929213E-3,6.6061056E-4,9.087659E-3,-5.4254397E-3,-2.475474E-3,-4.4713947E-3,-2.8217392E-2,8.226908E-5,-1.3876053E-4,4.158547E-3,1.1704414E-3,-7.584209E-4,1.7536107E-2,-3.417907E-4,-1.2034667E-2,1.8548973E-2,4.0460774E-4,6.4669824E-3,2.422039E-3,9.0370746E-4,-1.4023603E-2,2.3537783E-2,-1.8101279E-2,-1.1674544E-3,1.6728563E-4,-7.235202E-3,1.8844929E-2,-1.7028536E-3,-3.756524E-2,2.8256295E-4,-2.894981E-4,2.0895079E-3,7.2121096E-4,3.044387E-4,-1.6279035E-3,-1.6844583E-3,-3.2131936E-4,1.5799787E-2,4.294933E-2,9.55951E-3,-7.2919126E-3,8.729865E-3,-7.1869916E-3,-1.0402083E-2,-3.2208287E-3,1.6162502E-2,4.051145E-2,-5.065842E-4,-2.2086077E-3,1.0661174E-3,-1.7140208E-4,-1.51662165E-2,3.6401168E-4,7.3240604E-4,2.7718088E-2,4.692821E-4,-9.662801E-3,-1.9528058E-3,-4.2827304E-2,3.7506682E-6,-2.0536329E-4,1.9770928E-2,6.868959E-3,1.2003774E-3,4.6737688E-3,1.2536843E-3,3.3956752E-4,7.841915E-6,-8.7816623E-4,1.8396739E-2,-3.2951639E-3,-2.4100244E-3,-2.4585722E-2,-2.1852145E-2,-3.163315E-3,2.4270562E-2,4.0071146E-3,6.0370675E-4,4.6198913E-3,2.4774208E-5,1.7606217E-4,-2.50813E-3,-2.4028555E-2,9.5049245E-3,-9.508049E-3,-4.847807E-4,5.946416E-4,3.6698494E-3,1.2491788E-3,-2.8406523E-4,-1.165355E-3,-2.5002006E-3,-5.0543835E-3,7.834652E-3,2.5669934E-2,-7.277039E-3,1.0860274E-2,3.280046E-3,7.261198E-4,-1.3193496E-3,5.869483E-4,8.80887E-4,-1.1972397E-3,-1.6295888E-4,-3.344226E-3,-2.9386596E-3,-8.164189E-4,5.4300093E-4,-8.461644E-4,3.5668106E-3,1.0727516E-3,-2.3083187E-4,1.0899628E-3,-9.5110777E-4,2.8522796E-4,-1.0313971E-3,-3.0501771E-3,1.6836192E-3,1.9019497E-4,6.265421E-4,-2.0149646E-3,-5.4814847E-4,1.1620478E-3,2.9303508E-3,3.8215064E-4,2.2787953E-4,-1.0235696E-3,1.567962E-3,2.4240253E-4],"categories":[],"categories_nodes":[],"categories_segments":[],"categories_sizes":[],"default_left":[0,0,0,0,0,0,0,0,0,0,0,0,0,0,0,0,0,0,0,0,0,0,0,0,0,0,0,0,0,0,0,0,0,0,0,0,0,0,0,0,0,0,0,0,0,0,0,0,0,0,0,0,0,0,0,0,0,0,0,0,0,0,0,0,0,0,0,0,0,0,0,0,0,0,0,0,0,0,0,0,0,0,0,0,0,0,0,0,0,0,0,0,0,0,0,0,0,0,0,0,0,0,0,0,0,0,0,0,0,0,0,0,0,0,0,0,0,0,0,0,0,0,0,0,0,0,0,0,0,0,0,0,0,0,0,0,0,0,0,0,0,0,0,0,0,0,0,0,0,0,0,0,0,0,0,0,0,0,0,0,0,0,0,0,0,0,0,0,0,0,0,0,0,0,0,0,0,0,0,0,0,0,0,0,0,0,0,0,0,0,0,0,0,0,0,0,0,0,0,0,0,0,0,0,0,0,0,0,0,0,0,0,0,0,0,0,0,0,0,0,0,0,0,0,0,0,0,0,0,0,0,0,0,0,0,0,0,0,0,0,0,0,0,0,0,0,0],"id":4,"left_children":[1,3,5,-1,7,-1,9,11,13,15,17,19,21,-1,-1,23,-1,25,27,-1,29,31,33,35,37,39,41,43,-1,45,47,49,51,53,55,-1,-1,-1,-1,-1,-1,-1,-1,-1,-1,57,59,-1,61,-1,-1,-1,63,65,-1,67,69,71,73,75,77,79,-1,81,83,85,87,-1,-1,89,-1,-1,91,93,95,97,99,101,103,105,-1,-1,107,109,111,-1,-1,-1,-1,-1,-1,-1,113,115,117,-1,119,-1,121,-1,123,125,-1,127,-1,-1,-1,129,131,133,135,-1,-1,-1,-1,-1,137,139,141,-1,-1,-1,-1,143,145,-1,-1,-1,-1,147,149,151,153,155,157,-1,-1,159,161,163,165,-1,167,169,171,173,175,-1,-1,-1,-1,-1,177,-1,-1,179,181,183,185,187,189,191,-1,193,195,-1,-1,197,-1,199,201,203,205,-1,207,-1,209,-1,-1,211,213,-1,-1,-1,-1,-1,-1,215,217,219,221,223,225,227,229,-1,-1,-1,-1,231,233,235,237,-1,-1,-1,-1,-1,-1,-1,-1,239,241,243,245,-1,-1,-1,-1,-1,-1,-1,-1,-1,-1,-1,-1,-1,-1,-1,-1,-1,-1,-1,-1,-1,-1,-1,-1,-1,-1,-1,-1,-1,-1,-1,-1],"loss_changes":[7.605458E-2,6.268349E-2,5.679094E-2,0E0,1.0696457E-1,0E0,1.6856156E-2,2.540297E-2,1.1273697E-3,3.1966555E-3,1.0449886E-2,2.8305521E-2,2.0407118E-2,0E0,0E0,7.2706107E-4,0E0,2.9245093E-3,4.1396953E-3,0E0,1.907877E-2,1.4560943E-2,2.4926815E-2,1.0555964E-4,9.464554E-5,2.1688074E-4,5.242005E-4,1.6318038E-3,0E0,1.694604E-2,1.3043832E-2,1.2937272E-3,9.602072E-3,5.0429297E-3,1.1907324E-2,0E0,0E0,0E0,0E0,0E0,0E0,0E0,0E0,0E0,0E0,2.2664519E-2,1.0321117E-2,0E0,2.9370328E-3,0E0,0E0,0E0,6.205747E-3,4.7265718E-4,0E0,1.4120698E-5,3.9004907E-3,1.0289986E-2,1.7086443E-2,1.3773663E-2,5.207193E-3,2.4708107E-4,0E0,2.1153188E-3,5.2320473E-3,4.4213666E-5,1.5508631E-6,0E0,0E0,2.7711764E-3,0E0,0E0,2.1967478E-4,6.50316E-3,1.899229E-2,9.1418065E-4,8.205299E-3,3.0117703E-4,8.801045E-4,5.435664E-6,0E0,0E0,1.4586282E-3,7.2101187E-3,4.6487642E-4,0E0,0E0,0E0,0E0,0E0,0E0,0E0,2.2813329E-6,4.80985E-3,4.169328E-3,0E0,4.9391836E-3,0E0,1.6798638E-4,0E0,7.810071E-3,4.779032E-6,0E0,1.3392419E-6,0E0,0E0,0E0,6.872405E-4,3.3768342E-4,2.5895406E-3,1.0147486E-3,0E0,0E0,0E0,0E0,0E0,5.440643E-3,4.219166E-3,3.1378982E-4,0E0,0E0,0E0,0E0,3.6162045E-3,4.6452563E-3,0E0,0E0,0E0,0E0,3.8810293E-5,5.7370402E-5,3.108601E-5,1.580278E-4,3.681682E-3,7.74316E-4,0E0,0E0,4.2418013E-3,2.2333576E-3,2.0993156E-3,4.3946202E-5,0E0,1.0282238E-5,2.9587245E-3,9.439911E-4,3.5080122E-4,4.9244426E-4,0E0,0E0,0E0,0E0,0E0,3.6220954E-6,0E0,0E0,1.9921288E-3,1.4236849E-4,4.918789E-5,6.656838E-5,4.012931E-3,2.6834821E-3,2.7489427E-3,0E0,1.5782076E-3,8.975258E-4,0E0,0E0,1.8372807E-6,0E0,2.6320596E-3,2.4366041E-3,1.1611293E-4,8.852361E-5,0E0,7.639843E-6,0E0,1.11797825E-4,0E0,0E0,2.6857834E-3,1.2082532E-3,0E0,0E0,0E0,0E0,0E0,0E0,2.8092996E-3,1.5288745E-3,3.002003E-3,1.3686852E-3,1.1007884E-3,1.0476124E-3,1.1609443E-3,3.733934E-4,0E0,0E0,0E0,0E0,4.4005355E-4,9.282902E-4,7.483305E-4,2.3083598E-3,0E0,0E0,0E0,0E0,0E0,0E0,0E0,0E0,8.198859E-4,2.0314883E-3,1.6468726E-4,6.125077E-4,0E0,0E0,0E0,0E0,0E0,0E0,0E0,0E0,0E0,0E0,0E0,0E0,0E0,0E0,0E0,0E0,0E0,0E0,0E0,0E0,0E0,0E0,0E0,0E0,0E0,0E0,0E0,0E0,0E0,0E0,0E0,0E0],"parents":[2147483647,0,0,1,1,2,2,4,4,6,6,7,7,8,8,9,9,10,10,11,11,12,12,15,15,17,17,18,18,20,20,21,21,22,22,23,23,24,24,25,25,26,26,27,27,29,29,30,30,31,31,32,32,33,33,34,34,45,45,46,46,48,48,52,52,53,53,55,55,56,56,57,57,58,58,59,59,60,60,61,61,63,63,64,64,65,65,66,66,69,69,72,72,73,73,74,74,75,75,76,76,77,77,78,78,79,79,82,82,83,83,84,84,92,92,93,93,94,94,96,96,98,98,100,100,101,101,103,103,107,107,108,108,109,109,110,110,116,116,117,117,118,118,123,123,124,124,129,129,130,130,131,131,132,132,133,133,134,134,137,137,138,138,139,139,140,140,142,142,143,143,144,144,145,145,146,146,152,152,155,155,156,156,157,157,158,158,159,159,160,160,161,161,163,163,164,164,167,167,169,169,170,170,171,171,172,172,174,174,176,176,179,179,180,180,187,187,188,188,189,189,190,190,191,191,192,192,193,193,194,194,199,199,200,200,201,201,202,202,211,211,212,212,213,213,214,214],"right_children":[2,4,6,-1,8,-1,10,12,14,16,18,20,22,-1,-1,24,-1,26,28,-1,30,32,34,36,38,40,42,44,-1,46,48,50,52,54,56,-1,-1,-1,-1,-1,-1,-1,-1,-1,-1,58,60,-1,62,-1,-1,-1,64,66,-1,68,70,72,74,76,78,80,-1,82,84,86,88,-1,-1,90,-1,-1,92,94,96,98,100,102,104,106,-1,-1,108,110,112,-1,-1,-1,-1,-1,-1,-1,114,116,118,-1,120,-1,122,-1,124,126,-1,128,-1,-1,-1,130,132,134,136,-1,-1,-1,-1,-1,138,140,142,-1,-1,-1,-1,144,146,-1,-1,-1,-1,148,150,152,154,156,158,-1,-1,160,162,164,166,-1,168,170,172,174,176,-1,-1,-1,-1,-1,178,-1,-1,180,182,184,186,188,190,192,-1,194,196,-1,-1,198,-1,200,202,204,206,-1,208,-1,210,-1,-1,212,214,-1,-1,-1,-1,-1,-1,216,218,220,222,224,226,228,230,-1,-1,-1,-1,232,234,236,238,-1,-1,-1,-1,-1,-1,-1,-1,240,242,244,246,-1,-1,-1,-1,-1,-1,-1,-1,-1,-1,-1,-1,-1,-1,-1,-1,-1,-1,-1,-1,-1,-1,-1,-1,-1,-1,-1,-1,-1,-1,-1,-1],"split_conditions":[3.8318865E-2,5.0512624E-1,3.9543867E-2,1.4781425E-2,2.3297313E-1,-2.1120697E-2,4.023531E-2,4.4451762E-2,-7.259922E-2,8.515781E-2,6.2188707E-2,-1.684431E-1,2.9194476E-2,-3.6697534E-3,-1.4110724E-2,4.9790666E-2,3.6214814E-3,7.890108E-2,5.894825E-2,8.260943E-3,1.0763066E-1,-9.607383E-2,2.6317308E-2,-4.92712E-3,4.593805E-3,5.07573E-3,7.4107975E-2,-1.1081683E-2,-1.7654805E-3,2.755993E-3,2.7555188E-2,3.52384E-2,-3.0612027E-2,1.14582535E-2,1.693877E-2,-6.0489147E-5,9.39356E-4,-1.7169201E-3,-6.0256035E-4,7.642505E-4,-5.9859577E-4,-3.8461946E-3,-1.1135213E-3,-2.9764099E-3,-8.766251E-3,-2.7908789E-2,3.0634003E-2,-7.3476224E-3,6.4021856E-2,-1.3956724E-3,-5.7288813E-3,-4.364678E-3,2.517809E-3,6.146034E-2,-4.950572E-3,4.6779667E-3,8.950514E-2,4.0579777E-2,4.9976364E-2,-1.352452E-1,9.565752E-3,5.952886E-3,-2.6625083E-3,1.0980974E-2,1.1020314E-1,-4.2978544E-3,-4.4899043E-3,1.2550048E-4,7.3087274E-4,1.9324273E-2,2.2518167E-3,8.426453E-3,-3.876722E-2,-3.5013393E-6,-2.3420274E-2,4.753101E-2,-5.1196728E-2,3.749036E-3,1.6842347E-2,-3.7895162E-3,-3.2205187E-4,-2.648666E-3,8.15162E-4,3.9913464E-2,-5.33822E-2,2.946114E-4,1.4665261E-3,-4.601249E-4,-1.08826556E-4,3.9087655E-3,9.906162E-3,3.0217308E-3,-1.2222183E-2,-1.2523922E-1,4.101521E-2,-1.5229341E-3,-2.939726E-2,-1.4375862E-3,2.3549045E-2,4.282317E-3,1.4698429E-2,-4.3645203E-3,-1.6412886E-3,2.6959106E-2,8.573833E-4,1.3449407E-3,3.5378404E-4,-1.5568503E-3,3.125049E-5,2.519025E-2,1.280254E-5,3.329415E-6,-2.4829963E-3,3.4552737E-4,1.2513314E-3,3.598261E-3,4.8790164E-2,2.3402141E-2,6.734032E-3,6.6061056E-4,9.087659E-3,-5.4254397E-3,-2.475474E-3,7.2927155E-2,2.8998146E-2,8.226908E-5,-1.3876053E-4,4.158547E-3,1.1704414E-3,-5.6116395E-3,7.7519766E-3,-1.4184388E-2,1.307778E-2,5.366414E-2,7.017573E-3,6.4669824E-3,2.422039E-3,9.991976E-3,5.855331E-2,3.789374E-2,-1.7316126E-3,-1.1674544E-3,-2.0803919E-3,-4.1529853E-2,-4.393101E-3,2.3347365E-2,9.9503305E-3,2.8256295E-4,-2.894981E-4,2.0895079E-3,7.2121096E-4,3.044387E-4,9.9995E-5,-1.6844583E-3,-3.2131936E-4,3.2792888E-3,-1.2937459E-2,4.088703E-3,2.4038753E-2,-1.0638864E-4,2.6541142E-2,5.611687E-3,-3.2208287E-3,1.1641458E-3,1.028542E-4,-5.065842E-4,-2.2086077E-3,-8.650603E-3,-1.7140208E-4,1.1632167E-2,6.113319E-4,-8.053327E-3,1.8202303E-3,4.692821E-4,-4.3645203E-3,-1.9528058E-3,3.7089083E-2,3.7506682E-6,-2.0536329E-4,-7.92432E-3,8.087954E-3,1.2003774E-3,4.6737688E-3,1.2536843E-3,3.3956752E-4,7.841915E-6,-8.7816623E-4,-2.0193862E-4,-5.88218E-5,-2.942639E-3,1.2270093E-2,-4.984507E-2,1.752738E-1,1.8726592E-3,6.389798E-3,6.0370675E-4,4.6198913E-3,2.4774208E-5,1.7606217E-4,5.4754694E-3,-2.4711709E-3,5.168E-1,-1.1060948E-2,-4.847807E-4,5.946416E-4,3.6698494E-3,1.2491788E-3,-2.8406523E-4,-1.165355E-3,-2.5002006E-3,-5.0543835E-3,-6.99062E-4,4.614892E-2,-1.2631603E-2,1.680634E-2,3.280046E-3,7.261198E-4,-1.3193496E-3,5.869483E-4,8.80887E-4,-1.1972397E-3,-1.6295888E-4,-3.344226E-3,-2.9386596E-3,-8.164189E-4,5.4300093E-4,-8.461644E-4,3.5668106E-3,1.0727516E-3,-2.3083187E-4,1.0899628E-3,-9.5110777E-4,2.8522796E-4,-1.0313971E-3,-3.0501771E-3,1.6836192E-3,1.9019497E-4,6.265421E-4,-2.0149646E-3,-5.4814847E-4,1.1620478E-3,2.9303508E-3,3.8215064E-4,2.2787953E-4,-1.0235696E-3,1.567962E-3,2.4240253E-4],"split_indices":[32,88,12,0,62,0,20,63,0,11,32,62,65,0,0,23,0,23,63,0,14,35,20,2,26,0,17,3,0,2,5,4,3,2,10,0,0,0,0,0,0,0,0,0,0,27,37,0,18,0,0,0,75,5,0,1,4,14,70,56,39,0,0,83,20,0,0,0,0,14,0,0,0,2,32,43,27,1,68,0,0,0,74,80,0,0,0,0,0,0,0,0,3,62,22,0,0,0,69,0,77,0,0,2,0,0,0,1,24,28,25,0,0,0,0,0,43,11,11,0,0,0,0,43,83,0,0,0,0,2,6,0,6,18,33,0,0,65,17,83,0,0,0,60,0,5,7,0,0,0,0,0,7,0,0,40,3,1,4,29,76,8,0,2,12,0,0,0,0,69,44,0,0,0,0,0,5,0,0,32,75,0,0,0,0,0,0,36,28,0,21,57,86,76,17,0,0,0,0,2,29,87,36,0,0,0,0,0,0,0,0,3,19,1,82,0,0,0,0,0,0,0,0,0,0,0,0,0,0,0,0,0,0,0,0,0,0,0,0,0,0,0,0,0,0,0,0],"split_type":[0,0,0,0,0,0,0,0,0,0,0,0,0,0,0,0,0,0,0,0,0,0,0,0,0,0,0,0,0,0,0,0,0,0,0,0,0,0,0,0,0,0,0,0,0,0,0,0,0,0,0,0,0,0,0,0,0,0,0,0,0,0,0,0,0,0,0,0,0,0,0,0,0,0,0,0,0,0,0,0,0,0,0,0,0,0,0,0,0,0,0,0,0,0,0,0,0,0,0,0,0,0,0,0,0,0,0,0,0,0,0,0,0,0,0,0,0,0,0,0,0,0,0,0,0,0,0,0,0,0,0,0,0,0,0,0,0,0,0,0,0,0,0,0,0,0,0,0,0,0,0,0,0,0,0,0,0,0,0,0,0,0,0,0,0,0,0,0,0,0,0,0,0,0,0,0,0,0,0,0,0,0,0,0,0,0,0,0,0,0,0,0,0,0,0,0,0,0,0,0,0,0,0,0,0,0,0,0,0,0,0,0,0,0,0,0,0,0,0,0,0,0,0,0,0,0,0,0,0,0,0,0,0,0,0,0,0,0,0,0,0,0,0,0,0,0,0],"sum_hessian":[4.34E2,4.02E2,3.2E1,2E0,4E2,1E0,3.1E1,3.95E2,5E0,1E1,2.1E1,2.66E2,1.29E2,1E0,4E0,9E0,1E0,1E1,1.1E1,3E0,2.63E2,1.07E2,2.2E1,3E0,6E0,3E0,7E0,9E0,2E0,2.5E2,1.3E1,4E0,1.03E2,7E0,1.5E1,2E0,1E0,3E0,3E0,2E0,1E0,5E0,2E0,2E0,7E0,1.54E2,9.6E1,5E0,8E0,2E0,2E0,2E0,1.01E2,6E0,1E0,3E0,1.2E1,1E1,1.44E2,8.5E1,1.1E1,4E0,4E0,1.9E1,8.2E1,4E0,2E0,1E0,2E0,1E1,2E0,4E0,6E0,1.36E2,8E0,1.2E1,7.3E1,4E0,7E0,3E0,1E0,2E0,1.7E1,7.9E1,3E0,1E0,3E0,1E0,1E0,3E0,7E0,1E0,5E0,1.05E2,3.1E1,3E0,5E0,2E0,1E1,2E0,7.1E1,2E0,2E0,5E0,2E0,2E0,1E0,8E0,9E0,7.3E1,6E0,1E0,2E0,1E0,4E0,2E0,1.03E2,2.3E1,8E0,1E0,4E0,7E0,3E0,5.3E1,1.8E1,1E0,1E0,4E0,1E0,3E0,5E0,5E0,4E0,6.4E1,9E0,3E0,3E0,6.5E1,3.8E1,2.1E1,2E0,4E0,4E0,4.8E1,5E0,5E0,1.3E1,1E0,2E0,3E0,2E0,1E0,4E0,2E0,2E0,5.9E1,5E0,4E0,5E0,3.3E1,3.2E1,3.3E1,5E0,1.6E1,5E0,1E0,1E0,3E0,1E0,2.3E1,2.5E1,2E0,3E0,3E0,2E0,4E0,9E0,1E0,3E0,4E1,1.9E1,1E0,4E0,2E0,2E0,1E0,4E0,1.8E1,1.5E1,2.6E1,6E0,1.2E1,2.1E1,9E0,7E0,1E0,4E0,2E0,1E0,1E1,1.3E1,1.3E1,1.2E1,1E0,1E0,1E0,2E0,1E0,1E0,4E0,5E0,1.4E1,2.6E1,4E0,1.5E1,7E0,1.1E1,7E0,8E0,1.2E1,1.4E1,2E0,4E0,7E0,5E0,8E0,1.3E1,4E0,5E0,4E0,3E0,4E0,6E0,5E0,8E0,6E0,7E0,5E0,7E0,3E0,1.1E1,2.2E1,4E0,1E0,3E0,9E0,6E0],"tree_param":{"num_deleted":"0","num_feature":"89","num_nodes":"247","size_leaf_vector":"1"}},{"base_weights":[-6.4115966E-6,3.4857707E-3,-4.265317E-2,1.3795997E-2,2.4710367E-3,-2.0064663E-2,-3.1445667E-2,4.3174354E-3,-1.1980311E-1,-2.2450972E-2,-8.87958E-3,7.6413723E-3,3.572645E-3,-3.4862657E-3,-1.29818665E-2,2.1376288E-2,-2.8330129E-2,-1.9141778E-3,1.4687634E-2,3.4404078E-3,5.565666E-3,-1.4685825E-2,-4.3024663E-2,-6.776728E-5,-3.4880955E-2,9.266022E-3,3.9507046E-2,1.3892766E-5,8.209571E-4,-2.9684862E-3,-2.4567436E-2,-1.5252527E-3,-5.500417E-2,5.8711395E-3,-9.557074E-3,-9.324149E-3,-6.740267E-3,-3.98975E-2,1.1540556E-2,4.015324E-3,6.64995E-2,-7.762587E-3,7.609212E-4,-2.669738E-3,-4.8289215E-4,-5.898926E-3,-1.3554271E-3,4.6286903E-2,2.7646255E-3,-1.299471E-2,1.5875738E-2,7.65225E-3,-2.443572E-2,-1.3026276E-3,-5.346956E-3,-4.0736995E-3,1.2964988E-2,1.3822943E-2,-4.7030435E-3,1.8600063E-2,8.572147E-2,-1.0073566E-3,-2.0937555E-4,7.752336E-3,1.7362736E-2,1.9441829E-4,4.158171E-2,-4.0607847E-2,-7.968149E-3,-9.405884E-3,2.9692285E-2,1.1095059E-2,-3.0594924E-4,-2.6955523E-3,-7.1782555E-4,-1.8649407E-3,1.638226E-2,3.9047785E-3,2.7723997E-3,1.19225464E-4,2.2653954E-3,9.516674E-3,3.5108682E-3,2.8706442E-3,1.0687711E-3,-4.134753E-3,9.438683E-3,-1.4087141E-2,7.176399E-2,-2.4926343E-3,-5.0488235E-3,3.996829E-3,-9.854833E-3,-3.5777912E-4,-1.5318694E-3,4.093583E-3,1.4758992E-2,1.255278E-3,3.3609485E-4,-2.4720884E-3,2.0479907E-3,1.7864853E-2,-1.736516E-2,-3.6033595E-3,7.6287054E-4,-5.983595E-3,2.3978865E-2,2.2004945E-2,-2.9915962E-3,-1.6126832E-3,-3.9840332E-4,6.2758004E-4,8.360647E-3,-4.010055E-3,-2.5947629E-2,7.815562E-5,-1.318225E-4,3.9296495E-4,1.6483916E-3,1.0529828E-2,-5.7904623E-3,1.4868844E-2,4.6984825E-2,3.1629443E-6,-2.317463E-3,-4.3711867E-4,-1.0338524E-4,-7.522845E-4,-1.5278358E-2,3.2293336E-3,4.899948E-3,4.369269E-3,3.1770382E-2,2.4022423E-2,-8.24482E-3,-6.5986626E-3,1.7798584E-2,-1.6959247E-3,-3.4487814E-2,-6.843124E-4,1.625095E-2,-2.9047398E-4,-1.1232356E-2,1.6860463E-2,4.3643976E-4,5.981959E-3,2.240386E-3,5.493967E-3,-1.4938064E-2,7.6441653E-4,-1.7913245E-2,-2.5702004E-5,7.606942E-4,1.2741786E-2,-4.8771016E-3,-6.384429E-4,3.519648E-2,2.8570767E-3,5.1886943E-4,-1.5490367E-2,5.4976356E-4,-1.3285529E-2,9.2038646E-4,6.9578615E-4,2.6176035E-2,4.3408593E-4,-9.179662E-3,-1.206568E-3,-3.7219364E-2,2.6843481E-4,-2.701982E-4,1.932795E-3,6.731302E-4,2.8921675E-4,-1.5054358E-3,-1.5721612E-3,-2.9989806E-4,1.430216E-2,3.963342E-2,8.92221E-3,-6.7077754E-3,1.5482174E-3,2.8252804E-3,-2.7656143E-3,-2.2432748E-2,-3.341698E-2,-1.0415776E-2,1.8772943E-3,6.5407617E-4,-2.7486566E-4,-7.853638E-4,9.553264E-3,4.1934114E-2,-8.668132E-3,-2.1943424E-3,7.7916397E-4,-5.5767605E-3,-3.0422905E-3,-2.0594418E-2,-1.3665298E-2,6.5414645E-3,-4.6054163E-4,5.6490954E-4,3.486357E-3,1.1659001E-3,-2.6986198E-4,-1.1070872E-3,-2.1547351E-3,-4.236195E-3,3.5631347E-6,-1.8996104E-4,1.6553583E-2,1.3896807E-3,1.1403585E-3,4.2998674E-3,1.1701053E-3,3.1692965E-4,7.449819E-6,-8.0791296E-4,1.459538E-3,-1.02698235E-4,9.148374E-4,-5.7745236E-4,6.7398556E-5,-2.4810822E-3,-8.0847275E-4,-3.557292E-3,-2.3716306E-3,-5.891162E-4,7.5953074E-5,-1.1718292E-4,1.4538968E-4,1.6925683E-3,4.494899E-3,7.4001285E-4,-9.6810603E-4,-1.2952837E-4,-1.5427444E-4,-1.287342E-3,-9.5242955E-4,1.3892486E-4,-2.7319638E-3,-5.953316E-4,-2.3283307E-3,6.9198146E-4,9.131939E-4,-9.4548886E-4,5.03312E-4,1.9969286E-3,1.2468641E-3,-5.13968E-4],"categories":[],"categories_nodes":[],"categories_segments":[],"categories_sizes":[],"default_left":[0,0,0,0,0,0,0,0,0,0,0,0,0,0,0,0,0,0,0,0,0,0,0,0,0,0,0,0,0,0,0,0,0,0,0,0,0,0,0,0,0,0,0,0,0,0,0,0,0,0,0,0,0,0,0,0,0,0,0,0,0,0,0,0,0,0,0,0,0,0,0,0,0,0,0,0,0,0,0,0,0,0,0,0,0,0,0,0,0,0,0,0,0,0,0,0,0,0,0,0,0,0,0,0,0,0,0,0,0,0,0,0,0,0,0,0,0,0,0,0,0,0,0,0,0,0,0,0,0,0,0,0,0,0,0,0,0,0,0,0,0,0,0,0,0,0,0,0,0,0,0,0,0,0,0,0,0,0,0,0,0,0,0,0,0,0,0,0,0,0,0,0,0,0,0,0,0,0,0,0,0,0,0,0,0,0,0,0,0,0,0,0,0,0,0,0,0,0,0,0,0,0,0,0,0,0,0,0,0,0,0,0,0,0,0,0,0,0,0,0,0,0,0,0,0,0,0,0,0,0,0,0,0,0,0,0,0,0,0,0,0,0,0,0,0,0,0,0,0,0,0],"id":5,"left_children":[1,3,5,-1,7,-1,9,11,13,15,-1,-1,17,-1,-1,19,21,23,25,-1,27,29,31,33,35,37,39,-1,-1,41,43,-1,45,47,49,51,-1,53,55,57,59,61,-1,-1,-1,-1,-1,63,65,67,69,71,73,-1,-1,-1,75,77,-1,79,81,-1,-1,-1,83,85,87,89,91,93,95,97,-1,-1,-1,99,101,103,-1,-1,-1,-1,-1,-1,-1,105,107,109,111,-1,-1,-1,113,115,-1,-1,117,-1,-1,-1,119,121,123,125,-1,127,129,131,133,-1,-1,-1,-1,135,137,-1,-1,-1,-1,139,141,143,145,-1,-1,-1,-1,147,149,-1,151,153,155,157,159,161,163,165,167,169,171,173,175,177,179,-1,-1,181,183,-1,185,-1,-1,187,189,-1,191,-1,-1,193,195,197,199,201,203,-1,205,-1,207,-1,-1,-1,-1,-1,209,-1,-1,211,213,215,217,219,-1,221,223,225,227,-1,-1,229,-1,231,233,235,-1,-1,237,239,241,243,245,-1,-1,-1,-1,-1,-1,-1,-1,-1,-1,247,249,-1,-1,-1,-1,-1,-1,-1,-1,-1,-1,-1,-1,-1,-1,-1,-1,-1,-1,-1,-1,-1,-1,-1,-1,-1,-1,-1,-1,-1,-1,-1,-1,-1,-1,-1,-1,-1,-1],"loss_changes":[6.4933345E-2,5.465068E-2,5.2124027E-2,0E0,9.104973E-2,0E0,1.4513548E-2,2.0990858E-2,5.785376E-4,8.077943E-3,0E0,0E0,2.3995603E-2,0E0,0E0,6.324281E-4,4.581062E-3,1.606737E-2,1.7126886E-2,0E0,4.1902815E-5,1.6638646E-3,3.1534042E-3,1.4201495E-2,1.1007642E-2,1.2537445E-2,2.1767184E-2,0E0,0E0,4.647516E-4,2.0741578E-4,0E0,5.218964E-4,1.9332616E-2,8.686888E-3,2.4958488E-3,0E0,1.1269804E-3,8.2726E-3,6.15711E-3,1.0374948E-2,5.75117E-5,0E0,0E0,0E0,0E0,0E0,8.592356E-3,1.4458267E-2,1.1613157E-2,4.470939E-3,2.1833766E-4,2.393336E-5,0E0,0E0,0E0,5.1996987E-3,1.2704732E-3,0E0,3.2583717E-4,9.6128136E-4,0E0,0E0,0E0,2.2323057E-4,5.521767E-3,1.6132865E-2,7.557217E-4,7.0865043E-3,2.620179E-4,7.390538E-4,2.9074145E-6,0E0,0E0,0E0,1.8393027E-3,4.4630226E-3,2.2320727E-4,0E0,0E0,0E0,0E0,0E0,0E0,0E0,5.029378E-3,6.9387243E-3,1.8179126E-5,4.128555E-3,0E0,0E0,0E0,6.668183E-3,4.3130767E-6,0E0,0E0,2.8622919E-5,0E0,0E0,0E0,1.2576933E-3,6.280886E-3,4.049975E-4,1.3996541E-6,0E0,4.3160236E-3,7.9355086E-4,3.6500292E-3,3.4620066E-3,0E0,0E0,0E0,0E0,3.1659636E-3,3.8766786E-3,0E0,0E0,0E0,0E0,5.885379E-4,2.9604073E-4,2.1196865E-3,8.68245E-4,0E0,0E0,0E0,0E0,5.22133E-3,2.0696758E-3,0E0,4.3834785E-5,7.5888156E-4,2.054819E-3,1.9440427E-4,1.2829476E-3,2.4758927E-3,8.4145425E-4,3.1091383E-4,4.083831E-4,3.4440433E-5,4.5649474E-5,2.7554699E-5,1.3765984E-4,3.2200646E-3,6.660898E-4,0E0,0E0,3.6380857E-3,1.5800754E-3,0E0,3.0228617E-3,0E0,0E0,6.4207416E-5,6.6334906E-5,0E0,1.8454622E-3,0E0,0E0,2.9405812E-4,4.8712737E-4,1.8838798E-3,2.0570857E-3,1.0479192E-4,9.799423E-5,0E0,6.8949594E-6,0E0,5.434826E-5,0E0,0E0,0E0,0E0,0E0,3.104934E-6,0E0,0E0,1.7212825E-3,7.96644E-5,4.2848056E-5,5.6407298E-5,1.224555E-3,0E0,3.3961236E-4,6.2116655E-4,2.0393636E-4,1.1240584E-3,0E0,0E0,3.6734878E-6,0E0,2.1423952E-4,7.0852786E-4,3.973738E-5,0E0,0E0,1.5674866E-4,3.5793468E-4,1.3143262E-3,1.5470306E-3,8.322281E-4,0E0,0E0,0E0,0E0,0E0,0E0,0E0,0E0,0E0,0E0,1.9063689E-3,7.874701E-4,0E0,0E0,0E0,0E0,0E0,0E0,0E0,0E0,0E0,0E0,0E0,0E0,0E0,0E0,0E0,0E0,0E0,0E0,0E0,0E0,0E0,0E0,0E0,0E0,0E0,0E0,0E0,0E0,0E0,0E0,0E0,0E0,0E0,0E0,0E0,0E0,0E0,0E0],"parents":[2147483647,0,0,1,1,2,2,4,4,6,6,7,7,8,8,9,9,12,12,15,15,16,16,17,17,18,18,20,20,21,21,22,22,23,23,24,24,25,25,26,26,29,29,30,30,32,32,33,33,34,34,35,35,37,37,38,38,39,39,40,40,41,41,47,47,48,48,49,49,50,50,51,51,52,52,56,56,57,57,59,59,60,60,64,64,65,65,66,66,67,67,68,68,69,69,70,70,71,71,75,75,76,76,77,77,85,85,86,86,87,87,88,88,92,92,93,93,96,96,100,100,101,101,102,102,103,103,105,105,106,106,107,107,108,108,113,113,114,114,119,119,120,120,121,121,122,122,127,127,128,128,130,130,131,131,132,132,133,133,134,134,135,135,136,136,137,137,138,138,139,139,140,140,141,141,142,142,143,143,144,144,147,147,148,148,150,150,153,153,154,154,156,156,159,159,160,160,161,161,162,162,163,163,164,164,166,166,168,168,174,174,177,177,178,178,179,179,180,180,181,181,183,183,184,184,185,185,186,186,189,189,191,191,192,192,193,193,196,196,197,197,198,198,199,199,200,200,211,211,212,212],"right_children":[2,4,6,-1,8,-1,10,12,14,16,-1,-1,18,-1,-1,20,22,24,26,-1,28,30,32,34,36,38,40,-1,-1,42,44,-1,46,48,50,52,-1,54,56,58,60,62,-1,-1,-1,-1,-1,64,66,68,70,72,74,-1,-1,-1,76,78,-1,80,82,-1,-1,-1,84,86,88,90,92,94,96,98,-1,-1,-1,100,102,104,-1,-1,-1,-1,-1,-1,-1,106,108,110,112,-1,-1,-1,114,116,-1,-1,118,-1,-1,-1,120,122,124,126,-1,128,130,132,134,-1,-1,-1,-1,136,138,-1,-1,-1,-1,140,142,144,146,-1,-1,-1,-1,148,150,-1,152,154,156,158,160,162,164,166,168,170,172,174,176,178,180,-1,-1,182,184,-1,186,-1,-1,188,190,-1,192,-1,-1,194,196,198,200,202,204,-1,206,-1,208,-1,-1,-1,-1,-1,210,-1,-1,212,214,216,218,220,-1,222,224,226,228,-1,-1,230,-1,232,234,236,-1,-1,238,240,242,244,246,-1,-1,-1,-1,-1,-1,-1,-1,-1,-1,248,250,-1,-1,-1,-1,-1,-1,-1,-1,-1,-1,-1,-1,-1,-1,-1,-1,-1,-1,-1,-1,-1,-1,-1,-1,-1,-1,-1,-1,-1,-1,-1,-1,-1,-1,-1,-1,-1,-1],"split_conditions":[3.8318865E-2,5.0512624E-1,3.9543867E-2,1.3795997E-2,2.3297313E-1,-2.0064663E-2,5.5589505E-2,-1.684431E-1,-7.259922E-2,-6.350214E-2,-8.87958E-3,7.6413723E-3,4.4451762E-2,-3.4862657E-3,-1.29818665E-2,-9.561108E-3,4.922077E-3,1.0763066E-1,2.9194476E-2,3.4404078E-3,-8.575238E-4,4.0101603E-2,5.336736E-2,2.755993E-3,2.5138397E-2,-9.607383E-2,2.264901E-2,1.3892766E-5,8.209571E-4,6.45632E-3,1.9612217E-2,-1.5252527E-3,1.5023244E-2,-2.7908789E-2,3.0634003E-2,3.7881296E-2,-6.740267E-3,3.52384E-2,-3.0612027E-2,8.903098E-3,3.8318865E-2,2.3879534E-2,7.609212E-4,-2.669738E-3,-4.8289215E-4,-5.898926E-3,-1.3554271E-3,4.0579777E-2,4.9976364E-2,-1.352452E-1,9.565752E-3,5.952886E-3,-4.460963E-3,-1.3026276E-3,-5.346956E-3,-4.0736995E-3,2.517809E-3,4.4408284E-2,-4.7030435E-3,-1.5687684E-2,1.0146946E-1,-1.0073566E-3,-2.0937555E-4,7.752336E-3,-3.876722E-2,2.4754567E0,-2.3420274E-2,1.962551E-1,-5.1196728E-2,3.749036E-3,3.9739247E-2,-3.7895162E-3,-3.0594924E-4,-2.6955523E-3,-7.1782555E-4,1.0980974E-2,1.1020314E-1,1.0810916E-2,2.7723997E-3,1.19225464E-4,2.2653954E-3,9.516674E-3,3.5108682E-3,2.8706442E-3,1.0687711E-3,1E0,2.6668247E-2,-1.2802753E-3,-2.939726E-2,-2.4926343E-3,-5.0488235E-3,3.996829E-3,1.4698429E-2,-4.3645203E-3,-1.5318694E-3,4.093583E-3,1.4173628E-2,1.255278E-3,3.3609485E-4,-2.4720884E-3,8.15162E-4,3.9913464E-2,-5.33822E-2,-4.4899043E-3,7.6287054E-4,1.2925188E-2,1.9849382E-2,-1.3792152E-4,3.8087985E-4,-1.6126832E-3,-3.9840332E-4,6.2758004E-4,8.360647E-3,7.2927155E-2,2.8998146E-2,7.815562E-5,-1.318225E-4,3.9296495E-4,1.6483916E-3,-1.5568503E-3,3.125049E-5,2.519025E-2,1.280254E-5,3.1629443E-6,-2.317463E-3,-4.3711867E-4,-1.0338524E-4,1.0300257E0,9.432448E-4,3.2293336E-3,-1.675266E-2,-2.2767715E-3,-9.137763E-3,-3.7210358E-3,2.1604024E-2,-3.710916E-2,-4.393101E-3,2.3347365E-2,9.62703E-3,-5.6116395E-3,7.7519766E-3,-1.4184388E-2,1.307778E-2,5.366414E-2,7.017573E-3,5.981959E-3,2.240386E-3,4.848005E-3,2.1362789E-2,7.6441653E-4,1.6260521E-2,-2.5702004E-5,7.606942E-4,-5.099541E-3,5.087764E-4,-6.384429E-4,-3.7059956E-3,2.8570767E-3,5.1886943E-4,8.849949E-5,3.7740327E-2,1.1632167E-2,9.5345515E-1,-8.053327E-3,1.8202303E-3,4.3408593E-4,-4.3645203E-3,-1.206568E-3,1.4666524E-2,2.6843481E-4,-2.701982E-4,1.932795E-3,6.731302E-4,2.8921675E-4,9.9995E-5,-1.5721612E-3,-2.9989806E-4,1.8621555E-2,-1.2937459E-2,4.088703E-3,2.4038753E-2,6.289506E-5,2.8252804E-3,-3.3076652E-3,-1.1944479E-3,-7.259922E-2,-2.2033077E-2,1.8772943E-3,6.5407617E-4,-1.082488E-3,-7.853638E-4,5.75427E-3,4.3261122E-2,1.0462577E-3,-2.1943424E-3,7.7916397E-4,4.6978775E-2,2.9769428E-3,3.3978354E-2,1.9452427E-2,2.1978907E-2,-4.6054163E-4,5.6490954E-4,3.486357E-3,1.1659001E-3,-2.6986198E-4,-1.1070872E-3,-2.1547351E-3,-4.236195E-3,3.5631347E-6,-1.8996104E-4,-7.96817E-3,-1.2695071E-2,1.1403585E-3,4.2998674E-3,1.1701053E-3,3.1692965E-4,7.449819E-6,-8.0791296E-4,1.459538E-3,-1.02698235E-4,9.148374E-4,-5.7745236E-4,6.7398556E-5,-2.4810822E-3,-8.0847275E-4,-3.557292E-3,-2.3716306E-3,-5.891162E-4,7.5953074E-5,-1.1718292E-4,1.4538968E-4,1.6925683E-3,4.494899E-3,7.4001285E-4,-9.6810603E-4,-1.2952837E-4,-1.5427444E-4,-1.287342E-3,-9.5242955E-4,1.3892486E-4,-2.7319638E-3,-5.953316E-4,-2.3283307E-3,6.9198146E-4,9.131939E-4,-9.4548886E-4,5.03312E-4,1.9969286E-3,1.2468641E-3,-5.13968E-4],"split_indices":[32,88,12,0,62,0,43,62,0,87,0,0,63,0,0,0,30,14,65,0,0,21,32,2,79,35,18,0,0,2,3,0,0,27,37,13,0,4,3,2,7,6,0,0,0,0,0,14,70,56,39,0,0,0,0,0,75,19,0,0,9,0,0,0,0,84,32,86,27,1,37,0,0,0,0,83,20,20,0,0,0,0,0,0,0,85,22,1,0,0,0,0,77,0,0,0,1,0,0,0,74,80,0,0,0,76,62,41,19,0,0,0,0,43,83,0,0,0,0,1,24,28,25,0,0,0,0,88,70,0,0,2,3,2,19,63,0,5,14,2,6,0,6,18,33,0,0,35,83,0,13,0,0,0,5,0,42,0,0,41,22,69,88,0,0,0,0,0,64,0,0,0,0,0,7,0,0,38,3,1,4,11,0,0,70,0,26,0,0,0,0,0,19,1,0,0,5,68,14,4,24,0,0,0,0,0,0,0,0,0,0,27,2,0,0,0,0,0,0,0,0,0,0,0,0,0,0,0,0,0,0,0,0,0,0,0,0,0,0,0,0,0,0,0,0,0,0,0,0,0,0],"split_type":[0,0,0,0,0,0,0,0,0,0,0,0,0,0,0,0,0,0,0,0,0,0,0,0,0,0,0,0,0,0,0,0,0,0,0,0,0,0,0,0,0,0,0,0,0,0,0,0,0,0,0,0,0,0,0,0,0,0,0,0,0,0,0,0,0,0,0,0,0,0,0,0,0,0,0,0,0,0,0,0,0,0,0,0,0,0,0,0,0,0,0,0,0,0,0,0,0,0,0,0,0,0,0,0,0,0,0,0,0,0,0,0,0,0,0,0,0,0,0,0,0,0,0,0,0,0,0,0,0,0,0,0,0,0,0,0,0,0,0,0,0,0,0,0,0,0,0,0,0,0,0,0,0,0,0,0,0,0,0,0,0,0,0,0,0,0,0,0,0,0,0,0,0,0,0,0,0,0,0,0,0,0,0,0,0,0,0,0,0,0,0,0,0,0,0,0,0,0,0,0,0,0,0,0,0,0,0,0,0,0,0,0,0,0,0,0,0,0,0,0,0,0,0,0,0,0,0,0,0,0,0,0,0,0,0,0,0,0,0,0,0,0,0,0,0,0,0,0,0,0,0],"sum_hessian":[4.34E2,4.02E2,3.2E1,2E0,4E2,1E0,3.1E1,3.95E2,5E0,2.8E1,3E0,3E0,3.92E2,1E0,4E0,3E0,2.5E1,2.63E2,1.29E2,1E0,2E0,1.4E1,1.1E1,2.5E2,1.3E1,1.07E2,2.2E1,1E0,1E0,7E0,7E0,4E0,7E0,1.54E2,9.6E1,8E0,5E0,4E0,1.03E2,1E1,1.2E1,5E0,2E0,6E0,1E0,6E0,1E0,1E1,1.44E2,8.5E1,1.1E1,4E0,4E0,2E0,2E0,2E0,1.01E2,9E0,1E0,4E0,8E0,3E0,2E0,4E0,6E0,1.36E2,8E0,1.2E1,7.3E1,4E0,7E0,3E0,1E0,3E0,1E0,1.9E1,8.2E1,6E0,3E0,1E0,3E0,6E0,2E0,1E0,5E0,9.3E1,4.3E1,3E0,5E0,6E0,6E0,2E0,7.1E1,2E0,2E0,3E0,4E0,2E0,1E0,2E0,1.7E1,7.9E1,3E0,2E0,4E0,8.8E1,5E0,2.1E1,2.2E1,2E0,1E0,1E0,4E0,5.3E1,1.8E1,1E0,1E0,1E0,3E0,8E0,9E0,7.3E1,6E0,1E0,2E0,1E0,1E0,5.7E1,3.1E1,3E0,2E0,8E0,1.3E1,3E0,1.9E1,4.8E1,5E0,5E0,1.3E1,3E0,5E0,5E0,4E0,6.4E1,9E0,3E0,3E0,4E1,1.7E1,3E0,2.8E1,1E0,1E0,4E0,4E0,1E0,1.2E1,2E0,1E0,1E1,9E0,2.5E1,2.3E1,2E0,3E0,3E0,2E0,2E0,1.1E1,1E0,2E0,3E0,2E0,1E0,4E0,2E0,2E0,5.9E1,5E0,4E0,5E0,3.5E1,5E0,7E0,1E1,8E0,2E1,1E0,3E0,2E0,2E0,3E0,9E0,6E0,4E0,4E0,5E0,1.1E1,1.4E1,6E0,1.7E1,1E0,1E0,1E0,2E0,1E0,1E0,4E0,7E0,1E0,3E0,5E1,9E0,1E0,4E0,2E0,2E0,1E0,4E0,5E0,3E1,1E0,6E0,1E0,9E0,1E0,7E0,4E0,1.6E1,1E0,1E0,2E0,1E0,8E0,1E0,5E0,1E0,4E0,1E0,4E0,7E0,9E0,5E0,4E0,2E0,1.5E1,2E0,1.2E1,3.8E1,3E0,6E0],"tree_param":{"num_deleted":"0","num_feature":"89","num_nodes":"251","size_leaf_vector":"1"}},{"base_weights":[-2.2311362E-5,3.2112922E-3,-3.9510794E-2,1.2876264E-2,2.2639972E-3,-1.906143E-2,-2.8832113E-2,3.967848E-3,-1.1056749E-1,-2.0485627E-2,-8.213612E-3,6.413337E-2,3.1903086E-3,-3.3119523E-3,-1.1943317E-2,2.0307474E-2,-2.5973579E-2,8.954505E-3,3.539418E-3,-1.8420672E-3,1.3346651E-2,3.2683872E-3,5.2873828E-3,-1.3457806E-2,-3.945383E-2,-1.4438173E-4,-3.2026302E-2,8.366341E-3,3.6152165E-2,1.3198128E-5,7.799093E-4,-2.7286138E-3,-2.2504773E-2,-1.4032325E-3,-5.0410546E-2,4.7831524E-2,-1.1189148E-3,-6.2410436E-3,-8.211736E-3,-3.7237667E-2,1.0478396E-2,3.458494E-3,6.1035104E-2,-7.1891174E-3,7.101931E-3,-2.4409033E-3,-4.5874753E-4,-5.3933035E-3,-1.2876558E-3,7.030677E-3,9.412431E-3,3.8579225E-3,-1.1304545E-2,7.1441103E-3,-2.1925236E-3,-1.2157856E-3,-4.990492E-3,-1.4123899E-2,1.3245915E-2,1.2740126E-2,-4.467891E-3,1.721698E-2,7.859683E-2,-9.318047E-4,-1.9541716E-4,8.543422E-4,2.1094755E-4,1.5370961E-3,-1.2523137E-4,6.7693636E-2,2.6666722E-3,-1.5410989E-2,1.6228365E-2,1.0383397E-3,-2.906518E-4,-3.7083258E-3,-4.066265E-3,6.891311E-4,1.6210822E-2,3.5460673E-3,2.5644698E-3,1.13264185E-4,2.0954905E-3,8.700959E-3,3.2768105E-3,-2.4416904E-5,1.0178463E-2,2.8896457E-2,9.572237E-4,-7.86717E-3,-3.1855535E-2,-1.0351847E-2,2.7489925E-2,1.5306341E-3,-7.998452E-3,1.2181031E-2,-1.3433094E-2,1.4212065E-2,4.863545E-3,-3.4231914E-3,7.018409E-4,5.6714113E-3,8.872589E-3,-1.4868015E-3,2.2282617E-2,-1.5819886E-4,-2.0436637E-2,-1.6404206E-2,-4.1290745E-2,7.424785E-5,-1.4297449E-3,4.162709E-3,1.5839688E-2,-9.202442E-4,-1.2061328E-2,2.550131E-4,1.2889107E-3,2.5866742E-3,-2.1874092E-3,2.1322012E-2,5.8834944E-3,-4.1526274E-4,-9.8215976E-5,2.940655E-4,1.0657232E-3,2.6209191E-3,-1.3884847E-2,6.059377E-3,4.2275447E-2,2.35219E-2,-3.418964E-3,-8.118225E-3,-3.0711384E-2,8.491309E-4,-2.3919798E-3,-1.7779664E-3,-4.97646E-3,3.7331667E-4,1.7514359E-3,3.3849778E-6,-1.2495588E-4,-1.3627025E-3,-2.8992695E-4,4.8649195E-4,2.0561929E-5,3.8662255E-2,1.5599941E-2,1.5496458E-2,-1.2630743E-3,-4.278126E-3,9.095999E-3,-2.828595E-3,-1.0541799E-2,2.5704874E-2,-1.1321766E-2,5.96201E-4,4.733402E-3,9.2822727E-4,3.312039E-3,-1.1169499E-2,3.576439E-3,6.0786167E-3,-1.507096E-2,-1.2837357E-3,-3.3575222E-3,-2.563689E-4,2.8413007E-4,5.7881675E-3,1.9405596E-3,1.1394403E-2,3.1223949E-2,-1.096514E-3,1.813357E-2,-4.4235606E-3,1.9174364E-3,1.5076778E-2,-8.6797755E-3,2.4806682E-2,5.482895E-3,-6.664935E-4,-1.6224002E-2,7.563656E-4,2.8349264E-3,-1.8924609E-3,-2.7891928E-3,-1.0815212E-3,-1.6653763E-2,9.863111E-4,-2.4090963E-3,7.1387185E-4,1.4491557E-4,-3.1285387E-4,-1.9222221E-3,1.3619284E-2,1.7082511E-3,6.9800456E-4,3.4676723E-3,1.1663912E-4,-2.8111623E-4,2.0372486E-2,3.8796922E-4,-1.0776652E-2,-6.623914E-4,3.552496E-4,3.1475076E-3,-2.5725542E-4,-1.7019106E-3,2.236812E-4,3.415994E-3,-1.1635245E-3,8.341497E-4,-3.8297757E-4,6.617515E-4,-2.1063355E-3,-2.2281811E-4,-4.2182804E-4,7.4903444E-5,-4.272661E-4,7.4370886E-4,-1.9827383E-3,-3.6973957E-4,-9.778094E-4,1.0932021E-4,1.6389348E-3,3.962569E-4,6.9985224E-4,-2.686515E-4,7.924636E-4,2.225816E-3,-1.1835357E-3,-2.2122113E-4,-6.819888E-4,1.8668461E-4],"categories":[],"categories_nodes":[],"categories_segments":[],"categories_sizes":[],"default_left":[0,0,0,0,0,0,0,0,0,0,0,0,0,0,0,0,0,0,0,0,0,0,0,0,0,0,0,0,0,0,0,0,0,0,0,0,0,0,0,0,0,0,0,0,0,0,0,0,0,0,0,0,0,0,0,0,0,0,0,0,0,0,0,0,0,0,0,0,0,0,0,0,0,0,0,0,0,0,0,0,0,0,0,0,0,0,0,0,0,0,0,0,0,0,0,0,0,0,0,0,0,0,0,0,0,0,0,0,0,0,0,0,0,0,0,0,0,0,0,0,0,0,0,0,0,0,0,0,0,0,0,0,0,0,0,0,0,0,0,0,0,0,0,0,0,0,0,0,0,0,0,0,0,0,0,0,0,0,0,0,0,0,0,0,0,0,0,0,0,0,0,0,0,0,0,0,0,0,0,0,0,0,0,0,0,0,0,0,0,0,0,0,0,0,0,0,0,0,0,0,0,0,0,0,0,0,0,0,0,0,0,0,0,0,0,0,0,0,0,0,0,0,0,0,0,0,0,0,0,0,0,0,0],"id":6,"left_children":[1,3,5,-1,7,-1,9,11,13,15,-1,17,19,-1,-1,21,23,-1,-1,25,27,-1,29,31,33,35,37,39,41,-1,-1,43,45,-1,47,49,51,-1,53,55,57,59,61,63,65,-1,-1,-1,-1,-1,67,69,71,73,-1,-1,-1,75,77,79,-1,81,83,-1,-1,-1,-1,-1,-1,85,87,89,91,-1,-1,93,-1,95,97,99,-1,-1,-1,-1,-1,-1,-1,101,103,105,107,109,111,-1,113,115,117,119,-1,121,-1,-1,123,125,127,129,131,133,135,-1,-1,-1,137,139,141,-1,-1,143,-1,145,147,-1,-1,-1,-1,149,151,153,155,157,159,161,163,165,-1,-1,-1,-1,-1,-1,-1,-1,-1,-1,-1,167,169,171,173,175,177,-1,179,181,183,-1,-1,-1,-1,185,187,189,191,-1,-1,-1,-1,-1,-1,193,195,197,199,201,-1,203,205,207,209,211,213,-1,-1,-1,215,217,219,-1,221,-1,-1,-1,-1,223,225,-1,-1,-1,-1,227,-1,229,231,-1,-1,-1,-1,-1,-1,-1,-1,-1,-1,-1,-1,-1,-1,-1,-1,-1,-1,-1,-1,-1,-1,-1,-1,-1,-1,-1,-1,-1,-1],"loss_changes":[5.5672076E-2,4.7638953E-2,4.775252E-2,0E0,7.753017E-2,0E0,1.2554226E-2,1.8320696E-2,1.6420335E-4,7.019706E-3,0E0,4.821811E-4,2.0059912E-2,0E0,0E0,5.707665E-4,3.8556475E-3,0E0,0E0,1.34723745E-2,1.4462749E-2,0E0,3.7817284E-5,1.3945932E-3,2.635058E-3,1.1742046E-2,9.617693E-3,1.07925525E-2,1.8499749E-2,0E0,0E0,4.0185003E-4,1.6097771E-4,0E0,3.6323443E-4,3.6556348E-3,1.25139E-2,0E0,2.0518778E-3,9.817258E-4,7.268167E-3,5.4839454E-3,8.650582E-3,4.8659946E-5,3.5675912E-6,0E0,0E0,0E0,0E0,0E0,2.0988786E-4,1.244284E-2,9.408144E-3,1.929639E-4,0E0,0E0,0E0,2.8897892E-3,3.4884214E-3,1.0955159E-3,0E0,2.768758E-4,6.1877444E-4,0E0,0E0,0E0,0E0,0E0,0E0,6.9730533E-3,7.3258467E-3,8.5572675E-3,3.5772528E-3,0E0,0E0,8.5660483E-4,0E0,3.2471619E-3,4.234271E-3,1.934229E-4,0E0,0E0,0E0,0E0,0E0,0E0,0E0,5.0669694E-3,8.1116995E-3,4.8416504E-3,2.5299639E-3,1.8571073E-4,6.582504E-4,0E0,2.1896366E-4,4.214479E-5,1.2735865E-3,4.1972976E-3,0E0,1.2631826E-6,0E0,0E0,4.27654E-5,7.16627E-3,4.933413E-3,2.5513084E-3,2.155481E-3,1.3170016E-3,1.7051827E-3,0E0,0E0,0E0,5.6262594E-5,1.2990854E-6,3.22166E-5,0E0,0E0,2.069819E-5,0E0,3.266532E-3,2.4240627E-3,0E0,0E0,0E0,0E0,4.7741323E-3,1.3868404E-3,3.7056361E-3,1.0036537E-3,2.3928331E-4,1.6122723E-3,1.0786795E-3,8.086581E-5,3.4479875E-5,0E0,0E0,0E0,0E0,0E0,0E0,0E0,0E0,0E0,0E0,0E0,2.2076871E-3,1.6811504E-3,6.762466E-4,1.4412559E-3,4.560925E-3,2.986027E-3,0E0,1.6725913E-3,2.5438378E-5,3.3644657E-4,0E0,0E0,0E0,0E0,7.5654034E-4,6.2582677E-4,9.285679E-6,2.8689532E-4,0E0,0E0,0E0,0E0,0E0,0E0,5.37049E-4,2.6020687E-4,1.4919174E-5,3.3583306E-4,4.4686755E-4,0E0,1.7779709E-3,2.146213E-3,2.0346083E-3,2.3480167E-3,3.0184005E-4,1.2399503E-3,0E0,0E0,0E0,2.3385379E-5,1.948806E-4,2.9675756E-4,0E0,2.4296528E-4,0E0,0E0,0E0,0E0,4.9680006E-4,1.5829866E-4,0E0,0E0,0E0,0E0,8.1810635E-5,0E0,3.7288177E-5,2.151907E-4,0E0,0E0,0E0,0E0,0E0,0E0,0E0,0E0,0E0,0E0,0E0,0E0,0E0,0E0,0E0,0E0,0E0,0E0,0E0,0E0,0E0,0E0,0E0,0E0,0E0,0E0,0E0,0E0,0E0,0E0],"parents":[2147483647,0,0,1,1,2,2,4,4,6,6,7,7,8,8,9,9,11,11,12,12,15,15,16,16,19,19,20,20,22,22,23,23,24,24,25,25,26,26,27,27,28,28,31,31,32,32,34,34,35,35,36,36,38,38,39,39,40,40,41,41,42,42,43,43,44,44,50,50,51,51,52,52,53,53,57,57,58,58,59,59,61,61,62,62,69,69,70,70,71,71,72,72,75,75,77,77,78,78,79,79,87,87,88,88,89,89,90,90,91,91,92,92,94,94,95,95,96,96,97,97,99,99,102,102,103,103,104,104,105,105,106,106,107,107,108,108,112,112,113,113,114,114,117,117,119,119,120,120,125,125,126,126,127,127,128,128,129,129,130,130,131,131,132,132,133,133,145,145,146,146,147,147,148,148,149,149,150,150,152,152,153,153,154,154,159,159,160,160,161,161,162,162,169,169,170,170,171,171,172,172,173,173,175,175,176,176,177,177,178,178,179,179,180,180,184,184,185,185,186,186,188,188,193,193,194,194,199,199,201,201,202,202],"right_children":[2,4,6,-1,8,-1,10,12,14,16,-1,18,20,-1,-1,22,24,-1,-1,26,28,-1,30,32,34,36,38,40,42,-1,-1,44,46,-1,48,50,52,-1,54,56,58,60,62,64,66,-1,-1,-1,-1,-1,68,70,72,74,-1,-1,-1,76,78,80,-1,82,84,-1,-1,-1,-1,-1,-1,86,88,90,92,-1,-1,94,-1,96,98,100,-1,-1,-1,-1,-1,-1,-1,102,104,106,108,110,112,-1,114,116,118,120,-1,122,-1,-1,124,126,128,130,132,134,136,-1,-1,-1,138,140,142,-1,-1,144,-1,146,148,-1,-1,-1,-1,150,152,154,156,158,160,162,164,166,-1,-1,-1,-1,-1,-1,-1,-1,-1,-1,-1,168,170,172,174,176,178,-1,180,182,184,-1,-1,-1,-1,186,188,190,192,-1,-1,-1,-1,-1,-1,194,196,198,200,202,-1,204,206,208,210,212,214,-1,-1,-1,216,218,220,-1,222,-1,-1,-1,-1,224,226,-1,-1,-1,-1,228,-1,230,232,-1,-1,-1,-1,-1,-1,-1,-1,-1,-1,-1,-1,-1,-1,-1,-1,-1,-1,-1,-1,-1,-1,-1,-1,-1,-1,-1,-1,-1,-1],"split_conditions":[3.8318865E-2,5.0512624E-1,3.9543867E-2,1.2876264E-2,2.3297313E-1,-1.906143E-2,5.5589505E-2,-1.2938185E-1,-7.259922E-2,-6.350214E-2,-8.213612E-3,3.738753E-2,4.4451762E-2,-3.3119523E-3,-1.1943317E-2,-9.561108E-3,4.922077E-3,8.954505E-3,3.539418E-3,1.0763066E-1,2.9194476E-2,3.2683872E-3,-8.575238E-4,4.0101603E-2,5.336736E-2,-5.1196728E-2,2.7555188E-2,-9.607383E-2,2.264901E-2,1.3198128E-5,7.799093E-4,6.45632E-3,1.9612217E-2,-1.4032325E-3,1.5023244E-2,6.8911705E-3,3.5702814E-3,-6.2410436E-3,6.4021856E-2,3.52384E-2,2.9134698E-4,8.903098E-3,3.8318865E-2,2.3879534E-2,7.753485E-4,-2.4409033E-3,-4.5874753E-4,-5.3933035E-3,-1.2876558E-3,7.030677E-3,-8.464249E-3,0E0,3.0634003E-2,5.952886E-3,-2.1925236E-3,-1.2157856E-3,-4.990492E-3,1.6918565E-3,1.3592592E-1,4.4408284E-2,-4.467891E-3,-1.5687684E-2,1.0146946E-1,-9.318047E-4,-1.9541716E-4,8.543422E-4,2.1094755E-4,1.5370961E-3,-1.2523137E-4,-1.675266E-2,-2.7908789E-2,1.557786E-2,9.565752E-3,1.0383397E-3,-2.906518E-4,-6.055701E-3,-4.066265E-3,8.991695E-3,5.1329624E-2,1.0810916E-2,2.5644698E-3,1.13264185E-4,2.0954905E-3,8.700959E-3,3.2768105E-3,-2.4416904E-5,1.0178463E-2,1.90478E-5,2.4374938E-2,3.5515632E-2,4.7729053E-3,-4.3645203E-3,-8.464249E-3,1.5306341E-3,1.09057204E-4,-4.114736E-3,1.4139303E-2,1.0509511E-2,4.863545E-3,-4.4899043E-3,7.018409E-4,5.6714113E-3,-8.724468E-3,1.5332009E-2,5.1804412E-2,-8.186409E-2,3.4993075E-2,2.8103778E-2,-1.6529301E-2,7.424785E-5,-1.4297449E-3,4.162709E-3,1.4173628E-2,-4.051765E-4,-3.0997977E-5,2.550131E-4,1.2889107E-3,-1.1834607E-2,-2.1874092E-3,-1.6029926E-3,-5.0730873E-3,-4.1526274E-4,-9.8215976E-5,2.940655E-4,1.0657232E-3,-1.51556E-3,-1.5709955E-1,1.3730193E-2,-2.939726E-2,2.3001507E-3,6.527176E-3,-1.3698844E-2,-2.450852E-2,-6.1415015E-3,-2.3919798E-3,-1.7779664E-3,-4.97646E-3,3.7331667E-4,1.7514359E-3,3.3849778E-6,-1.2495588E-4,-1.3627025E-3,-2.8992695E-4,4.8649195E-4,2.0561929E-5,7.5602545E-3,1.0276542E-1,1.2294424E-2,3.4702636E-2,3.1428573E-1,-7.443746E-2,-2.828595E-3,-4.9345873E-2,-1.49888955E-2,1.7861834E-2,5.96201E-4,4.733402E-3,9.2822727E-4,3.312039E-3,2.7772377E-4,2.1277398E-2,1.2955641E-2,8.31357E-3,-1.2837357E-3,-3.3575222E-3,-2.563689E-4,2.8413007E-4,5.7881675E-3,1.9405596E-3,5.3711896E0,-1.6924534E-2,6.8386784E-3,9.192677E-3,-3.755873E-3,1.9174364E-3,2.4625048E-2,1.4095933E-2,-2.0629191E-4,-5.5336833E-2,4.0579777E-2,2.1739986E-2,7.563656E-4,2.8349264E-3,-1.8924609E-3,-2.8019818E-3,-4.1343406E-5,1.5504187E-2,9.863111E-4,3.246806E-5,7.1387185E-4,1.4491557E-4,-3.1285387E-4,-1.9222221E-3,3.8468937E-4,-1.9900661E-3,6.9800456E-4,3.4676723E-3,1.1663912E-4,-2.8111623E-4,1.424554E-2,3.8796922E-4,9.513455E-3,-1.4718172E-2,3.552496E-4,3.1475076E-3,-2.5725542E-4,-1.7019106E-3,2.236812E-4,3.415994E-3,-1.1635245E-3,8.341497E-4,-3.8297757E-4,6.617515E-4,-2.1063355E-3,-2.2281811E-4,-4.2182804E-4,7.4903444E-5,-4.272661E-4,7.4370886E-4,-1.9827383E-3,-3.6973957E-4,-9.778094E-4,1.0932021E-4,1.6389348E-3,3.962569E-4,6.9985224E-4,-2.686515E-4,7.924636E-4,2.225816E-3,-1.1835357E-3,-2.2122113E-4,-6.819888E-4,1.8668461E-4],"split_indices":[32,88,12,0,62,0,43,63,0,87,0,4,63,0,0,0,30,0,0,14,65,0,0,21,32,27,5,35,18,0,0,2,3,0,0,2,2,0,18,4,65,2,7,6,0,0,0,0,0,0,0,73,37,0,0,0,0,68,86,19,0,0,9,0,0,0,0,0,0,0,27,77,39,0,0,24,0,82,76,20,0,0,0,0,0,0,0,34,35,21,31,0,3,0,9,0,16,69,0,0,0,0,3,76,13,63,8,6,32,0,0,0,1,1,0,0,0,0,0,32,33,0,0,0,0,2,50,4,0,1,76,35,35,3,0,0,0,0,0,0,0,0,0,0,0,75,58,10,0,87,54,0,62,0,82,0,0,0,0,17,17,0,0,0,0,0,0,0,0,84,3,0,1,35,0,13,82,41,53,19,4,0,0,0,2,1,14,0,30,0,0,0,0,42,3,0,0,0,0,69,0,3,25,0,0,0,0,0,0,0,0,0,0,0,0,0,0,0,0,0,0,0,0,0,0,0,0,0,0,0,0,0,0],"split_type":[0,0,0,0,0,0,0,0,0,0,0,0,0,0,0,0,0,0,0,0,0,0,0,0,0,0,0,0,0,0,0,0,0,0,0,0,0,0,0,0,0,0,0,0,0,0,0,0,0,0,0,0,0,0,0,0,0,0,0,0,0,0,0,0,0,0,0,0,0,0,0,0,0,0,0,0,0,0,0,0,0,0,0,0,0,0,0,0,0,0,0,0,0,0,0,0,0,0,0,0,0,0,0,0,0,0,0,0,0,0,0,0,0,0,0,0,0,0,0,0,0,0,0,0,0,0,0,0,0,0,0,0,0,0,0,0,0,0,0,0,0,0,0,0,0,0,0,0,0,0,0,0,0,0,0,0,0,0,0,0,0,0,0,0,0,0,0,0,0,0,0,0,0,0,0,0,0,0,0,0,0,0,0,0,0,0,0,0,0,0,0,0,0,0,0,0,0,0,0,0,0,0,0,0,0,0,0,0,0,0,0,0,0,0,0,0,0,0,0,0,0,0,0,0,0,0,0,0,0,0,0,0,0],"sum_hessian":[4.34E2,4.02E2,3.2E1,2E0,4E2,1E0,3.1E1,3.95E2,5E0,2.8E1,3E0,4E0,3.91E2,1E0,4E0,3E0,2.5E1,1E0,3E0,2.62E2,1.29E2,1E0,2E0,1.4E1,1.1E1,2.49E2,1.3E1,1.07E2,2.2E1,1E0,1E0,7E0,7E0,4E0,7E0,4E0,2.45E2,5E0,8E0,4E0,1.03E2,1E1,1.2E1,5E0,2E0,6E0,1E0,6E0,1E0,2E0,2E0,1.65E2,8E1,4E0,4E0,2E0,2E0,1E1,9.3E1,9E0,1E0,4E0,8E0,3E0,2E0,1E0,1E0,1E0,1E0,2E0,1.63E2,7E1,1E1,3E0,1E0,8E0,2E0,1.8E1,7.5E1,6E0,3E0,1E0,3E0,6E0,2E0,1E0,1E0,9E0,1.54E2,4.9E1,2.1E1,3E0,7E0,1E0,7E0,1E1,8E0,7.2E1,3E0,2E0,4E0,3E0,6E0,1.39E2,1.5E1,3.1E1,1.8E1,9E0,1.2E1,1E0,2E0,2E0,5E0,3E0,4E0,1E0,9E0,3E0,5E0,3.8E1,3.4E1,1E0,1E0,2E0,4E0,1.05E2,3.4E1,9E0,6E0,3E0,2.8E1,9E0,9E0,3E0,6E0,4E0,8E0,1E0,4E0,1E0,2E0,3E0,1E0,1E0,2E0,8E0,3E1,1.4E1,2E1,5.1E1,5.4E1,5E0,2.9E1,4E0,5E0,1E0,5E0,2E0,1E0,1.3E1,1.5E1,3E0,6E0,2E0,7E0,1E0,2E0,3E0,5E0,2.5E1,5E0,2E0,1.2E1,1.8E1,2E0,9E0,4.2E1,9E0,4.5E1,1.1E1,1.8E1,1E0,3E0,2E0,3E0,5E0,8E0,7E0,8E0,2E0,1E0,2E0,4E0,2E1,5E0,1E0,4E0,1E0,1E0,1E1,2E0,6E0,1.2E1,6E0,3E0,2.5E1,1.7E1,3E0,6E0,6E0,3.9E1,8E0,3E0,1.3E1,5E0,