{"learner":{"attributes":{"scikit_learn":"{\"_estimator_type\": \"classifier\"}"},"feature_names":[],"feature_types":[],"gradient_booster":{"model":{"cats":{"enc":[],"feature_segments":[],"sorted_idx":[]},"gbtree_model_param":{"num_parallel_tree":"1","num_trees":"100"},"iteration_indptr":[0,1,2,3,4,5,6,7,8,9,10,11,12,13,14,15,16,17,18,19,20,21,22,23,24,25,26,27,28,29,30,31,32,33,34,35,36,37,38,39,40,41,42,43,44,45,46,47,48,49,50,51,52,53,54,55,56,57,58,59,60,61,62,63,64,65,66,67,68,69,70,71,72,73,74,75,76,77,78,79,80,81,82,83,84,85,86,87,88,89,90,91,92,93,94,95,96,97,98,99,100],"tree_info":[0,0,0,0,0,0,0,0,0,0,0,0,0,0,0,0,0,0,0,0,0,0,0,0,0,0,0,0,0,0,0,0,0,0,0,0,0,0,0,0,0,0,0,0,0,0,0,0,0,0,0,0,0,0,0,0,0,0,0,0,0,0,0,0,0,0,0,0,0,0,0,0,0,0,0,0,0,0,0,0,0,0,0,0,0,0,0,0,0,0,0,0,0,0,0,0,0,0,0,0],"trees":[{"base_weights":[-5.993166E-8,1.8943228E-1,-5.8025706E-1,-1.7820045E-1,4.9070516E-1,-7.463978E-1,5.942112E-1,1.2763141E-1,-1.0578325E0,9.8071486E-1,1.844158E-1,-1.933425E-1,-1.2441523E0,1.1289058E-1,-2.0461421E-2,-6.821774E-1,4.5123547E-1,5.657473E-2,-1.5445514E-1,1.1994408E0,-3.122218E-2,-2.8900355E-1,1.0030757E0,-1.3628751E-1,2.5049698E-1,-1.5017345E0,-2.6308593E-1,3.5455685E-2,-1.1044397E-1,6.7709796E-2,-9.790005E-2,-2.0461421E-2,1.3627486E-1,3.7227567E-2,-6.985728E-2,1.2047496E-1,-2.0461421E-2,1.16574265E-1,-2.8089022E-2,-1.6770208E-1,-5.2533682E-2,6.8439916E-2,-1.0936276E-1],"categories":[],"categories_nodes":[],"categories_segments":[],"categories_sizes":[],"default_left":[0,0,0,0,0,0,0,0,0,0,0,0,0,0,0,0,0,0,0,0,0,0,0,0,0,0,0,0,0,0,0,0,0,0,0,0,0,0,0,0,0,0,0],"id":0,"left_children":[1,3,5,7,9,11,13,15,17,19,21,23,25,-1,-1,27,29,-1,-1,31,-1,33,35,-1,37,39,41,-1,-1,-1,-1,-1,-1,-1,-1,-1,-1,-1,-1,-1,-1,-1,-1],"loss_changes":[1.0604609E1,8.143069E0,5.0766654E0,9.144963E0,5.858568E0,5.607868E0,1.7256677E0,7.054167E0,7.786765E0,4.686158E0,1.0364257E1,6.1797585E0,2.384037E0,0E0,0E0,3.7835894E0,6.7991095E0,0E0,0E0,3.3162613E0,0E0,4.930936E0,2.620677E0,0E0,4.7036133E0,5.7344437E-1,3.502222E0,0E0,0E0,0E0,0E0,0E0,0E0,0E0,0E0,0E0,0E0,0E0,0E0,0E0,0E0,0E0,0E0],"parents":[2147483647,0,0,1,1,2,2,3,3,4,4,5,5,6,6,7,7,8,8,9,9,10,10,11,11,12,12,15,15,16,16,19,19,21,21,22,22,24,24,25,25,26,26],"right_children":[2,4,6,8,10,12,14,16,18,20,22,24,26,-1,-1,28,30,-1,-1,32,-1,34,36,-1,38,40,42,-1,-1,-1,-1,-1,-1,-1,-1,-1,-1,-1,-1,-1,-1,-1,-1],"split_conditions":[9.898818E-3,-1.2942699E-3,4.197854E-2,-3.391894E-3,1.3201368E-3,2.8972289E-2,3.2063115E-2,-4.274874E-3,-2.3416353E-2,2.3187432E-3,5.6025395E-3,-1.0212091E-2,3.9113387E-2,1.1289058E-1,-2.0461421E-2,-5.257696E-3,1.9114217E-2,5.657473E-2,-1.5445514E-1,-4.263786E-3,-3.122218E-2,3.009241E-3,2.1423355E-2,-1.3628751E-1,-4.8664995E-3,1.4074359E-2,1.0714624E-3,3.5455685E-2,-1.1044397E-1,6.7709796E-2,-9.790005E-2,-2.0461421E-2,1.3627486E-1,3.7227567E-2,-6.985728E-2,1.2047496E-1,-2.0461421E-2,1.16574265E-1,-2.8089022E-2,-1.6770208E-1,-5.2533682E-2,6.8439916E-2,-1.0936276E-1],"split_indices":[6,6,9,6,6,8,2,3,8,2,6,4,9,0,0,4,0,0,0,2,0,6,0,0,0,7,4,0,0,0,0,0,0,0,0,0,0,0,0,0,0,0,0],"split_type":[0,0,0,0,0,0,0,0,0,0,0,0,0,0,0,0,0,0,0,0,0,0,0,0,0,0,0,0,0,0,0,0,0,0,0,0,0,0,0,0,0,0,0],"sum_hessian":[9.447619E1,7.173192E1,2.2744267E1,3.249181E1,3.924011E1,2.0244896E1,2.49937E0,2.4743763E1,7.748047E0,1.4246408E1,2.49937E1,1.02474165E1,9.99748E0,1.249685E0,1.249685E0,6.748299E0,1.7995464E1,1.7495589E0,5.998488E0,1.2246913E1,1.999496E0,1.6245905E1,8.747795E0,2.249433E0,7.997984E0,7.49811E0,2.49937E0,1.999496E0,4.748803E0,1.5995968E1,1.999496E0,1.249685E0,1.0997228E1,6.248425E0,9.99748E0,7.49811E0,1.249685E0,2.49937E0,5.498614E0,5.748551E0,1.7495589E0,1.249685E0,1.249685E0],"tree_param":{"num_deleted":"0","num_feature":"13","num_nodes":"43","size_leaf_vector":"1"}},{"base_weights":[-2.9034133E-3,1.7006832E-1,-5.335437E-1,-4.6283725E-1,3.220407E-1,-6.8933094E-1,5.615738E-1,7.446006E-1,-8.433693E-1,4.3715292E-1,-6.3921034E-1,-1.7868805E-1,-1.1505316E0,1.0670318E-1,-1.932964E-2,-2.3022393E-2,1.2718569E-1,-1.2900876E0,-4.557227E-3,-3.9671737E-1,5.6098026E-1,4.5905147E-2,-1.290779E-1,-1.274756E-1,2.3547642E-1,-1.3873714E0,-2.4897446E-1,-3.8578507E-2,-1.4518413E-1,9.542766E-2,-9.625814E-2,-9.846003E-2,2.1399342E-2,8.580618E-2,1.522996E-2,7.700289E-2,-5.428622E-2,-1.5473847E-1,-4.9240794E-2,6.4640574E-2,-1.0357006E-1],"categories":[],"categories_nodes":[],"categories_segments":[],"categories_sizes":[],"default_left":[0,0,0,0,0,0,0,0,0,0,0,0,0,0,0,0,0,0,0,0,0,0,0,0,0,0,0,0,0,0,0,0,0,0,0,0,0,0,0,0,0],"id":1,"left_children":[1,3,5,7,9,11,13,15,17,19,21,23,25,-1,-1,-1,-1,27,29,31,33,-1,-1,-1,35,37,39,-1,-1,-1,-1,-1,-1,-1,-1,-1,-1,-1,-1,-1,-1],"loss_changes":[8.832567E0,7.130706E0,4.4228373E0,7.274127E0,6.8213224E0,4.7773676E0,1.5405871E0,2.3473928E0,4.291135E0,5.7356462E0,5.4076962E0,5.3956914E0,1.9891443E0,0E0,0E0,0E0,0E0,5.338888E-1,5.5009036E0,2.8995354E0,5.5639153E0,0E0,0E0,0E0,4.158669E0,4.4672585E-1,3.1302843E0,0E0,0E0,0E0,0E0,0E0,0E0,0E0,0E0,0E0,0E0,0E0,0E0,0E0,0E0],"parents":[2147483647,0,0,1,1,2,2,3,3,4,4,5,5,6,6,7,7,8,8,9,9,10,10,11,11,12,12,17,17,18,18,19,19,20,20,24,24,25,25,26,26],"right_children":[2,4,6,8,10,12,14,16,18,20,22,24,26,-1,-1,-1,-1,28,30,32,34,-1,-1,-1,36,38,40,-1,-1,-1,-1,-1,-1,-1,-1,-1,-1,-1,-1,-1,-1],"split_conditions":[9.898818E-3,1.19162336E-1,4.197854E-2,-9.467089E-3,3.4863096E-1,2.8972289E-2,3.2063115E-2,-3.9518796E-2,5.2694236E-3,-1.2429258E-2,9.221268E-3,-1.0212091E-2,3.9113387E-2,1.0670318E-1,-1.932964E-2,-2.3022393E-2,1.2718569E-1,-9.121489E-3,1.7244963E-3,-1.0830942E-3,2.2084513E-3,4.5905147E-2,-1.290779E-1,-1.274756E-1,-8.926959E-4,1.4074359E-2,1.0714624E-3,-3.8578507E-2,-1.4518413E-1,9.542766E-2,-9.625814E-2,-9.846003E-2,2.1399342E-2,8.580618E-2,1.522996E-2,7.700289E-2,-5.428622E-2,-1.5473847E-1,-4.9240794E-2,6.4640574E-2,-1.0357006E-1],"split_indices":[6,10,9,0,10,8,2,8,9,4,8,4,9,0,0,0,0,5,0,5,7,0,0,0,0,7,4,0,0,0,0,0,0,0,0,0,0,0,0,0,0],"split_type":[0,0,0,0,0,0,0,0,0,0,0,0,0,0,0,0,0,0,0,0,0,0,0,0,0,0,0,0,0,0,0,0,0,0,0,0,0,0,0,0,0],"sum_hessian":[9.4241646E1,7.15863E1,2.2655338E1,1.3464865E1,5.8121437E1,2.0158245E1,2.4970932E0,2.9973764E0,1.0467488E1,5.239253E1,5.728912E0,1.022478E1,9.933466E0,1.2479447E0,1.2491486E0,1.249878E0,1.7474985E0,6.4790225E0,3.9884655E0,6.4892464E0,4.5903282E1,2.243244E0,3.485668E0,2.2341917E0,7.990588E0,7.4400883E0,2.4933774E0,1.4966794E0,4.982343E0,1.9953455E0,1.9931201E0,2.9944787E0,3.4947677E0,2.5944149E1,1.9959131E1,4.7434955E0,3.2470925E0,5.6931925E0,1.7468958E0,1.2495794E0,1.243798E0],"tree_param":{"num_deleted":"0","num_feature":"13","num_nodes":"41","size_leaf_vector":"1"}},{"base_weights":[-6.982378E-3,-2.535465E-1,3.3002543E-1,1.5733142E-1,-5.819648E-1,5.261494E-1,-3.2724947E-1,-1.1849047E-1,3.0587277E-1,-1.353783E-1,-3.3487716E-1,-4.13152E-1,7.379079E-1,3.9555138E-1,-8.7941897E-1,-1.07354656E-1,4.30523E-1,7.9596736E-2,-7.39808E-1,5.1895972E-2,-8.6709964E-1,-6.4152874E-2,8.784714E-1,1.0196831E-1,-3.6046464E-2,-1.1712237E-1,-1.1040413E-2,-3.0857533E-2,6.31727E-2,-3.7628397E-2,8.419642E-2,6.1193507E-2,-1.0499716E-1,-1.3351241E-1,2.4822425E-2,1.1476185E-1,-3.416295E-3],"categories":[],"categories_nodes":[],"categories_segments":[],"categories_sizes":[],"default_left":[0,0,0,0,0,0,0,0,0,0,0,0,0,0,0,0,0,0,0,0,0,0,0,0,0,0,0,0,0,0,0,0,0,0,0,0,0],"id":2,"left_children":[1,3,5,7,9,11,13,-1,15,-1,17,19,21,23,25,-1,27,29,31,-1,33,-1,35,-1,-1,-1,-1,-1,-1,-1,-1,-1,-1,-1,-1,-1,-1],"loss_changes":[7.9677434E0,7.5616465E0,5.395845E0,5.422475E0,5.4546337E0,6.5889482E0,4.3107014E0,0E0,4.5278664E0,0E0,4.2203946E0,3.180551E0,5.6320934E0,2.7220879E0,1.2034812E0,0E0,3.5259385E0,4.889242E0,5.9416733E0,0E0,2.7921956E0,0E0,5.9699764E0,0E0,0E0,0E0,0E0,0E0,0E0,0E0,0E0,0E0,0E0,0E0,0E0,0E0,0E0],"parents":[2147483647,0,0,1,1,2,2,3,3,4,4,5,5,6,6,8,8,10,10,11,11,12,12,13,13,14,14,16,16,17,17,18,18,20,20,22,22],"right_children":[2,4,6,8,10,12,14,-1,16,-1,18,20,22,24,26,-1,28,30,32,-1,34,-1,36,-1,-1,-1,-1,-1,-1,-1,-1,-1,-1,-1,-1,-1,-1],"split_conditions":[2.0808592E0,1.6472394E-3,1.6254377E-2,-2.6451806E-2,-4.2472663E-3,-5.9866384E-3,1.8346366E-2,-1.1849047E-1,-5.1995147E-2,-1.353783E-1,1.3114801E-3,-5.257696E-3,-2.4699548E-2,6.9837616E-4,4.2997397E-2,-1.07354656E-1,-1.229867E-2,-2.4851067E-3,1.1062525E-2,5.1895972E-2,5.6025395E-3,-6.4152874E-2,6.5403056E0,1.0196831E-1,-3.6046464E-2,-1.1712237E-1,-1.1040413E-2,-3.0857533E-2,6.31727E-2,-3.7628397E-2,8.419642E-2,6.1193507E-2,-1.0499716E-1,-1.3351241E-1,2.4822425E-2,1.1476185E-1,-3.416295E-3],"split_indices":[11,9,0,7,1,7,9,0,9,0,3,4,4,5,0,0,4,3,9,0,6,0,12,0,0,0,0,0,0,0,0,0,0,0,0,0,0],"split_type":[0,0,0,0,0,0,0,0,0,0,0,0,0,0,0,0,0,0,0,0,0,0,0,0,0,0,0,0,0,0,0,0,0,0,0,0,0],"sum_hessian":[9.388125E1,5.4358635E1,3.952261E1,2.4379208E1,2.9979427E1,3.0593369E1,8.929243E0,1.7339658E0,2.2645243E1,6.1839375E0,2.3795488E1,5.4532456E0,2.5140123E1,3.9899542E0,4.9392886E0,1.2458456E0,2.1399397E1,1.2156217E1,1.1639272E1,1.7390857E0,3.71416E0,1.9952747E0,2.3144848E1,1.9945709E0,1.9953835E0,3.2014656E0,1.7378229E0,4.4648123E0,1.6934586E1,7.924155E0,4.232062E0,1.9906689E0,9.648603E0,2.4774659E0,1.2366941E0,1.7674839E1,5.4700084E0],"tree_param":{"num_deleted":"0","num_feature":"13","num_nodes":"37","size_leaf_vector":"1"}},{"base_weights":[-1.0618095E-2,-2.3543274E-1,2.9678592E-1,1.3433519E-1,-5.3184587E-1,4.7574097E-1,-3.0243015E-1,-1.1187656E-1,2.7273235E-1,-1.251559E-1,-3.029864E-1,-3.8312274E-1,6.6927E-1,-7.4355465E-1,5.3735447E-1,-1.0179112E-1,3.897117E-1,7.5334415E-2,-6.749828E-1,1.5334368E-1,-1.1623838E-1,-7.398446E-2,7.851639E-1,2.2275835E-2,-1.1756348E-1,1.1756843E-1,-3.197185E-2,-2.8367797E-2,5.7333995E-2,-3.4345876E-2,7.756267E-2,5.7260927E-2,-9.636905E-2,-4.6338003E-2,1.03428714E-1,1.0211873E-1,-3.1272874E-3,3.0002087E-2,-2.6364053E-2],"categories":[],"categories_nodes":[],"categories_segments":[],"categories_sizes":[],"default_left":[0,0,0,0,0,0,0,0,0,0,0,0,0,0,0,0,0,0,0,0,0,0,0,0,0,0,0,0,0,0,0,0,0,0,0,0,0,0,0],"id":3,"left_children":[1,3,5,7,9,11,13,-1,15,-1,17,19,21,23,25,-1,27,29,31,33,-1,-1,35,37,-1,-1,-1,-1,-1,-1,-1,-1,-1,-1,-1,-1,-1,-1,-1],"loss_changes":[6.5936613E0,6.1085815E0,4.467214E0,4.693908E0,4.689822E0,5.4812555E0,4.0607357E0,0E0,3.958805E0,0E0,3.5226607E0,2.8606565E0,4.829796E0,2.309073E0,2.5555503E0,0E0,2.927027E0,4.117215E0,5.068245E0,3.023941E0,0E0,0E0,4.7579784E0,3.546444E-1,0E0,0E0,0E0,0E0,0E0,0E0,0E0,0E0,0E0,0E0,0E0,0E0,0E0,0E0,0E0],"parents":[2147483647,0,0,1,1,2,2,3,3,4,4,5,5,6,6,8,8,10,10,11,11,12,12,13,13,14,14,16,16,17,17,18,18,19,19,22,22,23,23],"right_children":[2,4,6,8,10,12,14,-1,16,-1,18,20,22,24,26,-1,28,30,32,34,-1,-1,36,38,-1,-1,-1,-1,-1,-1,-1,-1,-1,-1,-1,-1,-1,-1,-1],"split_conditions":[2.0808592E0,1.6472394E-3,1.6254377E-2,-2.6451806E-2,-4.2472663E-3,-5.9866384E-3,4.2997397E-2,-1.1187656E-1,-5.1995147E-2,-1.251559E-1,1.3114801E-3,6.5361614E-6,-3.183569E-2,2.295233E-2,2.4212517E-2,-1.0179112E-1,-1.229867E-2,-2.4851067E-3,1.1062525E-2,-4.0827785E-3,-1.1623838E-1,-7.398446E-2,6.5403056E0,4.22429E0,-1.1756348E-1,1.1756843E-1,-3.197185E-2,-2.8367797E-2,5.7333995E-2,-3.4345876E-2,7.756267E-2,5.7260927E-2,-9.636905E-2,-4.6338003E-2,1.03428714E-1,1.0211873E-1,-3.1272874E-3,3.0002087E-2,-2.6364053E-2],"split_indices":[11,9,0,7,1,7,0,0,9,0,3,2,4,0,9,0,4,3,9,2,0,0,12,11,0,0,0,0,0,0,0,0,0,0,0,0,0,0,0],"split_type":[0,0,0,0,0,0,0,0,0,0,0,0,0,0,0,0,0,0,0,0,0,0,0,0,0,0,0,0,0,0,0,0,0,0,0,0,0,0,0],"sum_hessian":[9.3398636E1,5.4081318E1,3.9317314E1,2.430644E1,2.9774878E1,3.0434235E1,8.8830805E0,1.712955E0,2.2593485E1,6.1055565E0,2.3669321E1,5.416527E0,2.5017708E1,5.8990164E0,2.9840639E0,1.2375757E0,2.135591E1,1.2130288E1,1.1539033E1,3.6837459E0,1.7327809E0,1.4920903E0,2.3525618E1,2.4698436E0,3.429173E0,1.4972212E0,1.4868425E0,4.459065E0,1.6896845E1,7.9096556E0,4.220632E0,1.9836661E0,9.5553665E0,2.445627E0,1.2381189E0,1.8055246E1,5.4703712E0,1.2278013E0,1.2420423E0],"tree_param":{"num_deleted":"0","num_feature":"13","num_nodes":"39","size_leaf_vector":"1"}},{"base_weights":[-1.364034E-2,-2.1931951E-1,2.678016E-1,1.1409144E-1,-4.8773035E-1,8.235278E-2,8.081792E-1,-1.06051125E-1,2.4327931E-1,-1.16447024E-1,-2.7473772E-1,2.411464E-1,-8.138033E-1,1.347918E-1,-2.865419E-2,-9.680671E-2,3.5321283E-1,7.135843E-2,-6.1790377E-1,4.6964628E-1,-3.6740956E-1,2.3000112E-2,-1.2317752E-1,-5.8713306E-2,4.5553327E-2,8.659546E-2,1.2497996E-2,-3.1363316E-2,7.1630284E-2,5.36397E-2,-8.878776E-2,-2.7767781E-2,6.969877E-2,5.837338E-3,-1.0102544E-1],"categories":[],"categories_nodes":[],"categories_segments":[],"categories_sizes":[],"default_left":[0,0,0,0,0,0,0,0,0,0,0,0,0,0,0,0,0,0,0,0,0,0,0,0,0,0,0,0,0,0,0,0,0,0,0],"id":4,"left_children":[1,3,5,7,9,11,13,-1,15,-1,17,19,21,-1,23,-1,25,27,29,31,33,-1,-1,-1,-1,-1,-1,-1,-1,-1,-1,-1,-1,-1,-1],"loss_changes":[5.480839E0,4.947912E0,3.9419231E0,4.08075E0,4.0728474E0,4.592486E0,4.6034446E0,0E0,3.4726033E0,0E0,2.952594E0,3.9290664E0,2.4118037E0,0E0,1.6037726E0,0E0,2.4997697E0,3.4745913E0,4.34048E0,3.6049275E0,2.2310236E0,0E0,0E0,0E0,0E0,0E0,0E0,0E0,0E0,0E0,0E0,0E0,0E0,0E0,0E0],"parents":[2147483647,0,0,1,1,2,2,3,3,4,4,5,5,6,6,8,8,10,10,11,11,12,12,14,14,16,16,17,17,18,18,19,19,20,20],"right_children":[2,4,6,8,10,12,14,-1,16,-1,18,20,22,-1,24,-1,26,28,30,32,34,-1,-1,-1,-1,-1,-1,-1,-1,-1,-1,-1,-1,-1,-1],"split_conditions":[2.0808592E0,1.6472394E-3,5.3268014E-3,-2.6451806E-2,-4.2472663E-3,2.295233E-2,1.0630896E-2,-1.06051125E-1,-5.1995147E-2,-1.16447024E-1,1.3114801E-3,6.28256E0,1.3092147E-2,1.347918E-1,3.7035926E-3,-9.680671E-2,-3.5796117E-2,-2.4851067E-3,1.1062525E-2,-5.9866384E-3,6.5574003E-4,2.3000112E-2,-1.2317752E-1,-5.8713306E-2,4.5553327E-2,8.659546E-2,1.2497996E-2,-3.1363316E-2,7.1630284E-2,5.36397E-2,-8.878776E-2,-2.7767781E-2,6.969877E-2,5.837338E-3,-1.0102544E-1],"split_indices":[11,9,7,7,1,0,7,0,9,0,3,11,9,0,1,0,8,3,9,7,5,0,0,0,0,0,0,0,0,0,0,0,0,0,0],"split_type":[0,0,0,0,0,0,0,0,0,0,0,0,0,0,0,0,0,0,0,0,0,0,0,0,0,0,0,0,0,0,0,0,0,0,0],"sum_hessian":[9.266746E1,5.366762E1,3.8999836E1,2.419203E1,2.9475594E1,2.9893328E1,9.106507E0,1.6827805E0,2.2509249E1,5.98675E0,2.3488842E1,2.6014603E1,3.8787255E0,5.1646724E0,3.941835E0,1.2233497E0,2.12859E1,1.20888405E1,1.14000025E1,1.9079077E1,6.9355273E0,1.2376509E0,2.6410747E0,1.7317538E0,2.210081E0,5.6957684E0,1.5590131E1,7.8916955E0,4.197145E0,1.9738322E0,9.42617E0,4.398564E0,1.4680512E1,4.719079E0,2.216448E0],"tree_param":{"num_deleted":"0","num_feature":"13","num_nodes":"35","size_leaf_vector":"1"}},{"base_weights":[-1.5139562E-2,1.0967875E-1,-4.0452015E-1,-5.115295E-3,8.5196006E-1,-1.2340724E-1,-2.0187968E-1,1.293874E-1,-6.605507E-1,1.0148147E0,-1.4108851E-2,3.7340468E-1,-6.5759116E-1,-2.0253332E-1,6.3883466E-1,5.3406417E-2,-9.350718E-1,2.2790268E-1,1.3077769E-1,1.1216781E-1,5.3830095E-2,-9.137308E-1,4.8937496E-2,6.1757895E-3,-9.5975585E-2,-2.2828491E-2,8.514374E-2,-7.14766E-2,7.951488E-2,-3.498998E-2,-1.3708538E-1,6.0656946E-2,-2.5321314E-2,-4.752091E-2,7.375743E-2,-1.0869354E-1,-2.0486223E-2],"categories":[],"categories_nodes":[],"categories_segments":[],"categories_sizes":[],"default_left":[0,0,0,0,0,0,0,0,0,0,0,0,0,0,0,0,0,0,0,0,0,0,0,0,0,0,0,0,0,0,0,0,0,0,0,0,0],"id":5,"left_children":[1,3,5,7,9,-1,11,13,15,17,-1,19,21,23,25,27,29,31,-1,-1,33,35,-1,-1,-1,-1,-1,-1,-1,-1,-1,-1,-1,-1,-1,-1,-1],"loss_changes":[4.5585337E0,6.0645537E0,3.576747E0,5.603215E0,1.6846743E0,0E0,5.3542995E0,9.05234E0,2.1707935E0,1.6178999E0,0E0,2.1518602E0,3.7480035E0,6.605549E0,4.0764475E0,2.8196611E0,1.5271778E0,7.8498536E-1,0E0,0E0,3.0754063E0,9.478235E-1,0E0,0E0,0E0,0E0,0E0,0E0,0E0,0E0,0E0,0E0,0E0,0E0,0E0,0E0,0E0],"parents":[2147483647,0,0,1,1,2,2,3,3,4,4,6,6,7,7,8,8,9,9,11,11,12,12,13,13,14,14,15,15,16,16,17,17,20,20,21,21],"right_children":[2,4,6,8,10,-1,12,14,16,18,-1,20,22,24,26,28,30,32,-1,-1,34,36,-1,-1,-1,-1,-1,-1,-1,-1,-1,-1,-1,-1,-1,-1,-1],"split_conditions":[9.898818E-3,5.6025395E-3,-1.421087E-2,3.009241E-3,2.1423355E-2,-1.2340724E-1,-8.926959E-4,-1.2942699E-3,1.0792344E0,-7.176262E-3,-1.4108851E-2,-8.3131045E-3,4.197854E-2,-3.391894E-3,-6.9286423E-3,-4.433259E-3,4.492596E-3,7.0060967E-3,1.3077769E-1,1.1216781E-1,2.3604664E-1,2.0727385E-2,4.8937496E-2,6.1757895E-3,-9.5975585E-2,-2.2828491E-2,8.514374E-2,-7.14766E-2,7.951488E-2,-3.498998E-2,-1.3708538E-1,6.0656946E-2,-2.5321314E-2,-4.752091E-2,7.375743E-2,-1.0869354E-1,-2.0486223E-2],"split_indices":[6,6,4,6,0,0,0,6,12,0,0,8,9,6,4,1,4,6,0,0,10,0,0,0,0,0,0,0,0,0,0,0,0,0,0,0,0],"split_type":[0,0,0,0,0,0,0,0,0,0,0,0,0,0,0,0,0,0,0,0,0,0,0,0,0,0,0,0,0,0,0,0,0,0,0,0,0],"sum_hessian":[9.1880585E1,7.012115E1,2.1759436E1,6.158943E1,8.531717E0,3.272558E0,1.8486877E1,5.1768543E1,9.820891E0,7.310857E0,1.2208605E0,8.251236E0,1.0235642E1,3.1710567E1,2.0057974E1,2.9511595E0,6.8697324E0,2.4657211E0,4.8451357E0,1.718205E0,6.533031E0,8.533335E0,1.702308E0,2.4187067E1,7.523501E0,3.9349904E0,1.6122984E1,1.4676169E0,1.4835427E0,3.7018194E0,3.1679127E0,1.2338511E0,1.2318699E0,3.8551462E0,2.6778846E0,6.4291105E0,2.1042237E0],"tree_param":{"num_deleted":"0","num_feature":"13","num_nodes":"37","size_leaf_vector":"1"}},{"base_weights":[-1.4948212E-2,-1.9993025E-1,2.380926E-1,9.1370136E-2,-4.3747932E-1,5.795342E-1,-3.301376E-2,-1.0191657E-1,2.1365426E-1,-1.0480366E-1,-2.491776E-1,-4.331885E-2,7.557197E-1,-1.0632699E-1,1.1456929E-1,-9.259003E-2,3.175997E-1,1.5187305E-1,-5.086189E-1,1.0597337E0,1.5417819E-3,-6.4436775E-1,2.9690868E-1,7.952731E-2,1.0624271E-2,-2.4078002E-2,8.542175E-2,-1.9828904E-2,-1.2841477E-1,3.880169E-2,1.3448244E-1,-9.504583E-2,4.989482E-2,2.2265477E-2,-1.0426003E-1,8.0185466E-2,-2.2678591E-2],"categories":[],"categories_nodes":[],"categories_segments":[],"categories_sizes":[],"default_left":[0,0,0,0,0,0,0,0,0,0,0,0,0,0,0,0,0,0,0,0,0,0,0,0,0,0,0,0,0,0,0,0,0,0,0,0,0],"id":6,"left_children":[1,3,5,7,9,11,13,-1,15,-1,17,-1,19,-1,21,-1,23,25,27,29,31,33,35,-1,-1,-1,-1,-1,-1,-1,-1,-1,-1,-1,-1,-1,-1],"loss_changes":[4.360855E0,3.761191E0,3.6636329E0,3.6103954E0,3.1642122E0,3.4461403E0,3.6025457E0,0E0,3.0576785E0,0E0,2.5830495E0,0E0,3.4956598E0,0E0,3.0872245E0,0E0,2.149289E0,3.0268362E0,3.3200526E0,1.5597286E0,3.0235662E0,1.7407304E0,4.8246717E0,0E0,0E0,0E0,0E0,0E0,0E0,0E0,0E0,0E0,0E0,0E0,0E0,0E0,0E0],"parents":[2147483647,0,0,1,1,2,2,3,3,4,4,5,5,6,6,8,8,10,10,12,12,14,14,16,16,17,17,18,18,19,19,20,20,21,21,22,22],"right_children":[2,4,6,8,10,12,14,-1,16,-1,18,-1,20,-1,22,-1,24,26,28,30,32,34,36,-1,-1,-1,-1,-1,-1,-1,-1,-1,-1,-1,-1,-1,-1],"split_conditions":[2.0808592E0,1.6472394E-3,8.590613E-4,-2.6451806E-2,-4.2472663E-3,-2.4699548E-2,1.0714624E-3,-1.0191657E-1,-5.1995147E-2,-1.0480366E-1,-5.2488016E-5,-4.331885E-2,6.28256E0,-1.0632699E-1,1.4631093E-1,-9.259003E-2,-3.5796117E-2,-2.4851067E-3,1.4856505E0,-7.871115E-3,-1.3008676E-3,-6.202986E-3,2.3313882E-3,7.952731E-2,1.0624271E-2,-2.4078002E-2,8.542175E-2,-1.9828904E-2,-1.2841477E-1,3.880169E-2,1.3448244E-1,-9.504583E-2,4.989482E-2,2.2265477E-2,-1.0426003E-1,8.0185466E-2,-2.2678591E-2],"split_indices":[11,9,0,7,1,4,4,0,9,0,7,0,11,0,10,0,8,3,11,0,3,3,6,0,0,0,0,0,0,0,0,0,0,0,0,0,0],"split_type":[0,0,0,0,0,0,0,0,0,0,0,0,0,0,0,0,0,0,0,0,0,0,0,0,0,0,0,0,0,0,0,0,0,0,0,0,0],"sum_hessian":[9.1147766E1,5.277628E1,3.837149E1,2.3982506E1,2.8793774E1,1.6479244E1,2.1892244E1,1.6513348E0,2.2331171E1,5.7108727E0,2.3082901E1,2.2259097E0,1.4253335E1,1.9656653E0,1.992658E1,1.2056849E0,2.1125486E1,9.229826E0,1.3853075E1,9.86966E0,4.383675E0,3.3692245E0,1.6557356E1,5.6327024E0,1.5492783E1,6.341641E0,2.888185E0,1.0790793E1,3.0622816E0,3.6442597E0,6.2254004E0,1.1918097E0,3.1918657E0,1.1992146E0,2.17001E0,8.159155E0,8.3982E0],"tree_param":{"num_deleted":"0","num_feature":"13","num_nodes":"37","size_leaf_vector":"1"}},{"base_weights":[-1.732459E-2,-1.872997E-1,2.1513882E-1,-2.7635776E-2,-5.880474E-1,7.030849E-1,2.7465152E-2,-3.899232E-1,2.4651252E-1,-1.0020498E0,1.6840048E-1,1.0175128E0,-4.9987145E-2,-1.7884745E-1,6.522318E-1,7.4953854E-2,-6.9920725E-1,-7.661022E-1,4.279327E-1,-1.0782417E0,-3.1093573E-2,8.917348E-1,-5.2650684E-1,2.2110207E-2,1.2077019E0,1.4159861E-1,-6.7705643E-1,-4.5576677E-2,9.98204E-1,-1.0333475E-1,6.8787985E-2,-9.411609E-2,4.635825E-2,-1.01347975E-1,-1.2682875E-2,8.789755E-2,1.9967237E-3,-1.2247737E-1,-4.22244E-2,1.105062E-1,2.6293213E-2,-9.434565E-2,1.9357527E-2,1.3980001E-1,1.6400738E-2,-1.0981237E-1,3.6360543E-2,-7.2763423E-3,-1.0160544E-1,1.3170421E-1,-1.4367389E-2],"categories":[],"categories_nodes":[],"categories_segments":[],"categories_sizes":[],"default_left":[0,0,0,0,0,0,0,0,0,0,0,0,0,0,0,0,0,0,0,0,0,0,0,0,0,0,0,0,0,0,0,0,0,0,0,0,0,0,0,0,0,0,0,0,0,0,0,0,0,0,0],"id":7,"left_children":[1,3,5,7,9,11,13,15,17,19,21,23,-1,25,27,29,31,33,35,37,-1,39,41,-1,43,45,47,-1,49,-1,-1,-1,-1,-1,-1,-1,-1,-1,-1,-1,-1,-1,-1,-1,-1,-1,-1,-1,-1,-1,-1],"loss_changes":[3.6509614E0,3.3953369E0,3.5576496E0,3.987218E0,4.9106007E0,4.597283E0,3.8870223E0,2.5344853E0,4.5373535E0,1.8760109E-1,3.5918794E0,1.0809088E0,0E0,3.7317724E0,3.321026E0,6.0093775E0,3.3800302E0,4.787147E-1,3.6762881E0,3.0359364E-1,0E0,1.6752028E-1,1.3226115E0,0E0,1.1529646E0,4.441489E0,1.7876844E0,0E0,2.3776932E0,0E0,0E0,0E0,0E0,0E0,0E0,0E0,0E0,0E0,0E0,0E0,0E0,0E0,0E0,0E0,0E0,0E0,0E0,0E0,0E0,0E0,0E0],"parents":[2147483647,0,0,1,1,2,2,3,3,4,4,5,5,6,6,7,7,8,8,9,9,10,10,11,11,13,13,14,14,15,15,16,16,17,17,18,18,19,19,21,21,22,22,24,24,25,25,26,26,28,28],"right_children":[2,4,6,8,10,12,14,16,18,20,22,24,-1,26,28,30,32,34,36,38,-1,40,42,-1,44,46,48,-1,50,-1,-1,-1,-1,-1,-1,-1,-1,-1,-1,-1,-1,-1,-1,-1,-1,-1,-1,-1,-1,-1,-1],"split_conditions":[2.0808592E0,2.709815E-2,-4.0695937E-3,-1.6255936E-3,2.0727385E-2,8.694457E-3,5.3268014E-3,-3.465947E-3,-1.2429258E-2,2.8752849E-1,2.9188445E-2,-4.0887002E-2,-4.9987145E-2,5.430198E-3,1.4631093E-1,-1.9359337E-2,1.57722E-2,1.1022466E0,-8.7079545E-4,1.4074359E-2,-3.1093573E-2,1.1526331E0,2.3946024E-2,2.2110207E-2,2.8752849E-1,-2.4699548E-2,2.290951E-4,-4.5576677E-2,1.8291758E-2,-1.0333475E-1,6.8787985E-2,-9.411609E-2,4.635825E-2,-1.01347975E-1,-1.2682875E-2,8.789755E-2,1.9967237E-3,-1.2247737E-1,-4.22244E-2,1.105062E-1,2.6293213E-2,-9.434565E-2,1.9357527E-2,1.3980001E-1,1.6400738E-2,-1.0981237E-1,3.6360543E-2,-7.2763423E-3,-1.0160544E-1,1.3170421E-1,-1.4367389E-2],"split_indices":[11,8,1,6,1,6,7,1,4,10,1,9,0,0,10,5,7,11,7,7,0,11,6,0,10,4,2,0,3,0,0,0,0,0,0,0,0,0,0,0,0,0,0,0,0,0,0,0,0,0,0],"split_type":[0,0,0,0,0,0,0,0,0,0,0,0,0,0,0,0,0,0,0,0,0,0,0,0,0,0,0,0,0,0,0,0,0,0,0,0,0,0,0,0,0,0,0,0,0,0,0,0,0,0,0],"sum_hessian":[9.0379196E1,5.23186E1,3.8060596E1,3.817719E1,1.4141409E1,9.809602E0,2.8250996E1,1.626313E1,2.191406E1,8.929585E0,5.2118235E0,7.8990974E0,1.9105046E0,2.1774338E1,6.4766593E0,6.799951E0,9.46318E0,2.8399262E0,1.9074135E1,7.538368E0,1.3912175E0,2.4148965E0,2.796927E0,1.9396043E0,5.959493E0,1.3686816E1,8.087522E0,1.4656066E0,5.0110526E0,2.1771934E0,4.6227574E0,7.9910088E0,1.4721707E0,1.6255358E0,1.2143903E0,8.510487E0,1.0563647E1,5.4532275E0,2.0851407E0,1.2376168E0,1.1772798E0,1.5748396E0,1.2220873E0,4.7533383E0,1.2061552E0,1.4793777E0,1.2207438E1,3.342992E0,4.7445292E0,3.7973468E0,1.2137055E0],"tree_param":{"num_deleted":"0","num_feature":"13","num_nodes":"51","size_leaf_vector":"1"}},{"base_weights":[-1.8219782E-2,-1.048209E-1,1.7424978E-2,3.90383E-1,-9.5085524E-2,8.27913E-1,-4.2235333E-1,-6.666652E-1,5.263958E-2,9.343076E-2,1.1375504E0,-8.707454E-1,9.548213E-2,-8.2632864E-1,2.6001483E-2,4.1807145E-1,-2.0935336E-1,9.39814E-2,-7.2095565E-2,1.3527308E-1,7.907962E-3,-1.2434689E-1,4.3653E-2,-1.2123797E-1,-2.9365092E-3,-5.029206E-3,1.0704587E-1,-6.330408E-3,-8.959516E-2],"categories":[],"categories_nodes":[],"categories_segments":[],"categories_sizes":[],"default_left":[0,0,0,0,0,0,0,0,0,0,0,0,0,0,0,0,0,0,0,0,0,0,0,0,0,0,0,0,0],"id":8,"left_children":[1,-1,3,5,7,9,11,13,15,17,19,21,-1,23,-1,25,27,-1,-1,-1,-1,-1,-1,-1,-1,-1,-1,-1,-1],"loss_changes":[3.340837E0,0E0,3.748882E0,7.709138E0,5.840946E0,3.0301847E0,5.712721E0,2.3150373E0,5.40738E0,4.247602E0,2.0822716E0,3.7032523E0,0E0,3.7633867E0,0E0,7.245364E0,3.2553687E0,0E0,0E0,0E0,0E0,0E0,0E0,0E0,0E0,0E0,0E0,0E0,0E0],"parents":[2147483647,0,0,2,2,3,3,4,4,5,5,6,6,7,7,8,8,9,9,10,10,11,11,13,13,15,15,16,16],"right_children":[2,-1,4,6,8,10,12,14,16,18,20,22,-1,24,-1,26,28,-1,-1,-1,-1,-1,-1,-1,-1,-1,-1,-1,-1],"split_conditions":[-2.43545E-2,-1.048209E-1,-2.3416353E-2,-2.4515926E-3,-7.871115E-3,-1.2429258E-2,1.8379048E-1,1.7480943E-2,2.570178E-3,-3.7408527E-3,-9.939132E-4,6.909459E-3,9.548213E-2,2.7910715E-1,2.6001483E-2,2.2815017E-2,3.0372372E-1,9.39814E-2,-7.2095565E-2,1.3527308E-1,7.907962E-3,-1.2434689E-1,4.3653E-2,-1.2123797E-1,-2.9365092E-3,-5.029206E-3,1.0704587E-1,-6.330408E-3,-8.959516E-2],"split_indices":[7,0,8,0,0,4,10,3,0,3,4,7,0,10,0,9,10,0,0,0,0,0,0,0,0,0,0,0,0],"split_type":[0,0,0,0,0,0,0,0,0,0,0,0,0,0,0,0,0,0,0,0,0,0,0,0,0,0,0,0,0],"sum_hessian":[8.9499466E1,2.0435E0,8.745596E1,1.969611E1,6.775985E1,1.2791328E1,6.9047813E0,1.3194533E1,5.456532E1,4.17935E0,8.611979E0,5.4862523E0,1.4185294E0,1.1347666E1,1.846868E0,2.2536007E1,3.2029312E1,1.9738911E0,2.205459E0,6.9259677E0,1.686011E0,4.307056E0,1.1791961E0,7.2934513E0,4.0542145E0,1.3655398E1,8.880609E0,2.7311884E1,4.7174287E0],"tree_param":{"num_deleted":"0","num_feature":"13","num_nodes":"29","size_leaf_vector":"1"}},{"base_weights":[-1.6644977E-2,-1.0004125E-1,1.6908785E-2,3.661465E-1,-8.738953E-2,7.70738E-1,-3.8226572E-1,-6.1384547E-1,4.7746904E-2,8.875459E-2,1.0626241E0,-8.739848E-1,7.77291E-2,-7.639695E-1,2.424397E-2,4.5850947E-1,-1.4867239E-1,8.816364E-2,-6.7336746E-2,1.18726315E-2,1.286386E-1,-1.2744464E-1,4.1521642E-2,-1.1276475E-1,-2.7011991E-3,-8.2171775E-2,6.029413E-2,2.2244878E-2,-3.9404426E-2],"categories":[],"categories_nodes":[],"categories_segments":[],"categories_sizes":[],"default_left":[0,0,0,0,0,0,0,0,0,0,0,0,0,0,0,0,0,0,0,0,0,0,0,0,0,0,0,0,0],"id":9,"left_children":[1,-1,3,5,7,9,11,13,15,17,19,21,-1,23,-1,25,27,-1,-1,-1,-1,-1,-1,-1,-1,-1,-1,-1,-1],"loss_changes":[2.9808388E0,0E0,3.2305748E0,6.467763E0,4.8973784E0,2.6058645E0,5.1393833E0,1.9911819E0,4.5361032E0,3.7097003E0,1.8342924E0,3.608048E0,0E0,3.2377481E0,0E0,3.853156E0,3.567913E0,0E0,0E0,0E0,0E0,0E0,0E0,0E0,0E0,0E0,0E0,0E0,0E0],"parents":[2147483647,0,0,2,2,3,3,4,4,5,5,6,6,7,7,8,8,9,9,10,10,11,11,13,13,15,15,16,16],"right_children":[2,-1,4,6,8,10,12,14,16,18,20,22,-1,24,-1,26,28,-1,-1,-1,-1,-1,-1,-1,-1,-1,-1,-1,-1],"split_conditions":[-2.43545E-2,-1.0004125E-1,-2.3416353E-2,-2.4515926E-3,-7.871115E-3,-1.2429258E-2,1.7447926E-1,1.7480943E-2,-1.6326621E-3,-3.7408527E-3,-9.325097E-3,6.909459E-3,7.77291E-2,2.7910715E-1,2.424397E-2,-8.962615E-3,2.570178E-3,8.816364E-2,-6.7336746E-2,1.18726315E-2,1.286386E-1,-1.2744464E-1,4.1521642E-2,-1.1276475E-1,-2.7011991E-3,-8.2171775E-2,6.029413E-2,2.2244878E-2,-3.9404426E-2],"split_indices":[7,0,8,0,0,4,10,3,7,3,7,7,0,10,0,1,0,0,0,0,0,0,0,0,0,0,0,0,0],"split_type":[0,0,0,0,0,0,0,0,0,0,0,0,0,0,0,0,0,0,0,0,0,0,0,0,0,0,0,0,0],"sum_hessian":[8.8791084E1,1.9781523E0,8.6812935E1,1.938676E1,6.742618E1,1.2564541E1,6.82222E0,1.3048856E1,5.437732E1,4.156671E0,8.40787E0,4.96363E0,1.8585895E0,1.1194113E1,1.8547435E0,1.715905E1,3.721827E1,1.9603658E0,2.196305E0,1.9045352E0,6.503335E0,3.7959485E0,1.1676818E0,7.1403246E0,4.053788E0,1.2641808E0,1.5894869E1,1.4850515E1,2.2367754E1],"tree_param":{"num_deleted":"0","num_feature":"13","num_nodes":"29","size_leaf_vector":"1"}},{"base_weights":[-1.600533E-2,-1.6916735E-1,1.9364014E-1,9.125304E-2,-3.8179758E-1,6.536016E-1,1.8019896E-2,-2.3327482E-1,4.5204446E-1,-9.513067E-1,-2.106052E-1,8.994105E-1,-5.7425316E-2,-1.7993908E-1,6.172691E-1,1.4662309E-1,-7.4566174E-1,1.041585E0,-1.6209623E-2,-1.03583254E-1,-2.5532693E-2,-6.839512E-1,-3.219283E-2,1.0843828E0,-1.7997392E-2,1.0615698E-1,-6.141357E-1,-4.2488392E-2,9.4780517E-1,-4.9866702E-2,6.487859E-2,5.123775E-2,-1.182464E-1,2.1227619E-2,1.2303046E-1,-3.6679476E-2,7.509114E-2,-1.11034505E-1,2.201922E-2,2.5500251E-2,-5.388437E-2,1.632663E-2,1.3460991E-1,-5.980826E-2,3.978924E-2,-4.640564E-3,-9.402574E-2,1.24631904E-1,-1.1110396E-2],"categories":[],"categories_nodes":[],"categories_segments":[],"categories_sizes":[],"default_left":[0,0,0,0,0,0,0,0,0,0,0,0,0,0,0,0,0,0,0,0,0,0,0,0,0,0,0,0,0,0,0,0,0,0,0,0,0,0,0,0,0,0,0,0,0,0,0,0,0],"id":10,"left_children":[1,3,5,7,9,11,13,15,17,19,21,23,-1,25,27,29,31,33,35,-1,-1,37,39,41,-1,43,45,-1,47,-1,-1,-1,-1,-1,-1,-1,-1,-1,-1,-1,-1,-1,-1,-1,-1,-1,-1,-1,-1],"loss_changes":[2.89013E0,2.9117355E0,3.0604854E0,2.9342732E0,2.606995E0,3.6797633E0,3.49815E0,2.7135851E0,3.2691393E0,1.1030245E-1,1.9561443E0,2.0164704E0,0E0,2.8274798E0,2.9227433E0,3.0838234E0,3.8262854E0,5.574446E-1,2.3061216E0,0E0,0E0,2.6974266E0,2.765451E0,1.6919231E0,0E0,3.1671023E0,1.6189442E0,0E0,1.9919662E0,0E0,0E0,0E0,0E0,0E0,0E0,0E0,0E0,0E0,0E0,0E0,0E0,0E0,0E0,0E0,0E0,0E0,0E0,0E0,0E0],"parents":[2147483647,0,0,1,1,2,2,3,3,4,4,5,5,6,6,7,7,8,8,9,9,10,10,11,11,13,13,14,14,15,15,16,16,17,17,18,18,21,21,22,22,23,23,25,25,26,26,28,28],"right_children":[2,4,6,8,10,12,14,16,18,20,22,24,-1,26,28,30,32,34,36,-1,-1,38,40,42,-1,44,46,-1,48,-1,-1,-1,-1,-1,-1,-1,-1,-1,-1,-1,-1,-1,-1,-1,-1,-1,-1,-1,-1],"split_conditions":[2.0808592E0,1.6472394E-3,-4.0695937E-3,1.627466E-1,-4.2472663E-3,1.0810517E-2,5.3268014E-3,-2.4515926E-3,-1.9091346E-3,-4.051765E-4,-1.2942699E-3,2.9882398E-1,-5.7425316E-2,5.430198E-3,1.4631093E-1,-1.229867E-2,-1.8320888E-2,-7.4294535E-3,9.450577E-3,-1.03583254E-1,-2.5532693E-2,5.2203652E-3,4.0405416E-3,-4.0887002E-2,-1.7997392E-2,2.0219394E-4,2.290951E-4,-4.2488392E-2,1.8291758E-2,-4.9866702E-2,6.487859E-2,5.123775E-2,-1.182464E-1,2.1227619E-2,1.2303046E-1,-3.6679476E-2,7.509114E-2,-1.11034505E-1,2.201922E-2,2.5500251E-2,-5.388437E-2,1.632663E-2,1.3460991E-1,-5.980826E-2,3.978924E-2,-4.640564E-3,-9.402574E-2,1.24631904E-1,-1.1110396E-2],"split_indices":[11,9,1,10,1,6,7,0,7,5,6,10,0,0,10,4,2,0,3,0,0,4,4,9,0,1,2,0,3,0,0,0,0,0,0,0,0,0,0,0,0,0,0,0,0,0,0,0,0],"split_type":[0,0,0,0,0,0,0,0,0,0,0,0,0,0,0,0,0,0,0,0,0,0,0,0,0,0,0,0,0,0,0,0,0,0,0,0,0,0,0,0,0,0,0,0,0,0,0,0,0],"sum_hessian":[8.798777E1,5.0954613E1,3.7033154E1,2.3160034E1,2.7794579E1,9.480749E0,2.7552406E1,1.237884E1,1.0781194E1,5.3707266E0,2.2423853E1,8.122225E0,1.3585247E0,2.1236694E1,6.31571E0,7.5183606E0,4.8604794E0,4.230506E0,6.5506873E0,4.353671E0,1.0170557E0,5.3626533E0,1.70612E1,6.9300094E0,1.1922151E0,1.3257029E1,7.979666E0,1.4520565E0,4.8636537E0,3.2933264E0,4.225034E0,1.2080734E0,3.6524057E0,1.1781352E0,3.052371E0,4.8541346E0,1.6965528E0,3.4891214E0,1.8735319E0,1.1205848E1,5.8553514E0,1.8926414E0,5.037368E0,3.5755892E0,9.681439E0,3.3281465E0,4.65152E0,3.656014E0,1.2076398E0],"tree_param":{"num_deleted":"0","num_feature":"13","num_nodes":"49","size_leaf_vector":"1"}},{"base_weights":[-1.5500426E-2,1.7148646E-2,-8.817307E-2,-1.3969214E-1,2.3093256E-1,3.0301E-1,-2.6227078E-1,5.260025E-1,2.6708161E-2,-3.4750882E-1,7.2481936E-1,-1.8440528E-1,-1.087599E-1,-1.4742254E-1,7.114796E-1,-1.7476112E-1,7.644384E-1,-1.00553E-1,2.1988746E-2,-2.9319247E-2,1.22174464E-1,-2.810154E-2,4.049779E-2,-1.0271784E-1,7.126003E-2,8.391316E-2,-2.2623807E-2,-1.133066E-1,9.563273E-3,9.0071395E-2,2.7157893E-2],"categories":[],"categories_nodes":[],"categories_segments":[],"categories_sizes":[],"default_left":[0,0,0,0,0,0,0,0,0,0,0,0,0,0,0,0,0,0,0,0,0,0,0,0,0,0,0,0,0,0,0],"id":11,"left_children":[1,3,-1,5,7,9,11,13,15,17,19,21,-1,23,25,27,29,-1,-1,-1,-1,-1,-1,-1,-1,-1,-1,-1,-1,-1,-1],"loss_changes":[2.5027022E0,2.9072485E0,0E0,2.797201E0,2.1952147E0,3.3591244E0,2.3544612E0,1.9712386E0,3.5104244E0,2.1365511E0,3.997309E0,2.2510295E0,0E0,3.8000762E0,1.6127481E0,4.9435306E0,9.521937E-2,0E0,0E0,0E0,0E0,0E0,0E0,0E0,0E0,0E0,0E0,0E0,0E0,0E0,0E0],"parents":[2147483647,0,0,1,1,3,3,4,4,5,5,6,6,7,7,8,8,9,9,10,10,11,11,13,13,14,14,15,15,16,16],"right_children":[2,4,-1,6,8,10,12,14,16,18,20,22,-1,24,26,28,30,-1,-1,-1,-1,-1,-1,-1,-1,-1,-1,-1,-1,-1,-1],"split_conditions":[3.2082085E-2,2.0368001E0,-8.817307E-2,-2.6648121E-2,3.2084842E0,-6.85558E-3,1.9033622E0,-2.6933376E-2,7.281585E-3,-1.577946E-2,-1.3688393E-2,3.89127E-2,-1.087599E-1,2.7441437E0,1.4173628E-2,4.0932565E0,3.978258E-2,-1.00553E-1,2.1988746E-2,-2.9319247E-2,1.22174464E-1,-2.810154E-2,4.049779E-2,-1.0271784E-1,7.126003E-2,8.391316E-2,-2.2623807E-2,-1.133066E-1,9.563273E-3,9.0071395E-2,2.7157893E-2],"split_indices":[5,12,0,9,12,6,12,9,5,5,4,9,0,12,5,11,8,0,0,0,0,0,0,0,0,0,0,0,0,0,0],"split_type":[0,0,0,0,0,0,0,0,0,0,0,0,0,0,0,0,0,0,0,0,0,0,0,0,0,0,0,0,0,0,0],"sum_hessian":[8.695756E1,8.474369E1,2.21387E0,4.9081806E1,3.5661884E1,1.0323983E1,3.8757824E1,1.3942173E1,2.1719711E1,4.130315E0,6.1936684E0,3.653442E1,2.2234025E0,3.0550723E0,1.0887101E1,1.7659992E1,4.0597186E0,1.554892E0,2.575423E0,2.166112E0,4.0275564E0,3.1838709E1,4.695712E0,1.4141318E0,1.6409404E0,9.675152E0,1.2119491E0,3.184248E0,1.4475745E1,2.5320735E0,1.5276448E0],"tree_param":{"num_deleted":"0","num_feature":"13","num_nodes":"31","size_leaf_vector":"1"}},{"base_weights":[-1.5468617E-2,-9.0785764E-2,1.4146582E-2,2.0812905E-1,-1.2904297E-1,6.4775884E-2,8.8341016E-1,-4.048431E-2,-9.391663E-1,3.7836054E-1,-2.2103758E-1,4.5757177E-3,1.11672975E-1,-7.439858E-1,5.7054285E-2,-1.17215335E-1,-1.0957439E-2,-2.7051432E-2,7.8713976E-2,3.1668015E-2,-5.5556357E-2,-9.143131E-2,-2.045152E-3,-3.0610142E-2,2.0775238E-2],"categories":[],"categories_nodes":[],"categories_segments":[],"categories_sizes":[],"default_left":[0,0,0,0,0,0,0,0,0,0,0,0,0,0,0,0,0,0,0,0,0,0,0,0,0],"id":12,"left_children":[1,-1,3,5,7,9,11,13,15,17,19,-1,-1,21,23,-1,-1,-1,-1,-1,-1,-1,-1,-1,-1],"loss_changes":[2.3160849E0,0E0,2.3971725E0,3.4880219E0,3.5285566E0,2.8879633E0,1.18683E0,3.1892354E0,8.0972576E-1,4.268138E0,3.2340088E0,0E0,0E0,6.782417E-1,2.318553E0,0E0,0E0,0E0,0E0,0E0,0E0,0E0,0E0,0E0,0E0],"parents":[2147483647,0,0,2,2,3,3,4,4,5,5,6,6,7,7,8,8,9,9,10,10,13,13,14,14],"right_children":[2,-1,4,6,8,10,12,14,16,18,20,-1,-1,22,24,-1,-1,-1,-1,-1,-1,-1,-1,-1,-1],"split_conditions":[-2.43545E-2,-9.0785764E-2,1.6472394E-3,4.096193E-3,3.462143E-1,-3.0404106E-3,-1.3204986E-2,-8.737682E-3,4.896837E-3,-3.822018E-2,-5.13512E-3,4.5757177E-3,1.11672975E-1,-3.5165688E-3,1.1249102E0,-1.17215335E-1,-1.0957439E-2,-2.7051432E-2,7.8713976E-2,3.1668015E-2,-5.5556357E-2,-9.143131E-2,-2.045152E-3,-3.0610142E-2,2.0775238E-2],"split_indices":[7,0,9,2,10,1,0,1,6,9,2,0,0,5,12,0,0,0,0,0,0,0,0,0,0],"split_type":[0,0,0,0,0,0,0,0,0,0,0,0,0,0,0,0,0,0,0,0,0,0,0,0,0],"sum_hessian":[8.6150665E1,1.8146627E0,8.4336E1,3.5623047E1,4.8712955E1,3.0289015E1,5.3340297E0,4.485915E1,3.8538058E0,1.4288436E1,1.600058E1,1.4226419E0,3.9113877E0,4.655262E0,4.0203888E1,2.6864119E0,1.1673938E0,5.653153E0,8.6352825E0,6.1570582E0,9.843522E0,3.5547593E0,1.1005026E0,1.1488181E1,2.8715706E1],"tree_param":{"num_deleted":"0","num_feature":"13","num_nodes":"25","size_leaf_vector":"1"}},{"base_weights":[-1.611314E-2,1.1470012E-2,-9.423201E-2,-8.726581E-2,4.0461216E-2,3.2548597E-1,-4.4045147E-2,6.6987705E-1,-3.3267587E-1,-4.9253932E-1,6.828984E-2,8.7134605E-3,9.275075E-2,-7.181152E-2,8.2015835E-2,-2.4374617E-2,-1.1590021E-1,-1.1998632E-2,5.6537367E-2],"categories":[],"categories_nodes":[],"categories_segments":[],"categories_sizes":[],"default_left":[0,0,0,0,0,0,0,0,0,0,0,0,0,0,0,0,0,0,0],"id":13,"left_children":[1,3,-1,-1,5,7,9,11,13,15,17,-1,-1,-1,-1,-1,-1,-1,-1],"loss_changes":[2.221105E0,2.214085E0,0E0,0E0,2.0197535E0,4.565613E0,3.313473E0,1.8573418E0,3.8103495E0,1.8998048E0,5.022303E0,0E0,0E0,0E0,0E0,0E0,0E0,0E0,0E0],"parents":[2147483647,0,0,1,1,4,4,5,5,6,6,7,7,8,8,9,9,10,10],"right_children":[2,4,-1,-1,6,8,10,12,14,16,18,-1,-1,-1,-1,-1,-1,-1,-1],"split_conditions":[3.4702636E-2,-2.43545E-2,-9.423201E-2,-8.726581E-2,-2.3416353E-2,-2.4515926E-3,-7.871115E-3,-1.2429258E-2,1.8379048E-1,-9.875109E-3,6.833242E-3,8.7134605E-3,9.275075E-2,-7.181152E-2,8.2015835E-2,-2.4374617E-2,-1.1590021E-1,-1.1998632E-2,5.6537367E-2],"split_indices":[5,7,0,0,8,0,0,4,10,0,5,0,0,0,0,0,0,0,0],"split_type":[0,0,0,0,0,0,0,0,0,0,0,0,0,0,0,0,0,0,0],"sum_hessian":[8.551645E1,8.40024E1,1.5140399E0,1.7431065E0,8.22593E1,1.8159376E1,6.409992E1,1.1909689E1,6.2496877E0,1.2161386E1,5.1938538E1,4.061368E0,7.8483205E0,4.966329E0,1.2833583E0,9.850053E0,2.3113327E0,3.822065E1,1.3717888E1],"tree_param":{"num_deleted":"0","num_feature":"13","num_nodes":"19","size_leaf_vector":"1"}},{"base_weights":[-1.6482366E-2,7.1781516E-2,-2.9016805E-1,-2.6425987E-2,7.554521E-1,-9.065883E-1,-9.350905E-2,8.785165E-2,-5.688738E-1,1.8974362E-1,9.397189E-1,-1.0431192E-1,-2.5151065E-2,4.9342987E-1,-4.8921227E-1,-1.9332835E-1,5.148844E-1,-7.2349507E-1,3.5338342E-2,5.9982885E-2,-3.1933915E-2,1.118517E-2,1.0989733E-1,7.140999E-1,-1.1005935E-2,-6.965814E-1,4.2012416E-2,5.2461396E-3,-8.917938E-2,-3.89769E-3,8.0200955E-2,-1.1000357E-1,-8.419647E-3,-3.116424E-3,9.352341E-2,-9.360703E-2,-1.8110586E-2],"categories":[],"categories_nodes":[],"categories_segments":[],"categories_sizes":[],"default_left":[0,0,0,0,0,0,0,0,0,0,0,0,0,0,0,0,0,0,0,0,0,0,0,0,0,0,0,0,0,0,0,0,0,0,0,0,0],"id":14,"left_children":[1,3,5,7,9,11,13,15,17,19,21,-1,-1,23,25,27,29,31,-1,-1,-1,-1,-1,33,-1,35,-1,-1,-1,-1,-1,-1,-1,-1,-1,-1,-1],"loss_changes":[2.0953505E0,4.433709E0,2.4779513E0,3.673093E0,6.8593645E-1,1.8467379E-1,4.2227116E0,6.000279E0,1.7250605E0,8.7839776E-1,6.682272E-1,0E0,0E0,1.0641814E0,2.318111E0,5.2586555E0,3.1774697E0,2.1106772E0,0E0,0E0,0E0,0E0,0E0,9.4426894E-1,0E0,9.5669365E-1,0E0,0E0,0E0,0E0,0E0,0E0,0E0,0E0,0E0,0E0,0E0],"parents":[2147483647,0,0,1,1,2,2,3,3,4,4,5,5,6,6,7,7,8,8,9,9,10,10,13,13,14,14,15,15,16,16,17,17,23,23,25,25],"right_children":[2,4,6,8,10,12,14,16,18,20,22,-1,-1,24,26,28,30,32,-1,-1,-1,-1,-1,34,-1,36,-1,-1,-1,-1,-1,-1,-1,-1,-1,-1,-1],"split_conditions":[9.547027E-3,5.6025395E-3,-1.0212091E-2,3.009241E-3,-7.176262E-3,-1.3460072E-2,-8.926959E-4,-1.2942699E-3,1.883728E-2,7.0060967E-3,-9.437675E-3,-1.0431192E-1,-2.5151065E-2,3.0770106E-2,4.197854E-2,-3.391894E-3,1.6220582E-1,3.497698E-3,3.5338342E-2,5.9982885E-2,-3.1933915E-2,1.118517E-2,1.0989733E-1,-1.6991418E-2,-1.1005935E-2,2.6719768E0,4.2012416E-2,5.2461396E-3,-8.917938E-2,-3.89769E-3,8.0200955E-2,-1.1000357E-1,-8.419647E-3,-3.116424E-3,9.352341E-2,-9.360703E-2,-1.8110586E-2],"split_indices":[6,6,4,6,0,0,0,6,0,6,3,0,0,9,9,6,10,2,0,0,0,0,0,1,0,12,0,0,0,0,0,0,0,0,0,0,0],"split_type":[0,0,0,0,0,0,0,0,0,0,0,0,0,0,0,0,0,0,0,0,0,0,0,0,0,0,0,0,0,0,0,0,0,0,0,0,0],"sum_hessian":[8.4878204E1,6.473789E1,2.0140308E1,5.7447113E1,7.2907815E0,3.9981875E0,1.614212E1,4.8142887E1,9.304229E0,2.2900212E0,5.0007606E0,2.8184154E0,1.1797721E0,6.400868E0,9.741253E0,2.9358824E1,1.8784061E1,8.152874E0,1.1513548E0,1.1696059E0,1.1204153E0,1.0814263E0,3.9193342E0,4.552815E0,1.8480532E0,8.122849E0,1.6184039E0,2.240086E1,6.9579644E0,6.7082214E0,1.2075839E1,4.6772995E0,3.4755745E0,1.2383643E0,3.3144503E0,4.989024E0,3.133825E0],"tree_param":{"num_deleted":"0","num_feature":"13","num_nodes":"37","size_leaf_vector":"1"}},{"base_weights":[-1.5795212E-2,1.005609E-2,-8.883667E-2,-8.370107E-2,3.749081E-2,6.1868405E-1,-2.1535235E-3,8.340314E-2,-9.544907E-3,5.71614E-2,-7.034393E-1,-5.4683786E-2,1.0417047E-2,1.679412E-4,-1.1449386E-1],"categories":[],"categories_nodes":[],"categories_segments":[],"categories_sizes":[],"default_left":[0,0,0,0,0,0,0,0,0,0,0,0,0,0,0],"id":15,"left_children":[1,3,-1,-1,5,7,9,-1,-1,11,13,-1,-1,-1,-1],"loss_changes":[1.9262323E0,1.972784E0,0E0,0E0,1.8878601E0,8.8419175E-1,3.2699904E0,0E0,0E0,2.115911E0,1.9103286E0,0E0,0E0,0E0,0E0],"parents":[2147483647,0,0,1,1,4,4,5,5,6,6,9,9,10,10],"right_children":[2,4,-1,-1,6,8,10,-1,-1,12,14,-1,-1,-1,-1],"split_conditions":[3.4702636E-2,-2.43545E-2,-8.883667E-2,-8.370107E-2,-1.2003723E-2,9.321586E-3,3.4863096E-1,8.340314E-2,-9.544907E-3,-8.662205E-3,2.17249E-3,-5.4683786E-2,1.0417047E-2,1.679412E-4,-1.1449386E-1],"split_indices":[5,7,0,0,7,6,10,0,0,3,9,0,0,0,0],"split_type":[0,0,0,0,0,0,0,0,0,0,0,0,0,0,0],"sum_hessian":[8.399754E1,8.254062E1,1.4569204E0,1.6636943E0,8.087692E1,4.231819E0,7.66451E1,3.1223722E0,1.1094468E0,7.1514854E1,5.1302533E0,4.3962855E0,6.711857E1,2.3589573E0,2.7712958E0],"tree_param":{"num_deleted":"0","num_feature":"13","num_nodes":"15","size_leaf_vector":"1"}},{"base_weights":[-1.7410459E-2,1.4945818E-2,-6.651458E-1,-4.393814E-2,6.093956E-1,-2.151562E-2,-8.777774E-2,4.7291324E-2,-7.9525805E-1,-4.565078E-2,8.5595006E-1,-3.1172007E-1,1.5824743E-1,-9.319609E-1,6.5978505E-3,1.268454E-1,2.3826346E-2,2.9919947E-2,-6.2146146E-2,-4.612198E-2,2.5071114E-2,-1.0869431E-1,-1.3420043E-2,3.865252E-2,-3.3808306E-2],"categories":[],"categories_nodes":[],"categories_segments":[],"categories_sizes":[],"default_left":[0,0,0,0,0,0,0,0,0,0,0,0,0,0,0,0,0,0,0,0,0,0,0,0,0],"id":16,"left_children":[1,3,5,7,9,-1,-1,11,13,-1,15,17,19,21,-1,-1,23,-1,-1,-1,-1,-1,-1,-1,-1],"loss_changes":[1.7847147E0,2.8841288E0,1.9872928E-1,5.19241E0,2.3419225E0,0E0,0E0,2.7583394E0,1.0268168E0,0E0,2.1589017E0,3.287868E0,3.1292708E0,7.3718405E-1,0E0,0E0,5.4190737E-1,0E0,0E0,0E0,0E0,0E0,0E0,0E0,0E0],"parents":[2147483647,0,0,1,1,2,2,3,3,4,4,7,7,8,8,10,10,11,11,12,12,13,13,16,16],"right_children":[2,4,6,8,10,-1,-1,12,14,-1,16,18,20,22,-1,-1,24,-1,-1,-1,-1,-1,-1,-1,-1],"split_conditions":[4.3060027E-2,3.948693E-2,3.6367644E-3,3.1989817E-2,1.5748357E-3,-2.151562E-2,-8.777774E-2,1.312434E-1,5.145115E0,-4.565078E-2,4.9045417E-2,-5.080036E-3,-1.2950827E-2,2.0695975E-2,6.5978505E-3,1.268454E-1,-8.545299E-4,2.9919947E-2,-6.2146146E-2,-4.612198E-2,2.5071114E-2,-1.0869431E-1,-1.3420043E-2,3.865252E-2,-3.3808306E-2],"split_indices":[2,9,4,9,5,0,0,10,11,0,8,4,4,6,0,0,3,0,0,0,0,0,0,0,0],"split_type":[0,0,0,0,0,0,0,0,0,0,0,0,0,0,0,0,0,0,0,0,0,0,0,0,0],"sum_hessian":[8.368116E1,8.063036E1,3.050797E0,7.4205894E1,6.42447E0,1.6245838E0,1.426213E0,6.700663E1,7.199264E0,1.0469121E0,5.3775578E0,1.5392619E1,5.161401E1,6.142202E0,1.0570624E0,3.244716E0,2.132842E0,5.1900463E0,1.0202573E1,6.185525E0,4.5428486E1,4.839526E0,1.3026752E0,1.0312881E0,1.101554E0],"tree_param":{"num_deleted":"0","num_feature":"13","num_nodes":"25","size_leaf_vector":"1"}},{"base_weights":[-1.812046E-2,-8.01379E-2,6.5339827E-3,1.2373005E-1,-1.9962308E-1,-1.4131628E-1,3.234858E-1,-4.0433797E-1,3.2095197E-1,2.7784413E-2,-1.17902316E-1,5.0962377E-1,-4.5504695E-1,-9.4475895E-2,-8.632251E-1,7.0822924E-1,-8.228165E-2,7.6305166E-2,-2.5566308E-2,-6.1078906E-2,6.0172703E-2,-7.820708E-2,5.6280967E-2,-7.03428E-2,3.8916163E-2,3.9720456E-3,-1.0136741E-1,1.040921E-1,6.9041015E-3],"categories":[],"categories_nodes":[],"categories_segments":[],"categories_sizes":[],"default_left":[0,0,0,0,0,0,0,0,0,0,0,0,0,0,0,0,0,0,0,0,0,0,0,0,0,0,0,0,0],"id":17,"left_children":[1,-1,3,5,7,9,11,13,15,17,-1,19,21,23,25,27,-1,-1,-1,-1,-1,-1,-1,-1,-1,-1,-1,-1,-1],"loss_changes":[1.6300918E0,0E0,2.0195723E0,2.8654585E0,3.3596854E0,4.1713123E0,4.6769905E0,3.0745394E0,4.6189556E0,4.6252165E0,0E0,2.970787E0,2.586115E0,4.5065665E0,1.2389421E0,1.4899716E0,0E0,0E0,0E0,0E0,0E0,0E0,0E0,0E0,0E0,0E0,0E0,0E0,0E0],"parents":[2147483647,0,0,2,2,3,3,4,4,5,5,6,6,7,7,8,8,9,9,11,11,12,12,13,13,14,14,15,15],"right_children":[2,-1,4,6,8,10,12,14,16,18,-1,20,22,24,26,28,-1,-1,-1,-1,-1,-1,-1,-1,-1,-1,-1,-1,-1],"split_conditions":[-2.43545E-2,-8.01379E-2,2.2059228E-2,1.662527E-1,3.9113387E-2,1.5649387E-1,8.206279E-3,3.1989817E-2,8.724124E-3,-8.120557E-3,-1.17902316E-1,-1.5199913E-2,4.452014E0,2.295148E-2,3.5208747E-2,4.9045417E-2,-8.228165E-2,7.6305166E-2,-2.5566308E-2,-6.1078906E-2,6.0172703E-2,-7.820708E-2,5.6280967E-2,-7.03428E-2,3.8916163E-2,3.9720456E-3,-1.0136741E-1,1.040921E-1,6.9041015E-3],"split_indices":[7,0,8,10,9,10,1,9,0,4,0,2,12,9,8,8,0,0,0,0,0,0,0,0,0,0,0,0,0],"split_type":[0,0,0,0,0,0,0,0,0,0,0,0,0,0,0,0,0,0,0,0,0,0,0,0,0,0,0,0,0],"sum_hessian":[8.314231E1,1.5757918E0,8.156651E1,5.2258472E1,2.9308044E1,2.25846E1,2.967387E1,2.119604E1,8.112005E0,2.025685E1,2.3277526E0,2.422691E1,5.446962E0,1.337231E1,7.823729E0,6.344549E0,1.7674559E0,5.165478E0,1.509137E1,1.412511E0,2.2814398E1,4.2977886E0,1.1491733E0,5.7181215E0,7.6541886E0,1.2225243E0,6.601205E0,3.7593412E0,2.585208E0],"tree_param":{"num_deleted":"0","num_feature":"13","num_nodes":"29","size_leaf_vector":"1"}},{"base_weights":[-1.9843588E-2,-1.3544893E-1,1.3781893E-1,-6.106598E-2,-8.079687E-1,-3.3474872E-3,5.667371E-1,3.1165096E-1,-1.5969081E-1,-2.9427906E-2,-1.03377245E-1,3.1529036E-1,-3.108482E-1,9.935544E-2,-5.094689E-2,-4.8094735E-1,7.5754446E-1,-8.399547E-2,-8.535135E-2,3.539185E-2,8.826032E-1,2.4105166E-1,-6.5819585E-1,-5.722186E-2,2.946018E-1,2.0186432E-2,-9.2856385E-2,1.9853244E-2,1.1035216E-1,-7.699097E-2,1.9115169E-3,8.6007535E-2,-1.9296562E-2,1.6945124E-2,1.0321907E-1,-6.9641225E-2,1.13451354E-1,8.2396314E-4,-1.0187628E-1,8.770427E-2,-3.6645442E-2],"categories":[],"categories_nodes":[],"categories_segments":[],"categories_sizes":[],"default_left":[0,0,0,0,0,0,0,0,0,0,0,0,0,0,0,0,0,0,0,0,0,0,0,0,0,0,0,0,0,0,0,0,0,0,0,0,0,0,0,0,0],"id":18,"left_children":[1,3,5,7,9,11,13,15,17,-1,-1,19,21,-1,23,25,27,-1,29,31,33,35,37,-1,39,-1,-1,-1,-1,-1,-1,-1,-1,-1,-1,-1,-1,-1,-1,-1,-1],"loss_changes":[1.5362588E0,2.3789616E0,2.1646774E0,1.6962167E0,2.4704432E-1,2.8286214E0,2.3840501E0,3.7962828E0,1.7528584E0,0E0,0E0,2.2208748E0,2.973934E0,0E0,9.9138373E-1,1.4429573E0,1.0579653E0,0E0,2.4202943E0,2.1507006E0,3.2050276E-1,6.154447E0,2.2386217E0,0E0,1.633235E0,0E0,0E0,0E0,0E0,0E0,0E0,0E0,0E0,0E0,0E0,0E0,0E0,0E0,0E0,0E0,0E0],"parents":[2147483647,0,0,1,1,2,2,3,3,4,4,5,5,6,6,7,7,8,8,11,11,12,12,14,14,15,15,16,16,18,18,19,19,20,20,21,21,22,22,24,24],"right_children":[2,4,6,8,10,12,14,16,18,-1,-1,20,22,-1,24,26,28,-1,30,32,34,36,38,-1,40,-1,-1,-1,-1,-1,-1,-1,-1,-1,-1,-1,-1,-1,-1,-1,-1],"split_conditions":[2.0368001E0,1.8645182E0,5.3268014E-3,-2.6648121E-2,2.9513908E-3,1.9418086E-3,1.0630896E-2,-1.4676528E-2,-1.729152E-2,-2.9427906E-2,-1.03377245E-1,3.1891626E-3,2.290951E-4,9.935544E-2,1.5822785E-1,5.6897026E-1,-3.990133E-3,-8.399547E-2,-2.049942E-2,-9.891208E-3,-1.8808849E-3,-9.264225E-4,-2.6597956E-3,-5.722186E-2,1.9510572E-1,2.0186432E-2,-9.2856385E-2,1.9853244E-2,1.1035216E-1,-7.699097E-2,1.9115169E-3,8.6007535E-2,-1.9296562E-2,1.6945124E-2,1.0321907E-1,-6.9641225E-2,1.13451354E-1,8.2396314E-4,-1.0187628E-1,8.770427E-2,-3.6645442E-2],"split_indices":[12,12,7,9,1,0,7,5,1,0,0,2,2,0,10,11,2,0,8,2,1,6,3,0,10,0,0,0,0,0,0,0,0,0,0,0,0,0,0,0,0],"split_type":[0,0,0,0,0,0,0,0,0,0,0,0,0,0,0,0,0,0,0,0,0,0,0,0,0,0,0,0,0,0,0,0,0,0,0,0,0,0,0,0,0],"sum_hessian":[8.2262314E1,4.754272E1,3.4719593E1,4.379018E1,3.7525394E0,2.6868706E1,7.8508873E0,8.71082E0,3.507936E1,1.8491316E0,1.9034078E0,1.3182955E1,1.3685751E1,4.2829027E0,3.5679846E0,3.107848E0,5.602972E0,2.4412372E0,3.2638123E1,9.539018E0,3.643937E0,5.4045286E0,8.281222E0,1.160843E0,2.4071417E0,1.4480143E0,1.6598337E0,2.7436898E0,2.859282E0,3.4778981E0,2.9160225E1,1.4686875E0,8.070331E0,1.0016072E0,2.64233E0,2.7449446E0,2.659584E0,3.2504914E0,5.0307307E0,1.1059691E0,1.3011725E0],"tree_param":{"num_deleted":"0","num_feature":"13","num_nodes":"41","size_leaf_vector":"1"}},{"base_weights":[-1.8023519E-2,-7.664289E-2,5.1879515E-3,5.818644E-1,-3.2894444E-2,3.793347E-3,8.567352E-2,2.0108987E-2,-6.7101836E-1,8.851341E-2,-3.720352E-1,-2.4194201E-2,-1.07785664E-1,4.6156626E-3,9.924527E-2,-6.2120616E-2,5.647375E-2,-5.2197706E-2,5.015987E-2],"categories":[],"categories_nodes":[],"categories_segments":[],"categories_sizes":[],"default_left":[0,0,0,0,0,0,0,0,0,0,0,0,0,0,0,0,0,0,0],"id":19,"left_children":[1,-1,3,5,7,-1,-1,9,11,13,15,17,-1,-1,-1,-1,-1,-1,-1],"loss_changes":[1.4343966E0,0E0,1.7948982E0,7.243929E-1,2.6109579E0,0E0,0E0,1.9610046E0,1.5314455E0,2.328413E0,2.887599E0,1.1277019E0,0E0,0E0,0E0,0E0,0E0,0E0,0E0],"parents":[2147483647,0,0,2,2,3,3,4,4,7,7,8,8,9,9,10,10,11,11],"right_children":[2,-1,4,6,8,-1,-1,10,12,14,16,18,-1,-1,-1,-1,-1,-1,-1],"split_conditions":[-2.43545E-2,-7.664289E-2,-1.2003723E-2,1.1501765E0,3.4863096E-1,3.793347E-3,8.567352E-2,1.5668096E-2,2.17249E-3,3.3205095E-1,2.700584E-1,3.7728995E-4,-1.07785664E-1,4.6156626E-3,9.924527E-2,-6.2120616E-2,5.647375E-2,-5.2197706E-2,5.015987E-2],"split_indices":[7,0,7,11,10,0,0,4,9,10,10,2,0,0,0,0,0,0,0],"split_type":[0,0,0,0,0,0,0,0,0,0,0,0,0,0,0,0,0,0,0],"sum_hessian":[8.134252E1,1.4837182E0,7.98588E1,4.062459E0,7.579634E1,1.7457896E0,2.3166692E0,7.087764E1,4.9187045E0,6.1009598E1,9.868042E0,2.3082814E0,2.610423E0,5.9282784E1,1.7268109E0,8.060821E0,1.8072214E0,1.1894517E0,1.1188298E0],"tree_param":{"num_deleted":"0","num_feature":"13","num_nodes":"19","size_leaf_vector":"1"}},{"base_weights":[-1.6361468E-2,5.7182886E-2,-2.4826244E-1,-3.147148E-2,6.871418E-1,-8.4135497E-1,-6.1316755E-2,7.498608E-2,-5.3049535E-1,1.5063724E-1,8.668243E-1,-9.8180726E-2,-2.0110426E-2,4.226416E-1,-4.043297E-1,-1.6813663E-1,4.458785E-1,8.129056E-2,-7.7950704E-1,5.2078318E-2,-3.0182919E-2,1.5123908E-2,1.0145485E-1,8.986216E-2,1.2073003E-1,-5.9323055E-1,3.9400764E-2,5.7310937E-3,-8.124806E-2,7.249654E-2,-1.04258815E-2,-6.277576E-2,7.2287045E-2,-3.0380163E-2,-1.11721195E-1,-5.269555E-2,6.2688656E-2,-8.452486E-2,-8.059742E-3],"categories":[],"categories_nodes":[],"categories_segments":[],"categories_sizes":[],"default_left":[0,0,0,0,0,0,0,0,0,0,0,0,0,0,0,0,0,0,0,0,0,0,0,0,0,0,0,0,0,0,0,0,0,0,0,0,0,0,0],"id":20,"left_children":[1,3,5,7,9,11,13,15,17,19,21,-1,-1,23,25,27,29,31,33,-1,-1,-1,-1,-1,35,37,-1,-1,-1,-1,-1,-1,-1,-1,-1,-1,-1,-1,-1],"loss_changes":[1.4110024E0,3.5397055E0,2.15561E0,3.0242271E0,6.228111E-1,2.245102E-1,2.8625708E0,4.329008E0,1.5869722E0,6.882729E-1,4.4319534E-1,0E0,0E0,9.282533E-1,1.7418227E0,4.291669E0,2.985666E0,2.1818671E0,8.176575E-1,0E0,0E0,0E0,0E0,0E0,2.156228E0,1.0281773E0,0E0,0E0,0E0,0E0,0E0,0E0,0E0,0E0,0E0,0E0,0E0,0E0,0E0],"parents":[2147483647,0,0,1,1,2,2,3,3,4,4,5,5,6,6,7,7,8,8,9,9,10,10,13,13,14,14,15,15,16,16,17,17,18,18,24,24,25,25],"right_children":[2,4,6,8,10,12,14,16,18,20,22,-1,-1,24,26,28,30,32,34,-1,-1,-1,-1,-1,36,38,-1,-1,-1,-1,-1,-1,-1,-1,-1,-1,-1,-1,-1],"split_conditions":[9.547027E-3,5.6025395E-3,-1.0212091E-2,3.009241E-3,-7.176262E-3,2.4428387E-1,-8.926959E-4,-1.2942699E-3,1.0792344E0,7.0060967E-3,-8.059901E-3,-9.8180726E-2,-2.0110426E-2,1.2083781E-3,4.197854E-2,-3.391894E-3,2.3783478E-3,-4.433259E-3,4.492596E-3,5.2078318E-2,-3.0182919E-2,1.5123908E-2,1.0145485E-1,8.986216E-2,2.7211304E-3,2.6719768E0,3.9400764E-2,5.7310937E-3,-8.124806E-2,7.249654E-2,-1.04258815E-2,-6.277576E-2,7.2287045E-2,-3.0380163E-2,-1.11721195E-1,-5.269555E-2,6.2688656E-2,-8.452486E-2,-8.059742E-3],"split_indices":[6,6,4,6,0,10,0,6,12,6,3,0,0,9,9,6,7,1,4,0,0,0,0,0,5,12,0,0,0,0,0,0,0,0,0,0,0,0,0],"split_type":[0,0,0,0,0,0,0,0,0,0,0,0,0,0,0,0,0,0,0,0,0,0,0,0,0,0,0,0,0,0,0,0,0,0,0,0,0,0,0],"sum_hessian":[8.0900055E1,6.1993156E1,1.89069E1,5.517798E1,6.8151765E0,3.6923244E0,1.5214576E1,4.6176754E1,9.001226E0,2.171064E0,4.6441126E0,2.5905585E0,1.1017659E0,6.214445E0,9.000131E0,2.8223024E1,1.795373E1,2.7987206E0,6.2025056E0,1.1111149E0,1.059949E0,1.1409702E0,3.5031426E0,1.6448344E0,4.5696106E0,7.4857793E0,1.5143516E0,2.1582607E1,6.640418E0,1.1700319E1,6.2534094E0,1.3396915E0,1.459029E0,3.3637676E0,2.8387382E0,1.9865276E0,2.583083E0,4.583584E0,2.9021952E0],"tree_param":{"num_deleted":"0","num_feature":"13","num_nodes":"39","size_leaf_vector":"1"}},{"base_weights":[-1.596701E-2,-8.326834E-2,5.1031695E-3,3.2534014E-2,-6.38879E-1,-3.1335852E-1,9.37628E-2,-7.819829E-2,-1.964981E-2,6.2313914E-1,-6.248614E-1,2.93685E-1,-1.0484266E-1,-6.655936E-3,9.6010566E-2,-8.258919E-2,9.207493E-3,3.5518087E-2,-6.3259676E-2,1.6988961E-2,-3.4979973E-2],"categories":[],"categories_nodes":[],"categories_segments":[],"categories_sizes":[],"default_left":[0,0,0,0,0,0,0,0,0,0,0,0,0,0,0,0,0,0,0,0,0],"id":21,"left_children":[1,-1,3,5,7,9,11,-1,-1,13,15,17,19,-1,-1,-1,-1,-1,-1,-1,-1],"loss_changes":[1.3967296E0,0E0,1.4318217E0,1.6721139E0,5.6005836E-2,3.8596282E0,2.6779652E0,0E0,0E0,8.703253E-1,1.4345582E0,2.132242E0,2.359798E0,0E0,0E0,0E0,0E0,0E0,0E0,0E0,0E0],"parents":[2147483647,0,0,2,2,3,3,4,4,5,5,6,6,9,9,10,10,11,11,12,12],"right_children":[2,-1,4,6,8,10,12,-1,-1,14,16,18,20,-1,-1,-1,-1,-1,-1,-1,-1],"split_conditions":[-8.119048E-3,-8.326834E-2,3.9037492E-2,-1.229867E-2,7.5252833E-6,-6.7195278E-3,1.960847E-3,-7.819829E-2,-1.964981E-2,-1.7452423E-2,2.6440756E0,3.9122272E-1,2.9236267E-6,-6.655936E-3,9.6010566E-2,-8.258919E-2,9.207493E-3,3.5518087E-2,-6.3259676E-2,1.6988961E-2,-3.4979973E-2],"split_indices":[10,0,1,4,7,2,0,0,0,2,12,10,5,0,0,0,0,0,0,0,0],"split_type":[0,0,0,0,0,0,0,0,0,0,0,0,0,0,0,0,0,0,0,0,0],"sum_hessian":[7.991882E1,1.0411848E0,7.887764E1,7.656575E1,2.3118885E0,1.0895764E1,6.566998E1,1.1667824E0,1.1451061E0,2.4698913E0,8.425874E0,3.248793E1,3.3182056E1,1.0740386E0,1.3958528E0,6.4619536E0,1.9639195E0,3.1043503E1,1.4444263E0,1.5784904E1,1.7397152E1],"tree_param":{"num_deleted":"0","num_feature":"13","num_nodes":"21","size_leaf_vector":"1"}},{"base_weights":[-1.7167386E-2,-1.2517756E-1,1.314212E-1,-5.516678E-2,-7.610978E-1,-3.6359218E-1,2.4204852E-1,-7.219088E-2,-4.076968E-3,-2.7819682E-2,-9.70686E-2,3.8888555E-2,-6.26599E-1,3.4501734E-1,-4.9664226E-1,4.4455883E-1,-1.10414125E-1,-9.482383E-2,1.5624987E-2,8.7447715E-1,1.9597705E-1,5.8753355E-3,-8.963824E-2,-3.5475925E-2,7.1793914E-2,1.6111111E-2,-2.8820772E-2,1.0765683E-1,-3.0177232E-4,-3.437097E-2,3.524418E-2],"categories":[],"categories_nodes":[],"categories_segments":[],"categories_sizes":[],"default_left":[0,0,0,0,0,0,0,0,0,0,0,0,0,0,0,0,0,0,0,0,0,0,0,0,0,0,0,0,0,0,0],"id":22,"left_children":[1,3,5,7,9,11,13,-1,15,-1,-1,-1,17,19,21,23,25,-1,-1,27,29,-1,-1,-1,-1,-1,-1,-1,-1,-1,-1],"loss_changes":[1.3070871E0,2.0540671E0,1.9684377E0,1.4784486E0,1.9461513E-1,1.5640963E0,2.3517704E0,0E0,2.0241084E0,0E0,0E0,0E0,1.4894447E0,1.8605244E0,9.2228657E-1,2.031548E0,1.700733E0,0E0,0E0,9.550524E-1,1.9266787E0,0E0,0E0,0E0,0E0,0E0,0E0,0E0,0E0,0E0,0E0],"parents":[2147483647,0,0,1,1,2,2,3,3,4,4,5,5,6,6,8,8,12,12,13,13,14,14,15,15,16,16,19,19,20,20],"right_children":[2,4,6,8,10,12,14,-1,16,-1,-1,-1,18,20,22,24,26,-1,-1,28,30,-1,-1,-1,-1,-1,-1,-1,-1,-1,-1],"split_conditions":[2.0368001E0,1.8645182E0,-5.9866384E-3,-2.809465E-2,2.9513908E-3,-1.3594597E-2,1.0027917E1,-7.219088E-2,-2.6648121E-2,-2.7819682E-2,-9.70686E-2,3.8888555E-2,5.9166066E-3,-3.5043524E-3,3.243788E-4,-1.4676528E-2,8.1578165E-1,-9.482383E-2,1.5624987E-2,6.877666E-3,1.5822785E-1,5.8753355E-3,-8.963824E-2,-3.5475925E-2,7.1793914E-2,1.6111111E-2,-2.8820772E-2,1.0765683E-1,-3.0177232E-4,-3.437097E-2,3.524418E-2],"split_indices":[12,12,7,1,1,7,12,0,9,0,0,0,5,3,2,5,11,0,0,1,10,0,0,0,0,0,0,0,0,0,0],"split_type":[0,0,0,0,0,0,0,0,0,0,0,0,0,0,0,0,0,0,0,0,0,0,0,0,0,0,0,0,0,0,0],"sum_hessian":[7.9418076E1,4.607984E1,3.3338238E1,4.248884E1,3.5910008E0,5.6719356E0,2.76663E1,2.0895255E0,4.0399315E1,1.791243E0,1.7997578E0,1.3450514E0,4.3268843E0,2.4749332E1,2.9169672E0,7.1313863E0,3.326793E1,2.9171042E0,1.4097799E0,4.367297E0,2.0382036E1,1.5778024E0,1.3391647E0,1.7415907E0,5.389796E0,1.3201109E1,2.0066818E1,3.3653712E0,1.0019261E0,4.3120294E0,1.6070007E1],"tree_param":{"num_deleted":"0","num_feature":"13","num_nodes":"31","size_leaf_vector":"1"}},{"base_weights":[-1.7932741E-2,-7.3646985E-2,4.2572077E-3,5.355765E-1,-3.065936E-2,2.7377948E-3,7.973349E-2,1.8691545E-2,-6.3236755E-1,2.4781942E-1,-8.10297E-2,-1.5974728E-2,-1.0251335E-1,-1.6707162E-3,9.100159E-2,-7.89956E-2,2.281947E-3,-4.7279056E-2,4.6993367E-2],"categories":[],"categories_nodes":[],"categories_segments":[],"categories_sizes":[],"default_left":[0,0,0,0,0,0,0,0,0,0,0,0,0,0,0,0,0,0,0],"id":23,"left_children":[1,-1,3,5,7,-1,-1,9,11,13,15,17,-1,-1,-1,-1,-1,-1,-1],"loss_changes":[1.275819E0,0E0,1.4713242E0,6.2867594E-1,2.2250829E0,0E0,0E0,1.6161951E0,1.3583598E0,3.768979E0,3.656812E0,9.3823105E-1,0E0,0E0,0E0,0E0,0E0,0E0,0E0],"parents":[2147483647,0,0,2,2,3,3,4,4,7,7,8,8,9,9,10,10,11,11],"right_children":[2,-1,4,6,8,-1,-1,10,12,14,16,18,-1,-1,-1,-1,-1,-1,-1],"split_conditions":[-2.43545E-2,-7.3646985E-2,-1.2003723E-2,1.1501765E0,3.4863096E-1,2.7377948E-3,7.973349E-2,-4.0695937E-3,2.17249E-3,2.5235214E0,-1.8808849E-3,3.7728995E-4,-1.0251335E-1,-1.6707162E-3,9.100159E-2,-7.89956E-2,2.281947E-3,-4.7279056E-2,4.6993367E-2],"split_indices":[7,0,7,11,10,0,0,1,9,11,1,2,0,0,0,0,0,0,0],"split_type":[0,0,0,0,0,0,0,0,0,0,0,0,0,0,0,0,0,0,0],"sum_hessian":[7.8820595E1,1.3969316E0,7.742367E1,3.8900905E0,7.353358E1,1.6980171E0,2.1920733E0,6.885515E1,4.6784263E0,2.04295E1,4.8425648E1,2.2258806E0,2.4525454E0,1.5294572E1,5.1349277E0,5.343243E0,4.3082405E1,1.1612006E0,1.0646801E0],"tree_param":{"num_deleted":"0","num_feature":"13","num_nodes":"19","size_leaf_vector":"1"}},{"base_weights":[-1.726999E-2,6.639985E-3,-6.664046E-2,-3.653833E-2,3.9515337E-1,4.4070944E-2,-7.201942E-1,7.4671495E-1,-6.848997E-2,-4.878235E-2,4.427665E-1,4.531803E-3,-8.67835E-1,9.61408E-1,9.466011E-3,-9.448173E-2,1.3887235E-3,1.00285105E-1,1.0187169E-2,-1.0878531E-1,-3.0387253E-2,2.8963516E-2,1.0907637E-1],"categories":[],"categories_nodes":[],"categories_segments":[],"categories_sizes":[],"default_left":[0,0,0,0,0,0,0,0,0,0,0,0,0,0,0,0,0,0,0,0,0,0,0],"id":24,"left_children":[1,3,-1,5,7,9,11,13,-1,15,17,-1,19,21,-1,-1,-1,-1,-1,-1,-1,-1,-1],"loss_changes":[1.2362809E0,1.3151772E0,0E0,3.927866E0,3.488371E0,2.397707E0,8.8861704E-1,8.0399513E-1,0E0,2.987073E0,2.2316844E0,0E0,4.572425E-1,9.253359E-2,0E0,0E0,0E0,0E0,0E0,0E0,0E0,0E0,0E0],"parents":[2147483647,0,0,1,1,3,3,4,4,5,5,6,6,7,7,9,9,10,10,12,12,13,13],"right_children":[2,4,-1,6,8,10,12,14,-1,16,18,-1,20,22,-1,-1,-1,-1,-1,-1,-1,-1,-1],"split_conditions":[3.2082085E-2,3.9113387E-2,-6.664046E-2,3.1989817E-2,8.724124E-3,1.0608461E-2,3.5208747E-2,5.0546367E-2,-6.848997E-2,5.1478572E-2,1.5023244E-2,4.531803E-3,4.308315E-2,4.3778416E-2,9.466011E-3,-9.448173E-2,1.3887235E-3,1.00285105E-1,1.0187169E-2,-1.0878531E-1,-3.0387253E-2,2.8963516E-2,1.0907637E-1],"split_indices":[5,9,0,9,0,4,8,8,0,10,4,0,8,8,0,0,0,0,0,0,0,0,0],"split_type":[0,0,0,0,0,0,0,0,0,0,0,0,0,0,0,0,0,0,0,0,0,0,0],"sum_hessian":[7.836812E1,7.65387E1,1.8294259E0,6.969854E1,6.8401523E0,6.3184097E1,6.514446E0,5.3932567E0,1.4468954E0,5.1960518E1,1.122358E1,1.1653253E0,5.3491206E0,3.7004368E0,1.69282E0,2.4764626E0,4.9484055E1,3.51185E0,7.7117305E0,3.1796868E0,2.1694338E0,1.1204984E0,2.5799384E0],"tree_param":{"num_deleted":"0","num_feature":"13","num_nodes":"23","size_leaf_vector":"1"}},{"base_weights":[-1.7049221E-2,7.860352E-3,-6.057768E-1,-2.9772446E-1,6.0668144E-2,-7.4049786E-2,-1.8299645E-2,4.8265183E-1,-6.335084E-1,-3.202156E-2,3.566053E-1,-1.4048367E-2,7.405069E-2,-7.999789E-1,2.7565762E-2,4.977878E-2,-6.7118996E-1,-5.2575447E-2,4.6401358E-1,3.5897016E-3,-1.0639111E-1,-2.2730922E-2,2.2375187E-2,3.9723556E-2,-9.940329E-2,7.62094E-2,8.753886E-3],"categories":[],"categories_nodes":[],"categories_segments":[],"categories_sizes":[],"default_left":[0,0,0,0,0,0,0,0,0,0,0,0,0,0,0,0,0,0,0,0,0,0,0,0,0,0,0],"id":25,"left_children":[1,3,5,7,9,-1,-1,11,13,15,17,-1,-1,19,-1,21,23,-1,25,-1,-1,-1,-1,-1,-1,-1,-1],"loss_changes":[1.1621205E0,1.2558484E0,4.7691345E-2,3.3116693E0,1.8281939E0,0E0,0E0,7.4972844E-1,1.4998288E0,2.71837E0,1.7488713E0,0E0,0E0,1.6709123E0,0E0,2.2903912E0,2.4284282E0,0E0,1.5814803E0,0E0,0E0,0E0,0E0,0E0,0E0,0E0,0E0],"parents":[2147483647,0,0,1,1,2,2,3,3,4,4,7,7,8,8,9,9,10,10,13,13,15,15,16,16,18,18],"right_children":[2,4,6,8,10,-1,-1,12,14,16,18,-1,-1,20,-1,22,24,-1,26,-1,-1,-1,-1,-1,-1,-1,-1],"split_conditions":[3.9037492E-2,-1.229867E-2,7.5252833E-6,-5.13512E-3,6.833242E-3,-7.4049786E-2,-1.8299645E-2,-3.4819644E-2,2.7671227E-1,4.4249403E-3,4.3146953E-1,-1.4048367E-2,7.405069E-2,-3.55039E-2,2.7565762E-2,1.627466E-1,-3.5742756E-3,-5.2575447E-2,1.4173628E-2,3.5897016E-3,-1.0639111E-1,-2.2730922E-2,2.2375187E-2,3.9723556E-2,-9.940329E-2,7.62094E-2,8.753886E-3],"split_indices":[1,4,7,2,5,0,0,9,10,5,11,0,0,9,0,10,0,0,5,0,0,0,0,0,0,0,0],"split_type":[0,0,0,0,0,0,0,0,0,0,0,0,0,0,0,0,0,0,0,0,0,0,0,0,0,0,0],"sum_hessian":[7.792005E1,7.570361E1,2.216437E0,1.0471266E1,6.523235E1,1.1109364E0,1.1055007E0,3.0185764E0,7.4526896E0,5.035316E1,1.4879188E1,1.0167267E0,2.0018497E0,6.400786E0,1.0519037E0,4.545764E1,4.8955193E0,1.1919982E0,1.3687189E1,1.7434027E0,4.657383E0,1.741465E1,2.8042994E1,1.0825311E0,3.8129883E0,7.067267E0,6.619922E0],"tree_param":{"num_deleted":"0","num_feature":"13","num_nodes":"27","size_leaf_vector":"1"}},{"base_weights":[-1.730714E-2,-7.012972E-2,3.4192847E-3,1.758997E-1,-9.595611E-2,-6.9518983E-1,3.354984E-1,5.0928754E-1,-2.1709715E-1,5.751343E-3,-1.0970497E-1,5.3776056E-1,-2.1597408E-1,-1.8581787E-2,1.0086223E-1,-2.9584017E-1,3.4004104E-1,1.7509433E-2,7.887618E-2,-5.7101477E-2,4.4652972E-2,4.1389175E-2,-8.321211E-2,7.6394053E-3,-4.4774443E-2,6.998613E-2,-5.520103E-2],"categories":[],"categories_nodes":[],"categories_segments":[],"categories_sizes":[],"default_left":[0,0,0,0,0,0,0,0,0,0,0,0,0,0,0,0,0,0,0,0,0,0,0,0,0,0,0],"id":26,"left_children":[1,-1,3,5,7,9,11,13,15,-1,-1,17,19,21,-1,23,25,-1,-1,-1,-1,-1,-1,-1,-1,-1,-1],"loss_changes":[1.1135607E0,0E0,1.3378755E0,4.198963E0,3.743143E0,1.4976323E0,2.880462E0,2.2754123E0,1.9424129E0,0E0,0E0,1.5385633E0,1.9870656E0,2.1541536E0,0E0,2.144351E0,2.2043805E0,0E0,0E0,0E0,0E0,0E0,0E0,0E0,0E0,0E0,0E0],"parents":[2147483647,0,0,2,2,3,3,4,4,5,5,6,6,7,7,8,8,11,11,12,12,13,13,15,15,16,16],"right_children":[2,-1,4,6,8,10,12,14,16,-1,-1,18,20,22,-1,24,26,-1,-1,-1,-1,-1,-1,-1,-1,-1,-1],"split_conditions":[-2.43545E-2,-7.012972E-2,-1.5547967E-3,-6.3146516E-3,-9.891208E-3,-2.0447425E-3,6.829371E-3,-1.4813169E-2,3.9113387E-2,5.751343E-3,-1.0970497E-1,-5.414347E-3,-5.412727E-3,1.3055138E-2,1.0086223E-1,-4.1140374E-3,6.1366293E-3,1.7509433E-2,7.887618E-2,-5.7101477E-2,4.4652972E-2,4.1389175E-2,-8.321211E-2,7.6394053E-3,-4.4774443E-2,6.998613E-2,-5.520103E-2],"split_indices":[7,0,7,6,2,4,2,2,9,0,0,7,3,3,0,1,0,0,0,0,0,0,0,0,0,0,0],"split_type":[0,0,0,0,0,0,0,0,0,0,0,0,0,0,0,0,0,0,0,0,0,0,0,0,0,0,0],"sum_hessian":[7.7379684E1,1.3100777E0,7.606961E1,2.752534E1,4.854427E1,3.7425647E0,2.3782774E1,7.5614986E0,4.098277E1,1.6008937E0,2.1416707E0,1.741894E1,6.3638353E0,4.1437454E0,3.4177532E0,3.631868E1,4.664092E0,7.819009E0,9.59993E0,4.233283E0,2.130552E0,3.0262508E0,1.1174946E0,1.0669837E1,2.5648842E1,3.4770339E0,1.1870584E0],"tree_param":{"num_deleted":"0","num_feature":"13","num_nodes":"27","size_leaf_vector":"1"}},{"base_weights":[-1.6351886E-2,3.3726462E-3,-7.234241E-2,-1.7192961E-1,1.0206952E-1,3.6552556E-2,-7.727987E-1,5.7007813E-1,-4.9202204E-2,-3.3716792E-1,4.4639683E-1,2.6750425E-2,-1.0922669E0,7.734435E-1,-3.7688855E-2,5.9962034E-1,-1.4703628E-1,-9.2481755E-2,-4.523596E-3,6.7883514E-2,-5.646157E-2,-1.190741E-1,-3.1643577E-2,-2.2105077E-2,9.079804E-2,3.8817693E-3,8.888905E-2,-8.373767E-2,9.208626E-3],"categories":[],"categories_nodes":[],"categories_segments":[],"categories_sizes":[],"default_left":[0,0,0,0,0,0,0,0,0,0,0,0,0,0,0,0,0,0,0,0,0,0,0,0,0,0,0,0,0],"id":27,"left_children":[1,3,-1,5,7,9,11,13,15,17,19,-1,21,23,-1,25,27,-1,-1,-1,-1,-1,-1,-1,-1,-1,-1,-1,-1],"loss_changes":[1.085129E0,1.3414676E0,0E0,3.5277295E0,3.5384078E0,3.4733677E0,2.698717E0,2.639304E0,2.5252054E0,2.0025587E0,2.9159448E0,0E0,6.1476707E-2,1.5873265E0,0E0,8.1351507E-1,5.716936E0,0E0,0E0,0E0,0E0,0E0,0E0,0E0,0E0,0E0,0E0,0E0,0E0],"parents":[2147483647,0,0,1,1,3,3,4,4,5,5,6,6,7,7,8,8,9,9,10,10,12,12,13,13,15,15,16,16],"right_children":[2,4,-1,6,8,10,12,14,16,18,20,-1,22,24,-1,26,28,-1,-1,-1,-1,-1,-1,-1,-1,-1,-1,-1,-1],"split_conditions":[5.246934E-2,-1.2942699E-3,-7.234241E-2,-3.391894E-3,1.2549052E-3,9.187568E-4,-2.3416353E-2,2.3187432E-3,-4.1309965E-4,1.2546955E-1,1.9114217E-2,2.6750425E-2,9.198182E-4,-3.8392432E-3,-3.7688855E-2,-8.666548E-4,3.497698E-3,-9.2481755E-2,-4.523596E-3,6.7883514E-2,-5.646157E-2,-1.190741E-1,-3.1643577E-2,-2.2105077E-2,9.079804E-2,3.8817693E-3,8.888905E-2,-8.373767E-2,9.208626E-3],"split_indices":[2,6,0,6,6,7,8,2,2,10,0,0,2,2,0,0,2,0,0,0,0,0,0,0,0,0,0,0,0],"split_type":[0,0,0,0,0,0,0,0,0,0,0,0,0,0,0,0,0,0,0,0,0,0,0,0,0,0,0,0,0],"sum_hessian":[7.663066E1,7.55192E1,1.1114585E0,2.6935404E1,4.85838E1,2.0694313E1,6.2410903E0,1.1191295E1,3.739251E1,1.091693E1,9.777382E0,1.5045136E0,4.736577E0,9.36365E0,1.8276448E0,4.227479E0,3.3165028E1,2.9037845E0,8.013145E0,8.216837E0,1.560545E0,3.7285314E0,1.0080456E0,1.0391589E0,8.3244915E0,1.8245157E0,2.4029632E0,7.8886967E0,2.5276333E1],"tree_param":{"num_deleted":"0","num_feature":"13","num_nodes":"29","size_leaf_vector":"1"}},{"base_weights":[-1.7963089E-2,7.170702E-3,-5.3252184E-1,-3.7425548E-2,4.676132E-1,-1.2701198E-2,-7.391729E-2,2.6626222E-2,-5.890626E-1,6.948064E-1,-3.4182277E-2,-5.8194112E-2,3.8764465E-1,2.5893655E-3,-7.0874345E-1,9.338575E-2,9.65952E-3,-7.182838E-2,9.584892E-4,5.7751246E-2,-3.337091E-2,-8.7318115E-2,3.5921918E-4],"categories":[],"categories_nodes":[],"categories_segments":[],"categories_sizes":[],"default_left":[0,0,0,0,0,0,0,0,0,0,0,0,0,0,0,0,0,0,0,0,0,0,0],"id":28,"left_children":[1,3,5,7,9,-1,-1,11,13,15,-1,17,19,-1,21,-1,-1,-1,-1,-1,-1,-1,-1],"loss_changes":[9.966459E-1,1.5407069E0,2.0682251E-1,2.4379718E0,1.4557105E0,0E0,0E0,1.9327428E0,5.4643893E-1,6.9663644E-1,0E0,2.305718E0,1.8360256E0,0E0,7.1081376E-1,0E0,0E0,0E0,0E0,0E0,0E0,0E0,0E0],"parents":[2147483647,0,0,1,1,2,2,3,3,4,4,7,7,8,8,9,9,11,11,12,12,14,14],"right_children":[2,4,6,8,10,-1,-1,12,14,16,-1,18,20,-1,22,-1,-1,-1,-1,-1,-1,-1,-1],"split_conditions":[4.3060027E-2,3.948693E-2,4.1162074E-3,3.1989817E-2,8.531395E-3,-1.2701198E-2,-7.391729E-2,1.0608461E-2,3.5208747E-2,4.9045417E-2,-3.4182277E-2,-1.4813169E-2,1.4802172E-2,2.5893655E-3,2.0695975E-2,9.338575E-2,9.65952E-3,-7.182838E-2,9.584892E-4,5.7751246E-2,-3.337091E-2,-8.7318115E-2,3.5921918E-4],"split_indices":[2,9,7,9,4,0,0,4,8,8,0,2,3,0,6,0,0,0,0,0,0,0,0],"split_type":[0,0,0,0,0,0,0,0,0,0,0,0,0,0,0,0,0,0,0,0,0,0,0],"sum_hessian":[7.5768105E1,7.317969E1,2.588421E0,6.755532E1,5.6243653E0,1.4188474E0,1.1695737E0,6.1380077E1,6.1752415E0,4.5022783E0,1.1220869E0,5.038181E1,1.0998268E1,1.1336832E0,5.0415583E0,2.8159242E0,1.6863544E0,3.7978334E0,4.6583977E1,8.864456E0,2.133812E0,3.912569E0,1.1289893E0],"tree_param":{"num_deleted":"0","num_feature":"13","num_nodes":"23","size_leaf_vector":"1"}},{"base_weights":[-1.8235587E-2,5.6674564E-4,-6.8306066E-2,-1.574312E-1,8.867256E-2,4.107729E-2,-7.3386467E-1,5.9694535E-1,-3.1304374E-2,-2.990309E-1,4.1169646E-1,2.5183095E-2,-1.0445832E0,-8.295657E-3,8.381912E-1,-7.280985E-1,5.5887535E-2,-8.5930504E-2,-3.8432442E-3,6.2734336E-2,-5.2871414E-2,-3.2532204E-2,-1.1413826E-1,5.371226E-2,-4.3597843E-2,9.4511904E-2,1.1495364E-2,-3.0006259E-3,-9.292858E-2,2.8607724E-2,-2.6329806E-2],"categories":[],"categories_nodes":[],"categories_segments":[],"categories_sizes":[],"default_left":[0,0,0,0,0,0,0,0,0,0,0,0,0,0,0,0,0,0,0,0,0,0,0,0,0,0,0,0,0,0,0],"id":29,"left_children":[1,3,-1,5,7,9,11,13,15,17,19,-1,21,23,25,27,29,-1,-1,-1,-1,-1,-1,-1,-1,-1,-1,-1,-1,-1,-1],"loss_changes":[9.5526594E-1,1.061994E0,0E0,3.1555135E0,3.0051515E0,2.80341E0,2.4221475E0,1.3798063E0,2.5055954E0,1.6705092E0,2.4805517E0,0E0,1.5388966E-2,1.0902213E0,4.120083E-1,6.1585236E-1,2.7929416E0,0E0,0E0,0E0,0E0,0E0,0E0,0E0,0E0,0E0,0E0,0E0,0E0,0E0,0E0],"parents":[2147483647,0,0,1,1,3,3,4,4,5,5,6,6,7,7,8,8,9,9,10,10,12,12,13,13,14,14,15,15,16,16],"right_children":[2,4,-1,6,8,10,12,14,16,18,20,-1,22,24,26,28,30,-1,-1,-1,-1,-1,-1,-1,-1,-1,-1,-1,-1,-1,-1],"split_conditions":[3.4702636E-2,-1.2942699E-3,-6.8306066E-2,-3.391894E-3,-4.1309965E-4,9.187568E-4,-2.3416353E-2,-1.34515725E-2,-1.4952075E-2,1.2546955E-1,1.9114217E-2,2.5183095E-2,0E0,-9.108443E-3,1.5668096E-2,-3.0483617E-2,2.98513E-3,-8.5930504E-2,-3.8432442E-3,6.2734336E-2,-5.2871414E-2,-3.2532204E-2,-1.1413826E-1,5.371226E-2,-4.3597843E-2,9.4511904E-2,1.1495364E-2,-3.0006259E-3,-9.292858E-2,2.8607724E-2,-2.6329806E-2],"split_indices":[5,6,0,6,2,7,8,8,4,10,0,0,1,4,4,9,0,0,0,0,0,0,0,0,0,0,0,0,0,0,0],"split_type":[0,0,0,0,0,0,0,0,0,0,0,0,0,0,0,0,0,0,0,0,0,0,0,0,0,0,0,0,0,0,0],"sum_hessian":[7.53887E1,7.4286896E1,1.1018066E0,2.6313221E1,4.7973675E1,2.0263681E1,6.0495386E0,8.402337E0,3.957134E1,1.0667519E1,9.596163E0,1.4953486E0,4.55419E0,2.6698337E0,5.732504E0,3.5834744E0,3.5987865E1,2.6572115E0,8.010306E0,8.076934E0,1.5192288E0,1.057476E0,3.496714E0,1.0609403E0,1.6088935E0,4.7268662E0,1.0056375E0,1.0587844E0,2.5246902E0,2.0969118E1,1.5018745E1],"tree_param":{"num_deleted":"0","num_feature":"13","num_nodes":"31","size_leaf_vector":"1"}},{"base_weights":[-2.0006062E-2,9.644514E-2,-1.280976E-1,-6.397592E-1,1.7917037E-1,-6.1681664E-1,-3.2594394E-2,-9.6512966E-2,1.4182408E-2,-1.4429834E-1,3.978342E-1,-8.808769E-1,2.2863073E-2,8.145987E-2,-1.08631164E-1,1.3100132E-1,-5.669374E-1,1.7989501E-2,6.092415E-1,-2.2285452E-2,-1.2198621E-1,-2.7012616E-1,2.527617E-1,-4.0525675E-2,6.1866995E-2,2.7952015E-2,-9.629224E-2,5.1849324E-2,-4.55679E-2,8.070071E-2,-2.513097E-2,-4.2300463E-2,2.0019565E-2,7.352967E-2,-8.219014E-3],"categories":[],"categories_nodes":[],"categories_segments":[],"categories_sizes":[],"default_left":[0,0,0,0,0,0,0,0,0,0,0,0,0,0,0,0,0,0,0,0,0,0,0,0,0,0,0,0,0,0,0,0,0,0,0],"id":30,"left_children":[1,3,5,7,9,11,13,-1,-1,15,17,19,-1,-1,21,23,25,27,29,-1,-1,31,33,-1,-1,-1,-1,-1,-1,-1,-1,-1,-1,-1,-1],"loss_changes":[9.629767E-1,2.363491E0,1.8280197E0,1.1410922E0,2.460609E0,1.6339927E0,2.2902415E0,0E0,0E0,1.7541643E0,1.6383364E0,8.6483E-1,0E0,0E0,1.9502883E0,2.74958E0,2.2409525E0,2.221565E0,2.4432368E0,0E0,0E0,1.7219335E0,1.7536318E0,0E0,0E0,0E0,0E0,0E0,0E0,0E0,0E0,0E0,0E0,0E0,0E0],"parents":[2147483647,0,0,1,1,2,2,3,3,4,4,5,5,6,6,9,9,10,10,11,11,14,14,15,15,16,16,17,17,18,18,21,21,22,22],"right_children":[2,4,6,8,10,12,14,-1,-1,16,18,20,-1,-1,22,24,26,28,30,-1,-1,32,34,-1,-1,-1,-1,-1,-1,-1,-1,-1,-1,-1,-1],"split_conditions":[-5.2418234E-4,5.1478572E-2,6.759086E-4,-5.908182E-4,-4.818044E-3,4.1161873E-3,-1.1026451E-3,-9.6512966E-2,1.4182408E-2,1.7680734E-3,-1.6255936E-3,-1.7877184E-2,2.2863073E-2,8.145987E-2,2.6719768E0,-7.871115E-3,-1.2003723E-2,-3.4186903E-3,1.4173628E-2,-2.2285452E-2,-1.2198621E-1,2.1101722E-2,-6.768196E-4,-4.0525675E-2,6.1866995E-2,2.7952015E-2,-9.629224E-2,5.1849324E-2,-4.55679E-2,8.070071E-2,-2.513097E-2,-4.2300463E-2,2.0019565E-2,7.352967E-2,-8.219014E-3],"split_indices":[3,10,3,8,7,4,7,0,0,4,6,8,0,0,12,0,7,5,4,0,0,3,2,0,0,0,0,0,0,0,0,0,0,0,0],"split_type":[0,0,0,0,0,0,0,0,0,0,0,0,0,0,0,0,0,0,0,0,0,0,0,0,0,0,0,0,0,0,0,0,0,0,0],"sum_hessian":[7.4521805E1,3.5925556E1,3.8596252E1,2.948869E0,3.297669E1,5.4170346E0,3.317922E1,1.9162862E0,1.0325828E0,1.3437994E1,1.9538692E1,4.09586E0,1.3211744E0,1.9326482E0,3.1246569E1,8.555277E0,4.882718E0,7.374214E0,1.2164478E1,1.9561293E0,2.1397307E0,2.1770546E1,9.476024E0,4.1551332E0,4.4001436E0,1.6499339E0,3.232784E0,3.5395262E0,3.8346877E0,9.94192E0,2.2225585E0,1.6505896E1,5.2646494E0,3.392919E0,6.0831046E0],"tree_param":{"num_deleted":"0","num_feature":"13","num_nodes":"35","size_leaf_vector":"1"}},{"base_weights":[-1.9045826E-2,-5.2540386E-1,3.575212E-3,-3.2316818E-4,-7.78225E-2,-1.9716464E-2,6.774639E-2,1.9067122E-2,-4.4780114E-1,2.591046E-1,-7.487924E-2,-8.586523E-2,1.0889293E-1,5.4993242E-2,-1.3378817E-2,-1.2307345E-2,6.72602E-2,1.0127453E-1,-8.098264E-2],"categories":[],"categories_nodes":[],"categories_segments":[],"categories_sizes":[],"default_left":[0,0,0,0,0,0,0,0,0,0,0,0,0,0,0,0,0,0,0],"id":31,"left_children":[1,3,5,-1,-1,7,-1,9,11,13,15,-1,17,-1,-1,-1,-1,-1,-1],"loss_changes":[8.576077E-1,4.201392E-1,1.1514161E0,0E0,0E0,1.1882521E0,0E0,1.5102731E0,1.452904E0,2.2241275E0,1.8224365E0,0E0,3.6528337E0,0E0,0E0,0E0,0E0,0E0,0E0],"parents":[2147483647,0,0,1,1,2,2,5,5,7,7,8,8,9,9,10,10,12,12],"right_children":[2,4,6,-1,-1,8,-1,10,12,14,16,-1,18,-1,-1,-1,-1,-1,-1],"split_conditions":[-2.809465E-2,-3.207975E-3,3.3102892E-2,-3.2316818E-4,-7.78225E-2,1.8064223E-2,6.774639E-2,-4.0695937E-3,2.192484E-3,3.009241E-3,1.4074359E-2,-8.586523E-2,1.2748988E-2,5.4993242E-2,-1.3378817E-2,-1.2307345E-2,6.72602E-2,1.0127453E-1,-8.098264E-2],"split_indices":[1,0,7,0,0,7,0,1,1,6,7,0,1,0,0,0,0,0,0],"split_type":[0,0,0,0,0,0,0,0,0,0,0,0,0,0,0,0,0,0,0],"sum_hessian":[7.370784E1,2.2015333E0,7.15063E1,1.0485858E0,1.1529474E0,7.00557E1,1.4505996E0,6.511214E1,4.9435654E0,1.7820892E1,4.729125E1,2.53228E0,2.4112856E0,1.0010903E1,7.809989E0,4.521156E1,2.079688E0,1.1638876E0,1.2473979E0],"tree_param":{"num_deleted":"0","num_feature":"13","num_nodes":"19","size_leaf_vector":"1"}},{"base_weights":[-1.6951373E-2,-1.617572E-1,6.1458167E-2,-3.4956732E-1,2.3295264E-1,7.3681647E-1,-3.684604E-2,-5.241482E-1,5.8428586E-1,8.477785E-1,-5.1133245E-1,2.60732E-1,9.742991E-2,2.4200471E-1,-1.9108796E-1,-1.8136838E-1,-9.722806E-1,5.8537564E-4,8.998911E-2,1.0358926E-1,8.001613E-3,-8.9154355E-2,4.502585E-2,7.111462E-2,-2.8774975E-2,-3.4038484E-1,4.3348294E-1,-6.851557E-1,-3.0616928E-2,-6.870028E-2,1.913373E-2,-2.2025088E-2,-1.0966311E-1,-7.451352E-2,3.916412E-2,8.438329E-2,2.9611723E-3,2.159286E-2,-8.925471E-2,-2.6565978E-2,2.9565904E-2],"categories":[],"categories_nodes":[],"categories_segments":[],"categories_sizes":[],"default_left":[0,0,0,0,0,0,0,0,0,0,0,0,0,0,0,0,0,0,0,0,0,0,0,0,0,0,0,0,0,0,0,0,0,0,0,0,0,0,0,0,0],"id":32,"left_children":[1,3,5,7,9,11,13,15,17,19,21,23,-1,25,27,29,31,-1,-1,-1,-1,-1,-1,-1,-1,33,35,37,39,-1,-1,-1,-1,-1,-1,-1,-1,-1,-1,-1,-1],"loss_changes":[8.5379624E-1,2.037171E0,3.2762265E0,3.2858982E0,4.6004677E0,4.5441008E-1,1.9246359E0,2.2698956E0,6.065581E-1,6.91663E-1,2.1355386E0,1.0571243E0,0E0,1.931222E0,2.2527146E0,2.063542E0,3.8244724E-1,0E0,0E0,0E0,0E0,0E0,0E0,0E0,0E0,1.630387E0,2.0428295E0,1.497896E0,1.8189111E0,0E0,0E0,0E0,0E0,0E0,0E0,0E0,0E0,0E0,0E0,0E0,0E0],"parents":[2147483647,0,0,1,1,2,2,3,3,4,4,5,5,6,6,7,7,8,8,9,9,10,10,11,11,13,13,14,14,15,15,16,16,25,25,26,26,27,27,28,28],"right_children":[2,4,6,8,10,12,14,16,18,20,22,24,-1,26,28,30,32,-1,-1,-1,-1,-1,-1,-1,-1,34,36,38,40,-1,-1,-1,-1,-1,-1,-1,-1,-1,-1,-1,-1],"split_conditions":[1.690867E-1,3.0441425E-4,-2.3416353E-2,1.040051E-2,2.0187304E-3,-1.3184313E-3,-1.6326621E-3,-3.9073084E-3,-1.4457202E-2,4.3633814E0,7.4718986E-3,-3.7408527E-3,9.742991E-2,-7.871115E-3,1.1641458E-3,-3.822018E-2,7.4295056E-1,5.8537564E-4,8.998911E-2,1.0358926E-1,8.001613E-3,-8.9154355E-2,4.502585E-2,7.111462E-2,-2.8774975E-2,-3.8392432E-3,3.7908412E-3,-2.5703867E-3,1.9635911E0,-6.870028E-2,1.913373E-2,-2.2025088E-2,-1.0966311E-1,-7.451352E-2,3.916412E-2,8.438329E-2,2.9611723E-3,2.159286E-2,-8.925471E-2,-2.6565978E-2,2.9565904E-2],"split_indices":[10,1,8,4,4,3,7,1,1,11,2,3,0,0,7,9,11,0,0,0,0,0,0,0,0,3,4,3,11,0,0,0,0,0,0,0,0,0,0,0,0],"split_type":[0,0,0,0,0,0,0,0,0,0,0,0,0,0,0,0,0,0,0,0,0,0,0,0,0,0,0,0,0,0,0,0,0,0,0,0,0,0,0,0,0],"sum_hessian":[7.332122E1,2.5382372E1,4.7938847E1,1.7276342E1,8.106029E0,5.265963E0,4.2672886E1,1.4924904E1,2.3514385E0,4.3629274E0,3.743101E0,2.4507706E0,2.8151925E0,1.4994908E1,2.7677977E1,9.252397E0,5.6725073E0,1.1896429E0,1.1617956E0,3.223807E0,1.1391206E0,2.7346652E0,1.0084357E0,1.1828445E0,1.2679262E0,3.517774E0,1.1477135E1,5.9841056E0,2.169387E1,3.568235E0,5.684162E0,1.1980872E0,4.47442E0,2.2537353E0,1.2640389E0,5.1525593E0,6.3245754E0,1.1119007E0,4.872205E0,1.2717915E1,8.975956E0],"tree_param":{"num_deleted":"0","num_feature":"13","num_nodes":"41","size_leaf_vector":"1"}},{"base_weights":[-1.4003551E-2,-6.255751E-2,4.1073533E-3,4.9271697E-1,-2.9084874E-2,6.8685174E-1,-8.448129E-3,1.7156592E-2,-5.8371454E-1,8.366011E-3,8.930157E-2,6.712227E-2,-3.3046025E-1,4.966619E-3,-9.548235E-2,-1.2949089E-2,1.9478394E-2,-7.657654E-2,4.1578073E-2,1.1295929E-2,-1.0664718E-2],"categories":[],"categories_nodes":[],"categories_segments":[],"categories_sizes":[],"default_left":[0,0,0,0,0,0,0,0,0,0,0,0,0,0,0,0,0,0,0,0,0],"id":33,"left_children":[1,-1,3,5,7,9,-1,11,13,-1,-1,15,17,19,-1,-1,-1,-1,-1,-1,-1],"loss_changes":[8.146097E-1,0E0,1.1852628E0,5.788989E-1,1.7681333E0,3.7147844E-1,0E0,1.13808E0,1.1634915E0,0E0,0E0,1.456019E0,2.9960592E0,4.8757706E-2,0E0,0E0,0E0,0E0,0E0,0E0,0E0],"parents":[2147483647,0,0,2,2,3,3,4,4,5,5,7,7,8,8,11,11,12,12,13,13],"right_children":[2,-1,4,6,8,10,-1,12,14,-1,-1,16,18,20,-1,-1,-1,-1,-1,-1,-1],"split_conditions":[-2.43545E-2,-6.255751E-2,-1.2003723E-2,2.408797E-2,3.4863096E-1,-2.1075187E-2,-8.448129E-3,2.1183554E-2,2.17249E-3,8.366011E-3,8.930157E-2,1.690867E-1,2.0727385E-2,4.752527E-3,-9.548235E-2,-1.2949089E-2,1.9478394E-2,-7.657654E-2,4.1578073E-2,1.1295929E-2,-1.0664718E-2],"split_indices":[7,0,7,8,10,8,0,2,9,0,0,10,1,8,0,0,0,0,0,0,0],"split_type":[0,0,0,0,0,0,0,0,0,0,0,0,0,0,0,0,0,0,0,0,0],"sum_hessian":[7.231455E1,1.1151935E0,7.1199356E1,3.6483974E0,6.755096E1,2.5879807E0,1.0604166E0,6.3246902E1,4.3040547E0,1.0173185E0,1.5706624E0,5.600393E1,7.2429748E0,2.0456717E0,2.258383E0,2.2042183E1,3.3961746E1,4.557994E0,2.6849806E0,1.0335747E0,1.0120969E0],"tree_param":{"num_deleted":"0","num_feature":"13","num_nodes":"21","size_leaf_vector":"1"}},{"base_weights":[-1.4123946E-2,8.007323E-3,-5.3558934E-2,-2.9356182E-2,3.7504134E-1,3.407154E-2,-5.874638E-1,7.168442E-1,-5.7575256E-2,-4.8272092E-2,3.8639438E-1,3.566223E-3,-7.085514E-1,8.658836E-2,1.8639615E-2,-6.476208E-2,1.3864451E-3,8.788632E-2,8.545197E-3,-9.415279E-2,-1.9420939E-2],"categories":[],"categories_nodes":[],"categories_segments":[],"categories_sizes":[],"default_left":[0,0,0,0,0,0,0,0,0,0,0,0,0,0,0,0,0,0,0,0,0],"id":34,"left_children":[1,3,-1,5,7,9,11,13,-1,15,17,-1,19,-1,-1,-1,-1,-1,-1,-1,-1],"loss_changes":[8.4533656E-1,9.8324084E-1,0E0,2.3306186E0,2.5650282E0,1.7464737E0,5.3199863E-1,2.5894785E-1,0E0,1.8398764E0,1.6134655E0,0E0,4.9670792E-1,0E0,0E0,0E0,0E0,0E0,0E0,0E0,0E0],"parents":[2147483647,0,0,1,1,3,3,4,4,5,5,6,6,7,7,9,9,10,10,12,12],"right_children":[2,4,-1,6,8,10,12,14,-1,16,18,-1,20,-1,-1,-1,-1,-1,-1,-1,-1],"split_conditions":[3.9037492E-2,3.948693E-2,-5.3558934E-2,3.1989817E-2,8.724124E-3,1.0608461E-2,3.5208747E-2,3.6367644E-3,-5.7575256E-2,-1.4813169E-2,1.5023244E-2,3.566223E-3,4.308315E-2,8.658836E-2,1.8639615E-2,-6.476208E-2,1.3864451E-3,8.788632E-2,8.545197E-3,-9.415279E-2,-1.9420939E-2],"split_indices":[1,9,0,9,0,4,8,4,0,2,4,0,8,0,0,0,0,0,0,0,0],"split_type":[0,0,0,0,0,0,0,0,0,0,0,0,0,0,0,0,0,0,0,0,0],"sum_hessian":[7.187673E1,6.9895E1,1.9817365E0,6.42722E1,5.622795E0,5.8556355E1,5.715851E0,4.3169446E0,1.3058503E0,4.8162884E1,1.0393468E1,1.0447862E0,4.6710644E0,2.8764024E0,1.4405422E0,3.6390698E0,4.4523815E1,3.2138624E0,7.1796055E0,2.6432354E0,2.027829E0],"tree_param":{"num_deleted":"0","num_feature":"13","num_nodes":"21","size_leaf_vector":"1"}},{"base_weights":[-1.3964206E-2,-1.5427838E-1,6.27165E-2,2.6056768E-2,-6.882819E-1,4.8375148E-1,-7.7130176E-2,-2.8673673E-1,3.6970136E-1,5.612653E-2,-1.0784533E-1,6.206004E-2,9.2448884E-1,4.9438554E-1,-1.5581676E-1,-4.681005E-1,2.7197853E-1,6.5960497E-1,-2.4398543E-1,5.472247E-2,-4.8375916E-2,8.265668E-2,-4.278366E-1,6.5676393E-3,1.0962647E-1,-3.9881277E-3,7.626532E-2,-7.765481E-1,4.356948E-2,-6.700235E-2,2.7420154E-2,-2.1758271E-2,5.7948988E-2,-1.4149539E-2,9.490626E-2,-9.2018045E-2,6.3176684E-2,1.0720197E-3,-9.350638E-2,-1.1635559E-3,-9.3404315E-2,3.7995365E-2,-1.754674E-2],"categories":[],"categories_nodes":[],"categories_segments":[],"categories_sizes":[],"default_left":[0,0,0,0,0,0,0,0,0,0,0,0,0,0,0,0,0,0,0,0,0,0,0,0,0,0,0,0,0,0,0,0,0,0,0,0,0,0,0,0,0,0,0],"id":35,"left_children":[1,3,5,7,9,11,13,15,17,19,-1,21,23,25,27,29,31,33,35,-1,-1,-1,37,-1,-1,-1,-1,39,41,-1,-1,-1,-1,-1,-1,-1,-1,-1,-1,-1,-1,-1,-1],"loss_changes":[7.893672E-1,2.511785E0,2.838211E0,2.2904847E0,1.9699664E0,2.1725454E0,1.7216629E0,1.2624278E0,1.9614861E0,1.1161628E0,0E0,3.0515654E0,7.8284454E-1,6.9909644E-1,4.106424E0,1.5063918E0,6.345824E-1,1.7907689E0,2.9364483E0,0E0,0E0,0E0,1.1332037E0,0E0,0E0,0E0,0E0,9.5929337E-1,1.9715034E0,0E0,0E0,0E0,0E0,0E0,0E0,0E0,0E0,0E0,0E0,0E0,0E0,0E0,0E0],"parents":[2147483647,0,0,1,1,2,2,3,3,4,4,5,5,6,6,7,7,8,8,9,9,11,11,12,12,13,13,14,14,15,15,16,16,17,17,18,18,22,22,27,27,28,28],"right_children":[2,4,6,8,10,12,14,16,18,20,-1,22,24,26,28,30,32,34,36,-1,-1,-1,38,-1,-1,-1,-1,40,42,-1,-1,-1,-1,-1,-1,-1,-1,-1,-1,-1,-1,-1,-1],"split_conditions":[-1.2942699E-3,-3.391894E-3,1.3201368E-3,9.187568E-4,7.5252833E-6,2.0219394E-4,-4.1309965E-4,-4.6513574E-3,4.0530493E-3,-2.7067198E-3,-1.0784533E-1,-4.1140374E-3,-7.736135E-3,-8.666548E-4,3.497698E-3,7.6022595E-3,1.296589E0,-3.4819644E-2,2.1754776E-1,5.472247E-2,-4.8375916E-2,8.265668E-2,4.0376198E-4,6.5676393E-3,1.0962647E-1,-3.9881277E-3,7.626532E-2,6.333536E-1,9.321586E-3,-6.700235E-2,2.7420154E-2,-2.1758271E-2,5.7948988E-2,-1.4149539E-2,9.490626E-2,-9.2018045E-2,6.3176684E-2,1.0720197E-3,-9.350638E-2,-1.1635559E-3,-9.3404315E-2,3.7995365E-2,-1.754674E-2],"split_indices":[6,6,6,7,7,1,2,6,8,5,0,1,3,0,2,5,11,9,10,0,0,0,2,0,0,0,0,11,6,0,0,0,0,0,0,0,0,0,0,0,0,0,0],"split_type":[0,0,0,0,0,0,0,0,0,0,0,0,0,0,0,0,0,0,0,0,0,0,0,0,0,0,0,0,0,0,0,0,0,0,0,0,0,0,0,0,0,0,0],"sum_hessian":[7.146614E1,2.489679E1,4.6569347E1,1.9322657E1,5.5741343E0,1.0998156E1,3.5571194E1,1.0202081E1,9.120576E0,2.2113142E0,3.3628201E0,6.2035217E0,4.794634E0,3.6654387E0,3.1905754E1,7.8243976E0,2.3776824E0,6.143556E0,2.9770193E0,1.15086E0,1.0604544E0,2.1543422E0,4.0491796E0,1.029562E0,3.7650719E0,1.5098478E0,2.1555908E0,7.0531425E0,2.4852612E1,6.227694E0,1.5967038E0,1.0301359E0,1.3475466E0,1.7663085E0,4.377248E0,1.6512823E0,1.3257369E0,2.6965575E0,1.352622E0,1.3876354E0,5.6655073E0,9.511202E0,1.534141E1],"tree_param":{"num_deleted":"0","num_feature":"13","num_nodes":"43","size_leaf_vector":"1"}},{"base_weights":[-1.20021505E-2,-3.615474E-2,4.2942286E-1,7.2738053E-3,-8.126486E-2,-1.4402441E-2,7.403491E-2,-4.7264177E-1,3.7207793E-2,-9.176386E-2,4.137409E-2,1.8091059E-1,-8.7601416E-2,-9.735196E-3,3.7216596E-2,-5.3934574E-2,7.0885936E-4],"categories":[],"categories_nodes":[],"categories_segments":[],"categories_sizes":[],"default_left":[0,0,0,0,0,0,0,0,0,0,0,0,0,0,0,0,0],"id":36,"left_children":[1,3,5,7,-1,-1,-1,9,11,-1,-1,13,15,-1,-1,-1,-1],"loss_changes":[7.762765E-1,2.3184066E0,7.804747E-1,9.647828E-1,0E0,0E0,0E0,1.9353534E0,1.1456033E0,0E0,0E0,1.6117966E0,1.4746623E0,0E0,0E0,0E0,0E0],"parents":[2147483647,0,0,1,1,2,2,3,3,7,7,8,8,11,11,12,12],"right_children":[2,4,6,8,-1,-1,-1,10,12,-1,-1,14,16,-1,-1,-1,-1],"split_conditions":[4.2997397E-2,2.6186144E-2,1.5822785E-1,5.1478572E-2,-8.126486E-2,-1.4402441E-2,7.403491E-2,4.0530493E-3,-5.2418234E-4,-9.176386E-2,4.137409E-2,-4.818044E-3,6.759086E-4,-9.735196E-3,3.7216596E-2,-5.3934574E-2,7.0885936E-4],"split_indices":[0,0,10,10,0,0,0,8,3,0,0,7,3,0,0,0,0],"split_type":[0,0,0,0,0,0,0,0,0,0,0,0,0,0,0,0,0],"sum_hessian":[7.0354576E1,6.757529E1,2.7792892E0,6.493421E1,2.6410747E0,1.1658599E0,1.6134293E0,2.9440687E0,6.1990143E1,1.9365746E0,1.0074942E0,2.86052E1,3.338494E1,1.185216E1,1.6753038E1,4.9714384E0,2.8413504E1],"tree_param":{"num_deleted":"0","num_feature":"13","num_nodes":"17","size_leaf_vector":"1"}},{"base_weights":[-1.2292842E-2,-2.8004223E-1,2.8493095E-2,2.0000263E-1,-7.590296E-1,1.7475046E-1,-1.2686595E-1,-1.5555981E-1,8.702903E-2,-9.8880574E-2,-6.003092E-4,2.2549827E-1,-5.6809295E-2,1.1477949E-1,-3.3466032E-1,4.1273545E-2,-6.806916E-2,5.598924E-2,5.575672E-1,-3.402816E-1,3.7396842E-1,3.9557368E-1,-4.8211324E-1,-1.5527859E-2,4.27804E-2,8.064599E-2,1.8435538E-2,2.6328066E-2,-7.548297E-2,-2.570486E-2,7.235728E-2,8.5534476E-2,-2.1865686E-2,-8.731776E-2,-1.7013079E-2],"categories":[],"categories_nodes":[],"categories_segments":[],"categories_sizes":[],"default_left":[0,0,0,0,0,0,0,0,0,0,0,0,0,0,0,0,0,0,0,0,0,0,0,0,0,0,0,0,0,0,0,0,0,0,0],"id":37,"left_children":[1,3,5,7,9,11,13,15,-1,-1,-1,17,-1,19,21,-1,-1,23,25,27,29,31,33,-1,-1,-1,-1,-1,-1,-1,-1,-1,-1,-1,-1],"loss_changes":[7.835574E-1,2.331771E0,1.4432338E0,1.4525337E0,8.51269E-1,1.3583426E0,1.5902747E0,1.6117729E0,0E0,0E0,0E0,1.728553E0,0E0,1.9004269E0,2.007429E0,0E0,0E0,1.7796166E0,8.2238126E-1,1.6947205E0,2.404107E0,1.1426475E0,1.6190991E0,0E0,0E0,0E0,0E0,0E0,0E0,0E0,0E0,0E0,0E0,0E0,0E0],"parents":[2147483647,0,0,1,1,2,2,3,3,4,4,5,5,6,6,7,7,11,11,13,13,14,14,17,17,18,18,19,19,20,20,21,21,22,22],"right_children":[2,4,6,8,10,12,14,16,-1,-1,-1,18,-1,20,22,-1,-1,24,26,28,30,32,34,-1,-1,-1,-1,-1,-1,-1,-1,-1,-1,-1,-1],"split_conditions":[-1.2950827E-2,2.0030357E-1,1.960847E-3,1.8850106E-1,2.6440756E0,3.9122272E-1,2.9236267E-6,-3.7408527E-3,8.702903E-2,-9.8880574E-2,-6.003092E-4,2.3251021E-1,-5.6809295E-2,-9.437675E-3,8.789951E-1,4.1273545E-2,-6.806916E-2,2.0315275E0,2.132197E-4,1.307102E0,5.3429483E-3,3.6367644E-3,1.695168E-2,-1.5527859E-2,4.27804E-2,8.064599E-2,1.8435538E-2,2.6328066E-2,-7.548297E-2,-2.570486E-2,7.235728E-2,8.5534476E-2,-2.1865686E-2,-8.731776E-2,-1.7013079E-2],"split_indices":[4,10,0,10,12,10,5,3,0,0,0,10,0,1,12,0,0,11,7,12,4,4,9,0,0,0,0,0,0,0,0,0,0,0,0],"split_type":[0,0,0,0,0,0,0,0,0,0,0,0,0,0,0,0,0,0,0,0,0,0,0,0,0,0,0,0,0,0,0,0,0,0,0],"sum_hessian":[7.002097E1,8.480762E0,6.1540207E1,4.5266075E0,3.9541543E0,3.163434E1,2.9905867E1,3.4594305E0,1.0671772E0,2.7897806E0,1.1643735E0,3.0263323E1,1.3710185E0,1.403366E1,1.5872207E1,1.7642268E0,1.6952037E0,2.0809462E1,9.453861E0,4.9790363E0,9.054624E0,2.38386E0,1.3488347E1,1.3640951E1,7.168511E0,4.9751196E0,4.478741E0,2.175911E0,2.8031254E0,3.3224769E0,5.732147E0,1.1388489E0,1.2450112E0,5.187326E0,8.301021E0],"tree_param":{"num_deleted":"0","num_feature":"13","num_nodes":"35","size_leaf_vector":"1"}},{"base_weights":[-1.1435374E-2,8.302776E-3,-5.546803E-2,-1.938415E-2,5.250371E-1,-5.0997026E-2,5.8222044E-1,6.8652965E-2,7.4261795E-3,-1.11627625E-2,-7.529389E-2,-4.3884153E-3,8.6344875E-2,2.0386754E-2,-8.585155E-3],"categories":[],"categories_nodes":[],"categories_segments":[],"categories_sizes":[],"default_left":[0,0,0,0,0,0,0,0,0,0,0,0,0,0,0],"id":38,"left_children":[1,3,-1,5,7,9,11,-1,-1,13,-1,-1,-1,-1,-1],"loss_changes":[7.581593E-1,9.9445826E-1,0E0,1.2899265E0,2.0630908E-1,1.7776282E0,6.3456905E-1,0E0,0E0,1.0045713E0,0E0,0E0,0E0,0E0,0E0],"parents":[2147483647,0,0,1,1,3,3,4,4,5,5,6,6,9,9],"right_children":[2,4,-1,6,8,10,12,-1,-1,14,-1,-1,-1,-1,-1],"split_conditions":[3.2082085E-2,2.187647E-2,-5.546803E-2,4.2997397E-2,9.0483595E-3,2.6186144E-2,1.5822785E-1,6.8652965E-2,7.4261795E-3,-2.3416353E-2,-7.529389E-2,-4.3884153E-3,8.6344875E-2,2.0386754E-2,-8.585155E-3],"split_indices":[5,5,0,0,3,0,10,0,0,8,0,0,0,0,0],"split_type":[0,0,0,0,0,0,0,0,0,0,0,0,0,0,0],"sum_hessian":[6.927684E1,6.779819E1,1.4786491E0,6.52638E1,2.534385E0,6.28751E1,2.3887038E0,1.4808617E0,1.0535234E0,6.0459976E1,2.4151206E0,1.0019643E0,1.3867395E0,1.5140541E1,4.5319435E1],"tree_param":{"num_deleted":"0","num_feature":"13","num_nodes":"15","size_leaf_vector":"1"}},{"base_weights":[-9.777595E-3,-5.948328E-2,7.589546E-3,4.595971E-1,-2.3445582E-2,6.117096E-4,7.079609E-2,1.894108E-2,-5.432116E-1,-7.893158E-3,6.1988335E-2,-1.8789308E-4,-8.8862784E-2,2.4735988E-3,-6.2851235E-2],"categories":[],"categories_nodes":[],"categories_segments":[],"categories_sizes":[],"default_left":[0,0,0,0,0,0,0,0,0,0,0,0,0,0,0],"id":39,"left_children":[1,-1,3,5,7,-1,-1,9,11,13,-1,-1,-1,-1,-1],"loss_changes":[7.158561E-1,0E0,9.7840655E-1,5.0027883E-1,1.4532778E0,0E0,0E0,9.97041E-1,9.280684E-1,1.2281928E0,0E0,0E0,0E0,0E0,0E0],"parents":[2147483647,0,0,2,2,3,3,4,4,7,7,8,8,9,9],"right_children":[2,-1,4,6,8,-1,-1,10,12,14,-1,-1,-1,-1,-1],"split_conditions":[-2.43545E-2,-5.948328E-2,-1.2003723E-2,1.1501765E0,3.4863096E-1,6.117096E-4,7.079609E-2,3.3205095E-1,2.17249E-3,4.3060027E-2,6.1988335E-2,-1.8789308E-4,-8.8862784E-2,2.4735988E-3,-6.2851235E-2],"split_indices":[7,0,7,11,10,0,0,10,9,2,0,0,0,0,0],"split_type":[0,0,0,0,0,0,0,0,0,0,0,0,0,0,0],"sum_hessian":[6.900886E1,1.0308732E0,6.797799E1,3.480321E0,6.4497665E1,1.5941815E0,1.8861394E0,6.052541E1,3.9722586E0,5.888294E1,1.6424701E0,1.938968E0,2.0332909E0,5.6853973E1,2.0289633E0],"tree_param":{"num_deleted":"0","num_feature":"13","num_nodes":"15","size_leaf_vector":"1"}},{"base_weights":[-9.98297E-3,-4.7642165E-1,1.1675406E-2,4.2033494E-3,-7.471928E-2,-1.1293367E-2,6.3918374E-2,-3.2301232E-1,3.40467E-2,1.5491684E-1,-7.269023E-1,-2.919288E-1,9.571514E-2,-4.878333E-2,4.8903707E-2,-9.52893E-2,-9.6328615E-4,-5.5458684E-2,3.4002736E-2,3.8691796E-2,-4.818113E-3],"categories":[],"categories_nodes":[],"categories_segments":[],"categories_sizes":[],"default_left":[0,0,0,0,0,0,0,0,0,0,0,0,0,0,0,0,0,0,0,0,0],"id":40,"left_children":[1,3,5,-1,-1,7,-1,9,11,13,15,17,19,-1,-1,-1,-1,-1,-1,-1,-1],"loss_changes":[7.0979804E-1,4.6900612E-1,9.81446E-1,0E0,0E0,9.464715E-1,0E0,1.7534051E0,1.2077302E0,1.2516929E0,7.6606417E-1,1.7793169E0,2.118211E0,0E0,0E0,0E0,0E0,0E0,0E0,0E0,0E0],"parents":[2147483647,0,0,1,1,2,2,5,5,7,7,8,8,9,9,10,10,11,11,12,12],"right_children":[2,4,6,-1,-1,8,-1,10,12,14,16,18,20,-1,-1,-1,-1,-1,-1,-1,-1],"split_conditions":[-2.809465E-2,-3.207975E-3,3.3102892E-2,4.2033494E-3,-7.471928E-2,-1.2950827E-2,6.3918374E-2,2.0003074E-1,1.19162336E-1,-3.850952E-2,2.6440756E0,4.0530493E-3,-1.4112782E-3,-4.878333E-2,4.8903707E-2,-9.52893E-2,-9.6328615E-4,-5.5458684E-2,3.4002736E-2,3.8691796E-2,-4.818113E-3],"split_indices":[1,0,7,0,0,4,0,10,10,9,12,8,8,0,0,0,0,0,0,0,0],"split_type":[0,0,0,0,0,0,0,0,0,0,0,0,0,0,0,0,0,0,0,0,0],"sum_hessian":[6.8710396E1,2.1171858E0,6.659321E1,1.0161984E0,1.1009874E0,6.518909E1,1.404122E0,7.500175E0,5.768891E1,3.7175639E0,3.7826114E0,8.583457E0,4.9105453E1,1.1141706E0,2.6033933E0,2.6265588E0,1.1560526E0,6.149844E0,2.4336126E0,1.5681647E1,3.342381E1],"tree_param":{"num_deleted":"0","num_feature":"13","num_nodes":"21","size_leaf_vector":"1"}},{"base_weights":[-1.0436935E-2,-1.4621413E-1,6.305101E-2,2.0664282E-2,-6.456106E-1,4.487414E-1,-6.350673E-2,-3.2184768E-1,2.9598927E-1,4.820537E-2,-1.0143491E-1,-3.272409E-1,6.541777E-1,4.6105787E-1,-1.3596801E-1,-5.3450173E-1,3.1427424E-2,5.6616694E-1,-2.9552767E-1,4.9912367E-2,-4.4196274E-2,6.10186E-3,-5.6085806E-2,-2.4827097E-2,7.954507E-1,-4.352158E-3,7.183597E-2,-7.1483904E-1,5.1273353E-2,-7.830622E-2,2.4617763E-2,-2.1495892E-2,7.543745E-2,-8.509358E-2,3.4298033E-2,9.09406E-2,5.092532E-4,8.6826895E-4,-8.702106E-2,-6.368566E-2,1.4452009E-2],"categories":[],"categories_nodes":[],"categories_segments":[],"categories_sizes":[],"default_left":[0,0,0,0,0,0,0,0,0,0,0,0,0,0,0,0,0,0,0,0,0,0,0,0,0,0,0,0,0,0,0,0,0,0,0,0,0,0,0,0,0],"id":41,"left_children":[1,3,5,7,9,11,13,15,17,19,-1,21,23,25,27,29,-1,31,33,-1,-1,-1,-1,-1,35,-1,-1,37,39,-1,-1,-1,-1,-1,-1,-1,-1,-1,-1,-1,-1],"loss_changes":[7.00276E-1,2.065367E0,2.2560568E0,1.9270473E0,1.6346128E0,2.0312138E0,1.4020534E0,1.403737E0,1.9715316E0,9.070073E-1,0E0,3.1110862E-1,1.3890462E0,6.1606956E-1,3.4760556E0,1.5931504E0,0E0,1.3518927E0,1.780157E0,0E0,0E0,0E0,0E0,0E0,7.4462366E-1,0E0,0E0,8.869095E-1,1.6903938E0,0E0,0E0,0E0,0E0,0E0,0E0,0E0,0E0,0E0,0E0,0E0,0E0],"parents":[2147483647,0,0,1,1,2,2,3,3,4,4,5,5,6,6,7,7,8,8,9,9,11,11,12,12,13,13,14,14,15,15,17,17,18,18,24,24,27,27,28,28],"right_children":[2,4,6,8,10,12,14,16,18,20,-1,22,24,26,28,30,-1,32,34,-1,-1,-1,-1,-1,36,-1,-1,38,40,-1,-1,-1,-1,-1,-1,-1,-1,-1,-1,-1,-1],"split_conditions":[-1.2942699E-3,-3.391894E-3,1.3201368E-3,-4.7837416E-4,7.5252833E-6,-7.589095E-3,-4.1309965E-4,-4.432748E-3,4.0530493E-3,-2.7067198E-3,-1.0143491E-1,-6.768196E-4,-8.678486E-3,-8.666548E-4,3.497698E-3,7.927346E-3,3.1427424E-2,-1.9359337E-2,2.1754776E-1,4.9912367E-2,-4.4196274E-2,6.10186E-3,-5.6085806E-2,-2.4827097E-2,9.337196E0,-4.352158E-3,7.183597E-2,6.333536E-1,-1.7194353E-2,-7.830622E-2,2.4617763E-2,-2.1495892E-2,7.543745E-2,-8.509358E-2,3.4298033E-2,9.09406E-2,5.092532E-4,8.6826895E-4,-8.702106E-2,-6.368566E-2,1.4452009E-2],"split_indices":[6,6,6,7,7,4,2,6,8,5,0,2,3,0,2,5,0,5,10,0,0,0,0,0,11,0,0,11,1,0,0,0,0,0,0,0,0,0,0,0,0],"split_type":[0,0,0,0,0,0,0,0,0,0,0,0,0,0,0,0,0,0,0,0,0,0,0,0,0,0,0,0,0,0,0,0,0,0,0,0,0,0,0,0,0],"sum_hessian":[6.825816E1,2.362279E1,4.4635376E1,1.8424633E1,5.198157E0,1.0398806E1,3.4236572E1,8.13522E0,1.02894125E1,2.1055803E0,3.0925765E0,2.0526283E0,8.346177E0,3.50442E0,3.0732151E1,6.2167306E0,1.9184889E0,7.092666E0,3.1967468E0,1.0871828E0,1.0183977E0,1.0486448E0,1.0039835E0,1.0271814E0,7.318996E0,1.4641048E0,2.0403152E0,6.822409E0,2.3909742E1,4.713081E0,1.5036496E0,1.3495271E0,5.743139E0,1.5316994E0,1.6650474E0,6.2650623E0,1.0539336E0,1.3729733E0,5.449436E0,2.157596E0,2.1752146E1],"tree_param":{"num_deleted":"0","num_feature":"13","num_nodes":"41","size_leaf_vector":"1"}},{"base_weights":[-1.2010369E-2,-3.4772098E-1,1.935212E-2,-6.910416E-1,2.3042165E-2,6.923507E-1,-3.4138482E-2,-1.475996E-3,-9.788423E-2,8.574223E-2,1.0917308E-2,1.7594449E-1,-1.6521825E-1,-8.842145E-2,4.7047213E-1,-3.3606166E-1,8.848058E-2,5.6178182E-2,-2.1647291E-2,6.053074E-2,-4.084603E-2,2.8047472E-2,-4.3343198E-2,5.8880698E-2,-1.498986E-2],"categories":[],"categories_nodes":[],"categories_segments":[],"categories_sizes":[],"default_left":[0,0,0,0,0,0,0,0,0,0,0,0,0,0,0,0,0,0,0,0,0,0,0,0,0],"id":42,"left_children":[1,3,5,7,-1,9,11,-1,-1,-1,-1,13,15,17,19,21,23,-1,-1,-1,-1,-1,-1,-1,-1],"loss_changes":[7.253219E-1,1.3271394E0,2.3047798E0,7.5276184E-1,0E0,3.6005735E-1,1.6718014E0,0E0,0E0,0E0,0E0,1.8639276E0,1.6442459E0,1.2185916E0,1.5779836E0,1.4703877E0,1.9704897E0,0E0,0E0,0E0,0E0,0E0,0E0,0E0,0E0],"parents":[2147483647,0,0,1,1,2,2,3,3,5,5,6,6,11,11,12,12,13,13,14,14,15,15,16,16],"right_children":[2,4,6,8,-1,10,12,-1,-1,-1,-1,14,16,18,20,22,24,-1,-1,-1,-1,-1,-1,-1,-1],"split_conditions":[-1.4813169E-2,3.5145585E-3,-9.891208E-3,-3.8371313E-2,2.3042165E-2,9.822782E-3,-1.5547967E-3,-1.475996E-3,-9.788423E-2,8.574223E-2,1.0917308E-2,-5.1155398E-3,5.406349E-3,-3.634894E-2,4.8066784E-2,-1.1932451E-2,8.903098E-3,5.6178182E-2,-2.1647291E-2,6.053074E-2,-4.084603E-2,2.8047472E-2,-4.3343198E-2,5.8880698E-2,-1.498986E-2],"split_indices":[2,4,2,8,0,0,7,0,0,0,0,7,2,8,8,0,6,0,0,0,0,0,0,0,0],"split_type":[0,0,0,0,0,0,0,0,0,0,0,0,0,0,0,0,0,0,0,0,0,0,0,0,0],"sum_hessian":[6.725072E1,4.8840175E0,6.2366703E1,2.9417992E0,1.9422185E0,3.712612E0,5.865409E1,1.1920273E0,1.7497717E0,2.527056E0,1.185556E0,2.2404263E1,3.624983E1,1.2175449E1,1.0228813E1,2.1468243E1,1.4781585E1,1.4459966E0,1.0729453E1,9.1382475E0,1.0905656E0,2.671588E0,1.8796656E1,4.2956142E0,1.04859705E1],"tree_param":{"num_deleted":"0","num_feature":"13","num_nodes":"25","size_leaf_vector":"1"}},{"base_weights":[-9.262413E-3,-2.637927E-1,3.1095719E-2,3.7801918E-2,-4.6253875E-1,1.6603988E-1,-1.11039475E-1,-7.656417E-2,-1.4573936E-1,-8.443052E-2,3.0993524E-1,-2.8260985E-1,1.3555944E-1,3.850313E-2,-5.768869E-2,1.794865E-1,-7.580607E-1,1.1609988E-1,5.813831E-1,-9.3146585E-2,-1.12084836E-1,4.9305457E-1,-2.0582993E-1,-3.1962078E-2,4.9089234E-2,-2.2072854E-2,-8.894712E-2,6.581002E-2,-1.3121664E-2,-1.43785095E-2,8.130396E-2,4.0371288E-2,-5.845024E-2,2.0623714E-2,8.859247E-2,3.628144E-2,-4.5281306E-2],"categories":[],"categories_nodes":[],"categories_segments":[],"categories_sizes":[],"default_left":[0,0,0,0,0,0,0,0,0,0,0,0,0,0,0,0,0,0,0,0,0,0,0,0,0,0,0,0,0,0,0,0,0,0,0,0,0],"id":43,"left_children":[1,3,5,-1,7,9,11,-1,13,15,17,19,21,-1,-1,23,25,27,29,-1,31,33,35,-1,-1,-1,-1,-1,-1,-1,-1,-1,-1,-1,-1,-1,-1],"loss_changes":[7.036467E-1,1.3701732E0,1.1563972E0,0E0,6.1865926E-1,1.1375241E0,1.2861806E0,0E0,1.3556883E0,2.2760432E0,9.7421587E-1,1.8559363E0,1.6608502E0,0E0,0E0,1.6267884E0,5.644512E-2,1.8021318E0,1.4605534E0,0E0,3.9316893E0,5.5375326E-1,1.1812803E0,0E0,0E0,0E0,0E0,0E0,0E0,0E0,0E0,0E0,0E0,0E0,0E0,0E0,0E0],"parents":[2147483647,0,0,1,1,2,2,4,4,5,5,6,6,8,8,9,9,10,10,11,11,12,12,15,15,16,16,17,17,18,18,20,20,21,21,22,22],"right_children":[2,4,6,-1,8,10,12,-1,14,16,18,20,22,-1,-1,24,26,28,30,-1,32,34,36,-1,-1,-1,-1,-1,-1,-1,-1,-1,-1,-1,-1,-1,-1],"split_conditions":[-1.2429258E-2,-6.7195278E-3,1.960847E-3,3.7801918E-2,9.7965264E-1,1.1501765E0,3.6053983E-3,-7.656417E-2,2.0003074E-1,8.260372E-1,1.43843135E-2,-6.3146516E-3,1.0073588E-2,3.850313E-2,-5.768869E-2,-1.3363048E-3,4.492596E-3,-4.433259E-3,-8.133039E-3,-9.3146585E-2,2.1580236E-3,2.5837459E-3,8.701244E-3,-3.1962078E-2,4.9089234E-2,-2.2072854E-2,-8.894712E-2,6.581002E-2,-1.3121664E-2,-1.43785095E-2,8.130396E-2,4.0371288E-2,-5.845024E-2,2.0623714E-2,8.859247E-2,3.628144E-2,-4.5281306E-2],"split_indices":[4,2,0,0,12,11,7,0,10,12,9,6,3,0,0,2,6,1,0,0,2,2,7,0,0,0,0,0,0,0,0,0,0,0,0,0,0],"split_type":[0,0,0,0,0,0,0,0,0,0,0,0,0,0,0,0,0,0,0,0,0,0,0,0,0,0,0,0,0,0,0,0,0,0,0,0,0],"sum_hessian":[6.6700455E1,8.370866E0,5.832959E1,1.7659738E0,6.604892E0,2.9835434E1,2.8494154E1,2.6513584E0,3.9535334E0,1.1037077E1,1.8798357E1,1.6717192E1,1.1776962E1,1.8199805E0,2.1335528E0,8.45723E0,2.5798476E0,1.1799956E1,6.9984007E0,2.5504117E0,1.416678E1,5.535771E0,6.2411914E0,3.239202E0,5.2180276E0,1.0335187E0,1.5463289E0,3.1768496E0,8.623107E0,1.7862167E0,5.212184E0,6.8419714E0,7.3248096E0,4.0812078E0,1.4545628E0,1.747903E0,4.493288E0],"tree_param":{"num_deleted":"0","num_feature":"13","num_nodes":"37","size_leaf_vector":"1"}},{"base_weights":[-9.107302E-3,-3.2103892E-2,4.0969372E-1,3.746554E-3,-6.973355E-2,-1.0456888E-2,6.7464024E-2,-4.3648162E-1,3.1018572E-2,-8.1766024E-2,2.3742562E-2,-2.484763E-1,8.077838E-2,3.5592895E-2,-4.381751E-2,1.2789982E-2,-3.482894E-2],"categories":[],"categories_nodes":[],"categories_segments":[],"categories_sizes":[],"default_left":[0,0,0,0,0,0,0,0,0,0,0,0,0,0,0,0,0],"id":44,"left_children":[1,3,5,7,-1,-1,-1,9,11,-1,-1,13,15,-1,-1,-1,-1],"loss_changes":[6.566291E-1,1.5352024E0,5.543015E-1,7.575592E-1,0E0,0E0,0E0,1.1398311E0,8.4464926E-1,0E0,0E0,1.2114389E0,1.0773767E0,0E0,0E0,0E0,0E0],"parents":[2147483647,0,0,1,1,2,2,3,3,7,7,8,8,11,11,12,12],"right_children":[2,4,6,8,-1,-1,-1,10,12,-1,-1,14,16,-1,-1,-1,-1],"split_conditions":[4.2997397E-2,2.6186144E-2,1.5822785E-1,5.1478572E-2,-6.973355E-2,-1.0456888E-2,6.7464024E-2,-5.908182E-4,-1.2429258E-2,-8.1766024E-2,2.3742562E-2,-6.7195278E-3,3.462143E-1,3.5592895E-2,-4.381751E-2,1.2789982E-2,-3.482894E-2],"split_indices":[0,0,10,10,0,0,0,8,4,0,0,2,10,0,0,0,0],"split_type":[0,0,0,0,0,0,0,0,0,0,0,0,0,0,0,0,0],"sum_hessian":[6.581307E1,6.326263E1,2.5504417E0,6.097116E1,2.2914698E0,1.0730218E0,1.47742E0,2.6814897E0,5.828967E1,1.5764806E0,1.1050091E0,8.205705E0,5.0083965E1,1.7508816E0,6.454823E0,4.5760345E1,4.3236194E0],"tree_param":{"num_deleted":"0","num_feature":"13","num_nodes":"17","size_leaf_vector":"1"}},{"base_weights":[-9.853775E-3,-3.3158892E-1,2.032079E-2,-6.638924E-1,2.2470169E-2,7.0645106E-1,-2.9113414E-2,-3.3995546E-3,-9.271682E-2,8.853357E-2,1.2787014E-2,1.6182958E-1,-1.471026E-1,-7.93963E-2,4.3611297E-1,-2.9451948E-1,7.628174E-2,5.3399153E-2,-1.9830016E-2,7.19985E-2,-1.3526712E-3,2.9338572E-2,-3.871658E-2,5.944379E-2,-1.3279571E-2],"categories":[],"categories_nodes":[],"categories_segments":[],"categories_sizes":[],"default_left":[0,0,0,0,0,0,0,0,0,0,0,0,0,0,0,0,0,0,0,0,0,0,0,0,0],"id":45,"left_children":[1,3,5,7,-1,9,11,-1,-1,-1,-1,13,15,17,19,21,23,-1,-1,-1,-1,-1,-1,-1,-1],"loss_changes":[6.519128E-1,1.2132301E0,2.1133425E0,6.0800827E-1,0E0,3.2006145E-1,1.3420855E0,0E0,0E0,0E0,0E0,1.5447767E0,1.2306907E0,1.053301E0,1.3926353E0,1.3287059E0,1.7452214E0,0E0,0E0,0E0,0E0,0E0,0E0,0E0,0E0],"parents":[2147483647,0,0,1,1,2,2,3,3,5,5,6,6,11,11,12,12,13,13,14,14,15,15,16,16],"right_children":[2,4,6,8,-1,10,12,-1,-1,-1,-1,14,16,18,20,22,24,-1,-1,-1,-1,-1,-1,-1,-1],"split_conditions":[-1.4813169E-2,3.5145585E-3,-1.0111957E-2,-3.8371313E-2,2.2470169E-2,9.822782E-3,-1.5547967E-3,-3.3995546E-3,-9.271682E-2,8.853357E-2,1.2787014E-2,-5.1155398E-3,5.406349E-3,-3.634894E-2,1.5142311E-3,-1.1932451E-2,7.878739E-3,5.3399153E-2,-1.9830016E-2,7.19985E-2,-1.3526712E-3,2.9338572E-2,-3.871658E-2,5.944379E-2,-1.3279571E-2],"split_indices":[2,4,2,8,0,0,7,0,0,0,0,7,2,8,1,0,6,0,0,0,0,0,0,0,0],"split_type":[0,0,0,0,0,0,0,0,0,0,0,0,0,0,0,0,0,0,0,0,0,0,0,0,0],"sum_hessian":[6.545655E1,4.756074E0,6.0700474E1,2.8563745E0,1.8996994E0,3.18621E0,5.7514263E1,1.1747847E0,1.6815897E0,2.0287728E0,1.157437E0,2.1824276E1,3.568999E1,1.1989937E1,9.834338E0,2.1309126E1,1.4380865E1,1.3799993E0,1.0609938E1,5.659847E0,4.1744914E0,2.605935E0,1.870319E1,3.6045556E0,1.0776309E1],"tree_param":{"num_deleted":"0","num_feature":"13","num_nodes":"25","size_leaf_vector":"1"}},{"base_weights":[-6.250077E-3,1.7018467E-2,-4.3095598E-1,-2.072744E-2,4.4438943E-1,7.5220214E-3,-6.7214765E-2,3.556673E-2,-5.35917E-1,-2.9249242E-2,7.2950244E-1,-4.2430535E-2,3.6753988E-1,-7.1303296E-1,-7.4730925E-3,1.209399E-2,8.924034E-2,-6.640113E-2,3.870339E-4,8.111423E-2,9.104161E-3,-8.418137E-2,-1.876711E-2],"categories":[],"categories_nodes":[],"categories_segments":[],"categories_sizes":[],"default_left":[0,0,0,0,0,0,0,0,0,0,0,0,0,0,0,0,0,0,0,0,0,0,0],"id":46,"left_children":[1,3,5,7,9,-1,-1,11,13,-1,15,17,19,21,-1,-1,-1,-1,-1,-1,-1,-1,-1],"loss_changes":[6.589917E-1,1.0332202E0,4.7335654E-1,1.7383888E0,1.3050467E0,0E0,0E0,1.4236779E0,4.288019E-1,0E0,2.9185677E-1,1.2956817E0,1.2078394E0,1.2259817E-1,0E0,